tree
version=v4
num_class=1
num_tree_per_iteration=1
label_index=0
max_feature_idx=12
objective=regression
feature_names=Column_0 Column_1 Column_2 Column_3 Column_4 Column_5 Column_6 Column_7 Column_8 Column_9 Column_10 Column_11 Column_12
feature_infos=none [-0.86260857600378016:2.2924601761379773] none none none [-0.91441836431870016:2.5427523421366551] none none [-1.8674851808370856:0.94188486593525012] none none none none
tree_sizes=309 308 308 308 309 309 309 309 309 308 308 309 310 310 310 310 307 309 310 310 311 311 310 311 311 310 310 309 308 310 311 311 311 310 310 311 311 309 310 311 311 311 311 311 312 310 310 310 310 309 311 312 310 311 310 310 311 310 311 311 310 311 311 311 311 311 311 310 313 311 310 310 310 310 312 310 312 312 310 312 311 311 311 312 312 311 311 311 311 311 314 313 315 315 313 311 311 309 311 308 312 313 312 313 313 311 312 313 313 313 311 312 311 312 312 313 313 313 313 311 312 314 312 311 313 313 313 312 313 311 312 312 312 312 312 314 315 314 315 314 312 312 312 312 310 311 312 312 313 311 313 313 309 313 310 314 315 315 312 313 310 310 312 313 312 313 313 310 313 313 312 313 312 313 313 314 313 314 314 314 312 312 312 312 312 313 311 313 312 313 312 312 312 312 312 313 312 312 314 314 312 313 311 312 313 313 313 313 313 314 312 312 312 312 311 313 312 313 312 313 312 311 313 313 311 313 311 313 314 311 312 312 312 312 312 312 311 312 312 312 311 315 312 316 312 312 312 311 311 313 314 313 314 314 314 312 311 311 312 313 313 313 313 313 312 312 312 312 312 312 313 313 313 313 312 310 312 312 313 313 310 314 311 314 311 313 313 313 313 312 312 312 312 312 312 312 312 313 312 313 314 315 315 315 314 312 313 312 313 313 310 312 312 312 313 312 312 312 312 312 313 313 312 312 313 312 312 312 313 313 312 311 312 311 312 313 313 312 312 311 310 309 310 310 312 312 313 313 313 313 311 312 310 313 313 313 313 313 313 313 313 312 313 313 313 314 315 314 315 315 313 313 313 313 311 313 313 313 313 313 312 312 312 312 313 314 314 314 313 314 313 313 312 312 312 313 313 314 314 314 310 311 311 310 310 312 312 312 311 313 312 312 312 312 312 312 313 311 312 313 315 314 315 314 313 312 313 314 313 314 313 313 311 313 313 313 313 312 313 313 313 313 313 313 313 314 314 314 314 314 312 313 313 313 313 314 313 314 314 314 312 312 312 312 311 309 312 311 312 312 314 314 312 314 313 313 314 314 314 314 313 313 310 312 313 313 310 312 311 313 314 314 314 315 314 313 313 313 313 312 311 312 312 312 313 312 313 313 312 313 313 313 311 313 314 313 312 311 314 314 313 313 313 313 313 310 313 313 313 312 316 314 314 317 314 311 311 309 312 312 312 313 311 312 311 312 312 312 311 313 312 313 313 312 313 315 315 315 314 312 312 313 313 313 313 312 312 312 312 312 312 311 313 312 313 312 314 313 313 312 312 313 313 314 314 314 313 314 314 314 311 312 310 312 312 309 311 311 312 311 311 311 311 311 312 313 313 311 313 312 311 312 311 312 311 312 312 312 313 313 314 313 314 314 312 311 310 308 311 309 312 313 312 314 314 311 311 309 311 312 316 317 317 314 317 311 312 312 312 312 311 311 310 311 311 313 313 313 313 313 312 312 312 312 311 312 312 312 311 312 312 313 312 313 310 313 313 313 312 313 312 312 314 313 312 312 312 312 312 311 312 313 313 313 313 315 315 315 316 315 316 316 316 313 314 311 310 311 313 312 313 312 313 312 313 312 313 315 313 314 312 313 313 313 314 311 312 312 312 313 315 314 315 315 315 311 311 311 315 311 313 316 312 314 314 311 312 311 312 311 313 313 313 312 313 310 312 311 312 312 311 310 311 312 313 313 313 313 313 313 312 312 311 312 312 312 313 313 312 313 311 310 311 311 311 315 313 315 313 315 313 310 313 314 314 313 313 313 313 313 311 311 310 311 311 311 312 312 312 312 313 313 313 313 313 314 314 315 314 316 312 312 312 312 311 310 312 312 312 312 313 313 314 313 315 314 314 314 313 313 313 314 313 314 312 312 311 312 313 313 313 313 313 313 313 312 312 312 312 312 315 315 315 315 315 314 314 314 314 315 312 313 313 313 313 310 312 313 312 313 312 313 314 315 315 313 313 313 313 312 312 312 310 312 312 314 314 314 312 313 312 312 312 312 311 311 312 312 311 313 312 313 314 313 313 313 312 313 314 313 313 312 312 313 312 312 311 312 312 313 312 312 312 312 312 311 312 312 312 312 313 313 314 316 315 313 313 313 313 315 313 313 311 314 314 313 313 311 313 313 315 315 313 313 313 313 313 312 313 313 313 309 312 314 313 313 313 312 315 312 314 314 312 314 317 312 313 313 315 313 312 313 313 313 314 313 313 314 313 314 312 312 312 312 312 313 314 315 315 315 314 311 314 315 314 312 312 313 314 313 313 311 313 313 312 313 313 313 313 312 313 314 315 314 315 313 314 314 313 312 313 314 313 314 314 312 312 310 313 312 314 314 314 314 314 315 315 314 315 315 314 312 314 314 314 315 314 315 314 315 315 315 314 314 314 313 314 314 313 314 313 313 313 313 312 311 311 311 313 311 312 313 313 314 314 316 317 317 316 317 313 313 313 313 313 312 312 313 313 313 314 314 314 314 314 317 316 316 316 317 314 314 314 314 313 314 314 314 315 314 315 315 314 315 314 314 314 316 316 315 313 314 314 313 314 314 313 314 314 314 313 311 312 315 312 313 313 313 314 314 312 313 311 313 313 314 313 313 314 314 312 312 313 313 314 314 315 315 315 313 314 314 314 313 314 312 310 311 312 312 314 314 313 314 312 312 312 310 312 313 313 314 312 314 313 312 314 314 312 312 314 315 316 315 314 312 312 311 312 311 312 314 313 311 314 313 312 313 313 313 312 313 313 314 314 311 312 313 311 314 312 312 312 312 314 315 315 314 314 314 314 314 314 314 314 314 314 313 313 314 311 313 313 313 311 316 314 314 314 315 314 314 314 315 315 313 312 313 313 313 313 312 312 312 314 313 313 313 313 314 314 314 314 314 314 313 311 313 313 313 315 313 316 313 315 314 315 314 316 316 313 314 313 314 314 315 315 315 315 314 315 315 315 315 315 312 312 311 312 312 313 313 311 313 313 314 315 315 315 316 311 311 313 316 314 313 313 314 313 314 316 313 315 314 315 312 312 312 313 312 313 313 313 313 314 314 314 314 314 315 313 313 312 312 314 315 314 314 315 314 312 313 310 313 312 312 312 313 313 313 314 311 314 313 313 314 314 314 313 313 312 312 312 312 313 313 313 312 313 314 312 313 309 313 313 311 314 312 314 313 313 312 313 312 314 314 313 315 315 316 313 314 316 315 316 313 313 314 312 313 313 313 311 313 312 313 313 313 313 313 310 313 313 314 314 313 313 313 313 313 314 313 314 314 314 313 312 313 313 313 312 312 312 312 312 312 314 314 314 313 314 314 314 314 313 315 316 315 316 314 314 313 313 315 312 316 313 312 316 316 312 313 312 314 315 313 313 312 312 313 313 313 313 312 312 315 315 313 316 314 312 313 313 313 312 314 313 312 314 314 316 316 316 313 316 310 312 313 313 313 313 313 312 313 314 314 314 313 314 315 314 314 315 315 315 313 312 314 314 314 312 312 314 314 314 313 314 314 313 314 313 314 314 314 314 314 314 314 314 314 313 313 314 314 313 314 314 314 314 314 313 313 313 314 314 312 312 312 313 312 312 312 312 312 313 315 315 315 315 314 314 314 314 313 314 314 314 315 314 313 315 315 314 315 315 314 313 311 314 314 313 313 313 313 313 315 315 316 315 314 313 311 312 313 313 313 315 313 315 313 314 314 314 314 315 314 314 313 314 314 314 316 314 314 314 312 311 312 313 313 311 312 312 313 313 317 317 318 318 318 313 313 316 314 313 315 315 315 312 313 313 314 315 312 313 314 313 314 314 314 311 312 313 312 312 311 311 312 312 312 312 312 313 313 313 314 314 314 314 314 313 313 313 312 313 314 314 312 314 314 312 312 312 311 311 315 316 315 316 315 312 311 313 313 313 311 310 312 310 312 313 311 314 312 313 314 313 314 313 314 313 313 313 314 316 313 315 315 316 315 314 314 315 313 315 313 313 315 315 315 313 313 313 313 313 313 314 314 314 314 312 314 314 314 314 314 314 314 314 313 314 314 313 314 314 310 312 310 310 311 313 314 313 314 312 314 314 314 313 314 313 314 314 314 313 314 314 315 313 315 313 313 314 312 312 312 312 312 314 311 312 311 314 314 313 312 311 312 312 311 314 313 313 314 314 312 312 311 312 315 314 314 314 314 314 314 314 314 315 314 314 315 313 315 313 314 313 313 314 311 312 313 310 314 314 314 315 314 315 313 315 315 315 315 315 313 313 313 314 314 311 312 312 313 312 312 311 314 313 314 314 314 314 315 313 314 315 313 313 315 313 313 314 314 312 314 315 315 313 317 315 315 314 314 313 313 312 314 313 314 313 314 314 314 314 316 316 316 316 316 312 313 313 313 313 311 312 312 311 312 313 313 313 313 313 315 315 316 316 313 314 314 314 314 314 313 312 313 313 313 314 314 314 313 314 314 314 314 314 314 310 309 311 311 312 314 314 314 314 315 312 314 315 314 315 314 314 314 314 314 313 313 313 312 313 313 313 313 313 312 315 316 316 316 316 312 313 313 314 314 314 314 313 313 314 313 314 314 315 315 314 314 314 314 314 311 312 311 313 313 312 313 313 313 314 314 314 314 314 312 313 313 313 313 312 316 314 314 313 314 313 313 313 313 313 314 313 313 314 314 314 313 314 314 315 313 312 312 313 314 313 314 315 315 313 314 311 314 312 312 312 314 313 313 313 314 314 313 314 313 313 313 313 313 313 313 312 313 313 313 315 315 315 317 317 313 312 314 314 312 314 313 314 314 313 315 316 315 315 316 313 313 312 313 312 315 315 315 315 315 314 313 313 314 314 311 312 312 311 311 314 314 313 314 313 311 312 312 312 313 314 313 314 313 315 315 314 312 314 313 311 313 313 314 313 315 315 315 316 316 313 313 313 313 313 314 313 314 314 314 316 315 316 316 316 316 316 316 316 317 314 313 314 314 314 313 313 313 314 314 312 311 312 313 311 313 312 313 313 313 311 312 313 313 313 312 311 312 312 311 312 312 312 312 312 314 314 313 315 315 316 317 318 315 318 312 314 315 315 315 314 314 314 315 313 314 315 315 315 315 312 311 313 313 314 312 313 313 313 313 314 314 313 314 314 313 312 313 311 313 315 315 315 315 316 313 313 313 312 313 314 314 314 312 314 313 311 312 312 313 314 314 315 315 315 313 313 313 312 311 313 313 313 313 313 313 313 311 313 313 313 312 313 314 313 314 314 315 315 313 315 315 314 315 316 316 313 316 317 314 314 314 315 314 314 311 314 313 314 314 311 313 313 314 314 315 315 315 315 316 312 312 313 311 311 315 315 315 314 315 315 314 314 315 314 314 314 314 314 314 314 314 314 315 314 313 312 313 313 313 313 312 313 313 312 313 313 312 312 313 313 313 313 313 313 315 316 315 316 314 312 312 312 312 313 313 313 313 312 314 314 314 311 314 314 312 313 315 313 315 314 314 313 314 314 312 313 312 313 312 314 314 314 314 313 312 314 314 313 314 313 314 314 311 314 311 315 315 314 313 312 313 312 314 314 313 314 313 314 314 314 314 313 314 314 314 314 314 315 313 312 313 312 311 313 312 311 313 312 313 313 313 313 313 314 314 313 313 310 314 315 315 313 315 314 315 315 315 313 313 314 313 313 314 312 313 314 314 314 314 314 313 314 314 314 311 313 313 312 314 312 314 314 313 314 314 313 313 314 313 313 313 312 314 314 313 312 313 313 314 314 315 314 316 314 316 316 315 314 313 313 314 312 313 313 314 313 314 313 314 313 313 313 313 313 314 314 314 314 314 313 311 313 313 312 313 312 311 313 314 314 314 313 313 313 314 314 312 314 314 313 315 314 315 316 314 314 314 312 314 312 313 313 313 313 315 313 315 312 315 314 314 314 313 314 312 311 311 312 312 313 313 313 313 313 315 316 316 312 315 312 313 313 313 314 313 314 312 314 314 315 314 312 314 313 314 314 314 314 314 314 314 314 314 315 314 314 314 315 315 315 315 315 314 314 312 311 312 312 312 314 312 314 314 314 313 313 314 312 314 314 314 314 314 313 314 314 314 313 314 313 312 313 312 313 313 313 313 313 313 313 314 314 313 311 313 313 313 313 313 314 314 314 314 314 317 316 317 317 318 315 315 315 316 315 312 313 313 313 313 317 317 313 315 314 314 313 313 313 313 312 313 314 314 314 315 313 315 314 312 312 313 312 313 313 311 312 312 311 311 313 313 314 314 314 312 313 313 313 313 314 314 314 315 314 316 314 315 314 313 313 316 315 316 315 314 314 314 314 314 314 313 314 315 315 314 314 312 314 313 315 312 315 313 315 314 314 314 313 313 313 313 314 314 314 314 313 314 314 314 311 313 314 312 314 315 315 314 313 315 315 316 316 316 315 314 314 314 314 315 313 311 313 313 313 313 313 315 314 315 311 312 312 313 314 313 313 313 313 313 313 313 314 314 314 314 314 314 312 314 314 314 314 313 314 314 314 313 313 313 311 313 313 313 314 318 317 318 318 318 312 312 312 313 314 314 313 312 314 314 316 314 316 316 314 315 313 315 311 314 312 312 315 312 315 313 314 314 314 313 312 312 312 312 313 311 313 313 312 313 313 314 313 312 314 313 313 313 313 313 314 314 313 314 313 316 315 317 316 318 313 313 313 313 312 313 311 314 312 312 315 315 315 315 314 314 315 315 315 315 314 314 313 313 314 311 312 313 312 314 313 313 313 313 314 311 313 312 314 313 316 315 316 316 314 316 317 317 317 316 314 315 315 315 315 312 313 313 313 311 314 314 314 314 314 314 316 314 316 314 312 313 313 313 314 312 313 313 311 313 314 314 314 314 314 312 313 312 314 314 315 315 315 316 316 313 312 313 313 312 313 313 313 314 314 315 315 315 315 315 312 313 313 313 312 313 314 313 314 314 314 313 312 314 313 313 313 312 313 314 314 314 314 314 312 315 314 315 314 315 314 316 314 315 314 315 316 316 315 316 315 316 316 316 315 316 315 316 316 314 311 313 313 313 313 313 313 314 314 313 315 315 315 314 316 314 314 314 314 314 312 314 314 314 313 313 313 315 315 313 314 313 314 312 314 312 313 314 312 313 312 312 312 312 312 315 314 315 314 315 310 312 313 313 313 314 313 314 314 314 314 315 314 314 315 313 312 314 314 314 313 311 313 313 315 314 314 314 314 313 314 315 315 314 315 312 312 312 312 312 312 312 312 312 313 312 313 314 314 313 313 312 313 313 313 314 314 311 313 313 312 312 313 313 312 314 314 313 314 314 315 315 314 315 314 312 313 313 314 314 314 314 314 314 314 313 314 314 314 314 312 313 312 313 313 311 311 312 312 313 313 315 313 315 314 313 314 314 314 313 314 314 314 314 314 313 314 314 313 313 314 313 313 313 314 312 311 311 312 311 313 314 313 315 314 313 312 312 312 314 312 314 314 314 314 314 313 314 314 314 314 313 314 314 314 313 313 313 313 313 314 314 314 314 314 314 312 313 313 314 313 313 313 313 313 314 313 314 314 314 313 313 313 313 312 313 313 314 314 313 313 313 314 314 313 312 314 313 313 314 313 314 312 314 313 313 313 312 313 313 314 314 315 314 315 312 312 312 313 313 313 311 313 314 313 316 317 317 317 316 311 314 313 314 313 314 314 314 314 313 313 313 313 313 314 314 314 314 313 312 315 313 315 315 315 314 312 314 312 315 314 312 314 313 314 314 314 314 313 314 313 314 312 314 314 312 312 312 313 311 315 316 316 316 315 312 313 311 312 315 314 314 312 313 313 311 311 313 313 314 313 313 314 313 314 315 313 315 314 313 314 314 314 314 314 313 313 313 313 313 314 314 315 315 314 315 315 315 315 314 315 315 316 316 316 312 315 313 315 313 311 314 313 314 313 314 314 314 314 315 312 311 313 313 313 313 313 314 313 314 313 314 314 313 314 314 313 314 314 314 313 314 314 315 314 313 313 314 314 314 315 313 314 314 316 312 314 312 313 313 311 311 311 312 314 314 314 313 313 313 313 314 314 314 314 315 315 315 314 314 314 314 314 313 314 314 315 313 315 314 311 313 313 314 313 315 315 314 312 314 312 312 312 312 311 313 313 312 313 314 314 315 316 316 316 314 314 314 314 314 313 313 313 313 312 315 316 316 314 316 316 317 317 316 314 314 314 313 314 314 312 312 312 311 313 314 311 314 314 314 312 313 314 315 312 313 314 314 314 313 313 313 313 314 313 315 315 314 315 314 312 313 313 311 313 314 314 314 314 314 313 313 313 313 312 313 313 312 312 313 314 315 315 315 315 311 311 312 312 310 315 315 314 315 316 313 313 312 313 312 316 315 316 316 316 313 313 313 313 312 314 314 313 314 315 314 314 313 314 314 314 314 314 314 313 315 315 316 315 315 314 314 313 314 314 314 314 315 314 314 313 313 313 313 314 312 313 313 313 313 313 312 313 313 313 315 315 315 315 315 313 313 314 314 314 313 313 313 313 313 310 312 314 313 314 313 312 313 313 314 312 312 314 314 314 313 313 313 314 313 313 312 313 311 312 313 313 313 312 314 313 313 314 313 313 314 314 314 314 314 315 316 315 315 314 312 312 313 314 313 313 314 314 314 314 313 313 313 312 313 313 313 313 312 313 311 312 312 312 311 314 314 314 313 313 314 314 314 315 315 313 313 315 313 313 315 313 315 314 315 312 314 314 314 314 312 311 312 310 311 316 315 314 316 314 313 314 313 315 314 315 315 315 315 313 312 312 312 312 312 313 313 313 313 311 313 313 314 313 312 314 313 312 315 313 312 314 314 313 314 312 312 314 312 314 313 314 313 313 314 314 314 313 314 315 313 310 313 312 312 312 314 314 313 314 313 314 314 315 315 313 314 314 315 313 312 313 313 313 312 312 311 314 312 314 312 313 314 313 314 313 316 314 316 314 313 313 313 312 312 314 314 314 313 313 313 313 312 314 312 313 313 313 314 314 313 313 312 314 313 311 314 313 314 314 313 313 313 312 313 314 314 315 314 315 314 316 316 315 315 314 314 314 313 314 313 313 313 314 314 313 313 313 313 314 314 314 313 314 312 316 316 316 316 316 311 313 311 312 314 314 314 314 312 313 312 313 312 313 313 315 314 316 313 316 312 312 312 313 313 312 313 313 313 313 314 313 314 314 314 312 311 312 313 313 314 312 313 314 314 313 314 314 314 314 315 315 315 314 314 315 314 315 314 315 314 313 314 315 315 312 313 313 312 312 313 314 314 314 314 315 313 314 315 314 314 314 314 314 314 314 314 313 313 314 313 316 313 315 314 312 311 314 314 314 313 313 313 313 313 312 313 313 313 313 313 314 314 314 314 313 313 311 312 313 313 313 313 313 313 312 311 311 312 312 316 316 316 314 316 315 315 314 315 314 314 313 314 313 313 311 314 314 314 314 313 313 314 315 315 311 312 312 313 311 314 314 313 314 314 311 311 311 311 313 314 314 314 312 314 315 314 314 315 312 313 313 313 312 313 313 313 315 315 315 314 313 314 314 314 313 310 313 313 310 314 314 313 314 314 314 314 314 314 313 312 314 312 314 314 313 313 312 313 313 312 312 312 314 313 313 313 313 313 313 315 316 316 316 315 313 313 313 314 314 314 314 313 314 314 314 315 314 316 314 314 314 314 314 314 313 313 313 313 314 315 316 315 314 315 312 314 313 313 314 311 312 312 312 313 314 314 314 312 314 313 313 312 313 313 312 312 312 314 311 315 313 315 314 316 314 313 315 314 315 311 311 311 311 311 314 313 315 312 314 312 311 313 313 312 316 316 316 314 314 314 314 314 314 314 313 313 313 313 313 315 316 316 316 316 312 313 313 313 313 314 314 313 314 313 315 315 315 315 315 312 314 314 313 314 311 313 312 314 313 313 313 312 314 314 314 314 314 314 314 313 314 314 313 314 311 313 314 315 315 313 313 314 314 313 314 314 314 314 314 312 313 313 313 310 314 314 314 315 314 312 314 314 314 313 313 313 314 314 314 315 314 314 314 314 312 313 313 312 311 314 314 313 312 313 313 314 314 314 313 312 312 312 314 312 314 314 314 314 314 312 313 313 313 314 313 312 313 313 313 313 313 313 313 313 314 314 313 313 313 313 314 314 313 316 314 314 314 313 314 313 312 313 313 313 312 312 313 313 313 313 314 313 314 314 312 312 312 312 313 317 314 317 315 318 314 314 314 314 314 313 313 313 313 314 313 312 314 314 314 315 315 315 314 314 313 312 313 314 314 311 312 312 313 314 314 314 314 314 314 314 313 314 313 314 313 312 313 310 311 314 313 314 313 312 313 313 312 313 314 314 314 314 312 314 314 315 315 316 316 310 311 310 313 312 314 314 314 313 313 314 313 314 313 310 313 313 312 314 314 315 315 313 315 313 314 314 314 314 315 313 314 313 313 314 315 314 315 315 316 312 313 312 312 311 313 314 314 314 313 312 311 312 312 313 314 315 315 315 315 315 314 315 316 318 314 314 313 314 314 311 313 313 314 314 312 313 313 313 313 315 314 315 314 314 312 313 312 313 313 313 313 313 313 313 312 312 312 309 315 312 312 312 312 314 314 313 314 313 314 314 314 315 312 314 313 314 315 315 315 311 312 312 312 312 314 314 313 313 313 313 313 313 312 313 313 313 313 312 314 313 313 312 312 311 313 315 314 316 314 312 311 311 311 313 314 313 314 312 313 314 313 313 314 314 313 314 314 314 314 314 313 313 314 313 314 314 314 313 312 313 314 314 313 314 312 313 314 313 314 311 312 311 313 312 314 314 313 314 314 314 314 313 314 314 313 311 314 316 312 313 313 313 313 313 313 313 314 313 314 314 313 316 313 316 315 315 314 315 314 312 313 313 314 313 312 312 311 313 313 314 314 314 314 315 312 313 313 313 313 314 315 315 313 313 312 313 313 313 314 314 314 313 313 314 314 314 314 314 314 313 313 313 313 313 315 314 315 315 314 313 313 313 312 312 313 313 312 313 313 315 314 314 315 315 314 314 314 314 314 314 313 314 314 313 313 313 312 313 312 313 312 313 313 312 313 313 313 313 313 314 313 314 314 314 315 315 315 314 315 313 313 313 313 313 312 313 311 312 314 313 314 314 313 314 313 313 314 313 314 314 314 314 315 315 313 313 313 313 313 313 314 314 314 314 316 312 313 314 316 313 314 313 314 313 313 313 313 313 313 313 313 313 313 314 314 313 314 314 316 313 314 314 314 313 314 314 314 314 314 314 313 314 313 314 317 314 315 315 315 315 315 313 315 314 313 314 313 314 314 313 314 314 313 314 313 313 313 315 313 313 313 312 314 314 313 313 313 316 314 314 313 314 314 314 315 315 315 314 314 313 313 313 311 312 312 311 312 312 312 311 311 313 311 312 315 314 314 315 315 318 317 318 318 315 316 315 317 317 316 314 314 314 313 313 312 314 314 314 314 312 313 313 314 312 311 311 311 312 313 313 314 316 314 316 313 313 311 313 313 316 316 316 315 313 313 313 313 313 313 312 313 313 314 314 314 314 314 314 313 316 316 316 314 317 315 317 316 317 316 314 316 314 314 314 312 313 313 313 313 312 313 313 313 312 313 313 314 314 314 315 315 314 313 313 314 315 315 315 314 314 314 313 314 314 313 312 313 313 314 312 313 313 313 313 313 313 313 313 313 313 314 314 314 315 313 313 314 314 314 315 314 316 316 315 317 317 315 317 316 315 315 314 315 316 316 314 315 314 314 312 312 311 311 312 314 314 315 315 316 314 314 314 314 313 312 312 313 313 313 315 315 316 315 315 312 313 313 313 313 313 312 311 314 312 312 312 312 311 312 313 313 313 313 312 312 312 312 312 312 313 314 313 314 314 314 313 314 315 315 313 312 313 313 315 314 313 314 315 315 314 315 314 315 312 312 313 313 311 313 313 313 312 313 312 312 313 313 314 314 314 313 312 313 314 312 313 313 313 313 313 312 313 312 313 313 312 312 313 313 314 314 314 314 314 313 313 313 313 312 314 314 313 314 314 313 313 313 312 313 312 314 312 315 312 312 311 315 314 314 314 314 313 314 313 312 312 314 313 311 313 312 312 313 313 312 312 310 311 312 313 313 314 312 314 313 314 312 317 313 313 312 314 314 314 314 315 315 314 313 313 313 313 313 312 312 313 313 313 312 312 312 313 311 313 312 314 314 313 314 312 312 313 313 313 315 315 315 315 315 314 314 314 313 313 312 312 312 312 312 313 313 312 314 315 313 313 313 313 313 314 314 314 314 313 313 314 314 313 313 312 312 314 313 313 317 316 316 317 316 313 313 313 313 313 313 313 314 313 314 313 314 312 314 312 312 312 310 312 313 316 316 315 316 315 312 310 312 315 313 313 313 311 312 312 312 313 312 314 314 314 314 315 314 315 314 313 314 314 314 315 314 315 314 314 315 313 313 315 313 312 312 313 313 313 315 316 315 316 316 313 313 313 313 313 312 314 314 314 313 312 313 313 314 314 313 313 314 313 313 312 312 310 313 310 313 312 312 313 311 314 314 314 315 314 315 315 313 314 313 313 313 313 313 313 314 314 314 313 314 314 314 316 317 316 311 314 314 314 314 312 312 312 313 312 313 314 314 314 313 315 315 315 315 312 313 313 313 314 314 314 314 314 313 313 311 313 313 313 314 313 315 312 315 312 315 313 315 312 315 313 313 312 313 312 314 313 314 314 313 314 315 315 315 314 313 313 313 312 313 314 314 314 314 314 315 314 315 315 314 313 313 314 313 314 314 314 314 314 313 313 313 314 313 313 316 313 316 314 315 313 313 313 313 313 314 313 313 313 313 314 313 315 314 315 314 314 314 314 314 312 313 313 312 313 314 314 314 314 314 313 313 313 313 314 314 314 314 314 312 314 314 314 314 314 312 313 313 313 313 313 315 314 315 315 313 312 313 314 314 313 313 313 314 314 312 312 313 313 313 313 313 313 313 313 314 314 314 313 314 314 314 316 314 316 315 315 315 315 315 313 312 312 313 313 314 314 313 315 315 314 313 314 314 314 313 314 314 314 314 314 314 313 313 314 314 315 313 314 313 312 313 313 313 313 313 311 313 312 313 313 313 313 313 313 312 313 313 314 313 314 314 314 315 315 312 313 313 312 312 311 313 313 313 313 314 315 315 316 316 312 312 312 313 312 313 313 314 313 314 313 313 313 313 313 313 312 313 314 314 314 313 314 314 314 313 312 313 314 314 313 314 313 314 314 312 313 314 312 313 312 314 314 313 314 314 314 313 313 314 314 314 314 316 313 313 313 313 313 313 313 313 314 313 314 316 316 316 316 313 313 313 313 313 313 311 314 314 314 314 312 314 314 314 314 316 316 316 315 315 316 315 316 314 315 314 315 313 315 313 311 313 314 314 314 313 313 312 314 313 312 313 311 313 313 312 312 312 313 312 314 312 314 314 314 316 316 316 313 317 313 314 314 313 311 312 312 312 312 312 313 314 313 314 314 309 310 310 314 312 313 312 314 314 314 314 314 314 314 312 314 314 314 312 314 313 311 314 314 314 313 313 313 312 312 313 314 313 314 314 312 313 313 313 313 314 314 314 314 313 312 312 314 312 316 313 312 313 313 313 313 313 310 312 313 312 312 312 312 311 312 313 315 312 315 314 314 315 314 315 312 311 313 313 314 313 313 313 313 313 313 313 314 314 314 313 313 313 313 314 314 315 314 315 314 312 310 312 312 312 314 313 314 314 314 315 315 315 312 313 315 315 315 315 314 312 313 313 313 312 314 314 314 314 314 312 313 313 312 313 316 316 312 314 313 314 314 314 314 314 314 314 316 313 315 313 314 314 312 314 314 314 313 314 314 314 314 314 314 313 314 314 314 314 315 313 314 314 314 313 314 314 314 314 313 314 314 313 313 314 313 313 312 312 309 312 313 313 312 311 313 312 313 313 312 313 312 312 314 313 313 313 314 314 314 313 313 313 313 317 315 314 316 315 314 313 313 313 314 314 313 313 313 314 313 311 312 312 313 312 315 315 315 315 315 314 313 315 313 313 312 311 316 314 316 315 315 315 314 315 314 314 314 309 313 312 313 313 313 312 313 314 314 313 314 315 315 316 315 315 313 313 312 313 314 313 313 313 313 314 311 310 311 310 311 312 313 313 313 312 311 311 315 311 314 314 314 314 314 314 312 312 312 311 313 314 314 313 315 314 312 313 314 313 313 311 312 312 311 312 312 311 313 312 313 313 314 314 314 313 314 313 314 314 314 314 314 314 312 314 313 313 313 312 312 316 315 316 314 316 313 312 313 312 312 312 311 312 311 312 313 315 313 315 313 314 313 314 314 313 315 315 314 315 313 314 314 315 311 312 314 314 313 314 314 313 313 313 314 313 311 314 314 313 311 314 314 314 312 313 314 314 312 314 313 315 315 314 314 314 315 315 316 315 315 311 312 312 313 312 312 312 311 311 314 314 314 313 314 314 314 314 311 316 313 314 314 313 314 314 312 311 311 311 312 312 312 310 311 315 313 314 313 313 312 316 316 316 316 314 314 315 315 315 315 314 314 307 311 312 313 313 312 312 313 314 314 314 310 313 314 313 312 313 315 314 313 314 316 314 312 314 314 314 314 313 314 312 314 314 314 314 313 315 315 314 314 314 314 313 312 313 314 314 314 313 313 313 313 313 313 313 315 313 315 313 312 314 312 312 314 315 314 315 313 313 311 314 316 313 313 313 313 312 314 314 314 314 314 314 313 313 314 313 313 313 313 313 313 314 313 313 313 313 314 313 313 313 314 313 317 317 314 317 315 314 315 315 315 315 313 312 313 314 314 313 313 313 313 314 311 311 312 311 312 313 312 312 313 313 315 315 315 315 315 314 314 315 314 315 313 313 314 314 314 314 314 313 311 314 315 315 315 316 315 314 314 314 314 315 314 310 314 314 313 314 313 314 313 311 312 314 312 314 314 313 312 313 312 313 314 314 313 313 313 311 313 313 313 313 312 312 313 313 313 313 314 314 314 311 314 314 314 314 314 316 316 314 316 314 313 313 313 314 314 314 314 314 314 313 312 313 313 313 314 313 313 313 312 312 312 312 313 311 314 313 313 313 314 314 312 312 311 312 312 314 314 314 313 313 315 313 315 316 315 314 314 314 314 314 314 314 314 315 312 312 310 311 313 314 314 314 314 314 314 313 314 314 314 316 312 312 312 313 312 314 314 314 313 314 313 313 313 314 314 312 312 312 312 312 312 313 313 312 313 313 313 314 313 313 314 314 314 314 313 313 313 314 311 315 312 312 313 312 313 314 315 315 315 314 314 313 314 314 314 314 315 316 316 316 312 315 314 315 315 314 314 314 314 314 314 314 314 313 314 314 314 314 316 314 312 313 315 315 315 313 312 314 314 314 313 314 314 314 314 313 313 313 315 314 313 313 313 312 313 314 314 313 313 314 313 313 313 315 314 313 313 313 312 313 311 315 311 315 311 315 315 315 315 316 314 313 315 314 312 313 314 315 314 314 313 312 313 313 314 314 314 314 314 312 313 313 313 313 313 314 314 313 314 313 314 314 314 314 314 313 313 314 314 314 316 317 318 318 318 311 311 313 313 313 315 315 315 315 314 314 314 314 314 313 315 316 316 314 316 314 314 314 315 315 314 313 314 314 314 312 314 314 314 314 312 313 313 313 313 310 314 313 314 314 313 313 313 314 312 314 315 315 315 317 314 314 313 314 312

Tree=0
num_leaves=2
num_cat=0
split_feature=8
split_gain=6800.14
threshold=0.095505923630014741
decision_type=2
left_child=-1
right_child=-2
leaf_value=19.777172326568337 22.10778529571963
leaf_weight=31 21
leaf_count=31 21
internal_value=20.6984
internal_weight=0
internal_count=52
is_linear=0
shrinkage=1


Tree=1
num_leaves=2
num_cat=0
split_feature=8
split_gain=5508.11
threshold=0.095505923630014741
decision_type=2
left_child=-1
right_child=-2
leaf_value=-0.82908262437389757 1.2684690142671267
leaf_weight=31 21
leaf_count=31 21
internal_value=0
internal_weight=0
internal_count=52
is_linear=0
shrinkage=0.1


Tree=2
num_leaves=2
num_cat=0
split_feature=8
split_gain=4461.57
threshold=0.095505923630014741
decision_type=2
left_child=-1
right_child=-2
leaf_value=-0.74617437547253029 1.1416221039635797
leaf_weight=31 21
leaf_count=31 21
internal_value=0
internal_weight=0
internal_count=52
is_linear=0
shrinkage=0.1


Tree=3
num_leaves=2
num_cat=0
split_feature=8
split_gain=3613.87
threshold=0.095505923630014741
decision_type=2
left_child=-1
right_child=-2
leaf_value=-0.67155695269184734 1.0274599140598661
leaf_weight=31 21
leaf_count=31 21
internal_value=0
internal_weight=0
internal_count=52
is_linear=0
shrinkage=0.1


Tree=4
num_leaves=2
num_cat=0
split_feature=8
split_gain=2927.24
threshold=0.095505923630014741
decision_type=2
left_child=-1
right_child=-2
leaf_value=-0.60440124696300879 0.92471389429909845
leaf_weight=31 21
leaf_count=31 21
internal_value=0
internal_weight=0
internal_count=52
is_linear=0
shrinkage=0.1


Tree=5
num_leaves=2
num_cat=0
split_feature=8
split_gain=2181.65
threshold=0.095505923630014741
decision_type=2
left_child=-1
right_child=-2
leaf_value=-0.56044609342302598 0.74881209731101994
leaf_weight=35 20
leaf_count=35 20
internal_value=0
internal_weight=0
internal_count=55
is_linear=0
shrinkage=0.1


Tree=6
num_leaves=2
num_cat=0
split_feature=8
split_gain=1767.14
threshold=0.095505923630014741
decision_type=2
left_child=-1
right_child=-2
leaf_value=-0.50440147161483773 0.67393089637160308
leaf_weight=35 20
leaf_count=35 20
internal_value=0
internal_weight=0
internal_count=55
is_linear=0
shrinkage=0.1


Tree=7
num_leaves=2
num_cat=0
split_feature=8
split_gain=1431.38
threshold=0.095505923630014741
decision_type=2
left_child=-1
right_child=-2
leaf_value=-0.45396133933748523 0.60653779968619359
leaf_weight=35 20
leaf_count=35 20
internal_value=0
internal_weight=0
internal_count=55
is_linear=0
shrinkage=0.1


Tree=8
num_leaves=2
num_cat=0
split_feature=1
split_gain=1186.19
threshold=-0.58730298662525537
decision_type=2
left_child=-1
right_child=-2
leaf_value=-0.41254867962428499 0.55285508513450621
leaf_weight=35 20
leaf_count=35 20
internal_value=0
internal_weight=0
internal_count=55
is_linear=0
shrinkage=0.1


Tree=9
num_leaves=2
num_cat=0
split_feature=8
split_gain=970.159
threshold=0.095505923630014741
decision_type=2
left_child=-1
right_child=-2
leaf_value=-0.37282691631998333 0.5002525609731675
leaf_weight=35 20
leaf_count=35 20
internal_value=0
internal_weight=0
internal_count=55
is_linear=0
shrinkage=0.1


Tree=10
num_leaves=2
num_cat=0
split_feature=1
split_gain=1277.5
threshold=-0.46922902109123876
decision_type=2
left_child=-1
right_child=-2
leaf_value=-0.38026005919091405 0.6385477358102799
leaf_weight=32 20
leaf_count=32 20
internal_value=0
internal_weight=0
internal_count=52
is_linear=0
shrinkage=0.1


Tree=11
num_leaves=2
num_cat=0
split_feature=1
split_gain=1034.78
threshold=-0.46922902109123876
decision_type=2
left_child=-1
right_child=-2
leaf_value=-0.34223405979573729 0.5746929275989533
leaf_weight=32 20
leaf_count=32 20
internal_value=0
internal_weight=0
internal_count=52
is_linear=0
shrinkage=0.1


Tree=12
num_leaves=2
num_cat=0
split_feature=1
split_gain=838.168
threshold=-0.46922902109123876
decision_type=2
left_child=-1
right_child=-2
leaf_value=-0.30801064814440909 0.51722367305308581
leaf_weight=32 20
leaf_count=32 20
internal_value=0
internal_weight=0
internal_count=52
is_linear=0
shrinkage=0.1


Tree=13
num_leaves=2
num_cat=0
split_feature=5
split_gain=683.649
threshold=-0.32061547390366663
decision_type=2
left_child=-1
right_child=-2
leaf_value=-0.45019486919045448 0.29510052138939502
leaf_weight=20 32
leaf_count=20 32
internal_value=0
internal_weight=0
internal_count=52
is_linear=0
shrinkage=0.1


Tree=14
num_leaves=2
num_cat=0
split_feature=1
split_gain=682.327
threshold=-0.46922902109123876
decision_type=2
left_child=-1
right_child=-2
leaf_value=-0.27877105767838656 0.46580304976552728
leaf_weight=32 20
leaf_count=32 20
internal_value=0
internal_weight=0
internal_count=52
is_linear=0
shrinkage=0.1


Tree=15
num_leaves=2
num_cat=0
split_feature=5
split_gain=520.988
threshold=-0.32061547390366663
decision_type=2
left_child=-1
right_child=-2
leaf_value=-0.37536516025662425 0.27144953897505097
leaf_weight=20 33
leaf_count=20 33
internal_value=0
internal_weight=0
internal_count=53
is_linear=0
shrinkage=0.1


Tree=16
num_leaves=2
num_cat=0
split_feature=1
split_gain=485.2
threshold=-0.6465409405385536
decision_type=2
left_child=-1
right_child=-2
leaf_value=-0.27227994865841337 0.33296298588124607
leaf_weight=27 26
leaf_count=27 26
internal_value=0
internal_weight=0
internal_count=53
is_linear=0
shrinkage=0.1


Tree=17
num_leaves=2
num_cat=0
split_feature=5
split_gain=409.333
threshold=-0.32061547390366663
decision_type=2
left_child=-1
right_child=-2
leaf_value=-0.33481037251651291 0.2385193407535553
leaf_weight=20 33
leaf_count=20 33
internal_value=0
internal_weight=0
internal_count=53
is_linear=0
shrinkage=0.1


Tree=18
num_leaves=2
num_cat=0
split_feature=8
split_gain=394.358
threshold=0.095505923630014741
decision_type=2
left_child=-1
right_child=-2
leaf_value=-0.20102274082601071 0.35667454909001078
leaf_weight=32 21
leaf_count=32 21
internal_value=0
internal_weight=0
internal_count=53
is_linear=0
shrinkage=0.1


Tree=19
num_leaves=2
num_cat=0
split_feature=5
split_gain=337.779
threshold=-0.32061547390366663
decision_type=2
left_child=-1
right_child=-2
leaf_value=-0.30632342934608459 0.21448977860537444
leaf_weight=20 33
leaf_count=20 33
internal_value=0
internal_weight=0
internal_count=53
is_linear=0
shrinkage=0.1


Tree=20
num_leaves=2
num_cat=0
split_feature=1
split_gain=155.811
threshold=-0.66099904805303356
decision_type=2
left_child=-1
right_child=-2
leaf_value=-0.28046143317352173 0.076849353370758211
leaf_weight=23 26
leaf_count=23 26
internal_value=0
internal_weight=0
internal_count=49
is_linear=0
shrinkage=0.1


Tree=21
num_leaves=2
num_cat=0
split_feature=1
split_gain=126.207
threshold=-0.66099904805303356
decision_type=2
left_child=-1
right_child=-2
leaf_value=-0.25241529662971912 0.069164427656393787
leaf_weight=23 26
leaf_count=23 26
internal_value=0
internal_weight=0
internal_count=49
is_linear=0
shrinkage=0.1


Tree=22
num_leaves=2
num_cat=0
split_feature=5
split_gain=105.797
threshold=-0.32061547390366663
decision_type=2
left_child=-1
right_child=-2
leaf_value=-0.24327392241074924 0.05365013373749597
leaf_weight=21 28
leaf_count=21 28
internal_value=0
internal_weight=0
internal_count=49
is_linear=0
shrinkage=0.1


Tree=23
num_leaves=2
num_cat=0
split_feature=1
split_gain=101.982
threshold=-0.66099904805303356
decision_type=2
left_child=-1
right_child=-2
leaf_value=-0.21962903465913688 0.069445140233326069
leaf_weight=23 26
leaf_count=23 26
internal_value=0
internal_weight=0
internal_count=49
is_linear=0
shrinkage=0.1


Tree=24
num_leaves=2
num_cat=0
split_feature=5
split_gain=85.4747
threshold=-0.32061547390366663
decision_type=2
left_child=-1
right_child=-2
leaf_value=-0.21212560569956188 0.054761891812086107
leaf_weight=21 28
leaf_count=21 28
internal_value=0
internal_weight=0
internal_count=49
is_linear=0
shrinkage=0.1


Tree=25
num_leaves=2
num_cat=0
split_feature=5
split_gain=136.506
threshold=-0.32061547390366663
decision_type=2
left_child=-1
right_child=-2
leaf_value=-0.20346670440313491 0.12448145280281703
leaf_weight=22 30
leaf_count=22 30
internal_value=0
internal_weight=0
internal_count=52
is_linear=0
shrinkage=0.1


Tree=26
num_leaves=2
num_cat=0
split_feature=8
split_gain=135.787
threshold=0.095505923630014741
decision_type=2
left_child=-1
right_child=-2
leaf_value=-0.14584077183277375 0.18349632152489254
leaf_weight=31 21
leaf_count=31 21
internal_value=0
internal_weight=0
internal_count=52
is_linear=0
shrinkage=0.1


Tree=27
num_leaves=2
num_cat=0
split_feature=5
split_gain=110.794
threshold=-0.32061547390366663
decision_type=2
left_child=-1
right_child=-2
leaf_value=-0.1820088285614144 0.11344388484954836
leaf_weight=22 30
leaf_count=22 30
internal_value=0
internal_weight=0
internal_count=52
is_linear=0
shrinkage=0.1


Tree=28
num_leaves=2
num_cat=0
split_feature=8
split_gain=110.19
threshold=0.095505923630014741
decision_type=2
left_child=-1
right_child=-2
leaf_value=-0.1302111339184546 0.16646454745814915
leaf_weight=31 21
leaf_count=31 21
internal_value=0
internal_weight=0
internal_count=52
is_linear=0
shrinkage=0.1


Tree=29
num_leaves=2
num_cat=0
split_feature=5
split_gain=89.9254
threshold=-0.32061547390366663
decision_type=2
left_child=-1
right_child=-2
leaf_value=-0.16292357234792276 0.10325358311335248
leaf_weight=22 30
leaf_count=22 30
internal_value=0
internal_weight=0
internal_count=52
is_linear=0
shrinkage=0.1


Tree=30
num_leaves=2
num_cat=0
split_feature=8
split_gain=110.411
threshold=0.054081303618759465
decision_type=2
left_child=-1
right_child=-2
leaf_value=-0.092519485553105685 0.20644628064973014
leaf_weight=30 21
leaf_count=30 21
internal_value=0
internal_weight=0
internal_count=51
is_linear=0
shrinkage=0.1


Tree=31
num_leaves=2
num_cat=0
split_feature=8
split_gain=89.4331
threshold=0.054081303618759465
decision_type=2
left_child=-1
right_child=-2
leaf_value=-0.083267534896731388 0.18580164597147988
leaf_weight=30 21
leaf_count=30 21
internal_value=0
internal_weight=0
internal_count=51
is_linear=0
shrinkage=0.1


Tree=32
num_leaves=2
num_cat=0
split_feature=8
split_gain=72.4408
threshold=0.054081303618759465
decision_type=2
left_child=-1
right_child=-2
leaf_value=-0.074940784060551477 0.16722144995416915
leaf_weight=30 21
leaf_count=30 21
internal_value=0
internal_weight=0
internal_count=51
is_linear=0
shrinkage=0.1


Tree=33
num_leaves=2
num_cat=0
split_feature=5
split_gain=66.7318
threshold=-0.32061547390366663
decision_type=2
left_child=-1
right_child=-2
leaf_value=-0.12011640995740891 0.11417461306818072
leaf_weight=20 31
leaf_count=20 31
internal_value=0
internal_weight=0
internal_count=51
is_linear=0
shrinkage=0.1


Tree=34
num_leaves=2
num_cat=0
split_feature=8
split_gain=59.4606
threshold=0.054081303618759465
decision_type=2
left_child=-1
right_child=-2
leaf_value=-0.070273492932319645 0.1491229152395612
leaf_weight=30 21
leaf_count=30 21
internal_value=0
internal_weight=0
internal_count=51
is_linear=0
shrinkage=0.1


Tree=35
num_leaves=2
num_cat=0
split_feature=1
split_gain=172.472
threshold=-0.46922902109123876
decision_type=2
left_child=-1
right_child=-2
leaf_value=-0.084413351821047922 0.28370824746787549
leaf_weight=35 20
leaf_count=35 20
internal_value=0
internal_weight=0
internal_count=55
is_linear=0
shrinkage=0.1


Tree=36
num_leaves=2
num_cat=0
split_feature=1
split_gain=139.702
threshold=-0.46922902109123876
decision_type=2
left_child=-1
right_child=-2
leaf_value=-0.075972015836409168 0.25533744335174563
leaf_weight=35 20
leaf_count=35 20
internal_value=0
internal_weight=0
internal_count=55
is_linear=0
shrinkage=0.1


Tree=37
num_leaves=2
num_cat=0
split_feature=1
split_gain=113.159
threshold=-0.46922902109123876
decision_type=2
left_child=-1
right_child=-2
leaf_value=-0.06837481629635607 0.2298036998510361
leaf_weight=35 20
leaf_count=35 20
internal_value=0
internal_weight=0
internal_count=55
is_linear=0
shrinkage=0.1


Tree=38
num_leaves=2
num_cat=0
split_feature=5
split_gain=111.967
threshold=-0.32061547390366663
decision_type=2
left_child=-1
right_child=-2
leaf_value=-0.14550040534564429 0.14818142104674789
leaf_weight=21 34
leaf_count=21 34
internal_value=0
internal_weight=0
internal_count=55
is_linear=0
shrinkage=0.1


Tree=39
num_leaves=2
num_cat=0
split_feature=8
split_gain=93.6096
threshold=0.095505923630014741
decision_type=2
left_child=-1
right_child=-2
leaf_value=-0.074076971682635218 0.19222424707629465
leaf_weight=33 22
leaf_count=33 22
internal_value=0
internal_weight=0
internal_count=55
is_linear=0
shrinkage=0.1


Tree=40
num_leaves=2
num_cat=0
split_feature=8
split_gain=39.7048
threshold=-0.55548117645502815
decision_type=2
left_child=-1
right_child=-2
leaf_value=-0.13147746443748473 0.047083901681683284
leaf_weight=20 33
leaf_count=20 33
internal_value=0
internal_weight=0
internal_count=53
is_linear=0
shrinkage=0.1


Tree=41
num_leaves=2
num_cat=0
split_feature=8
split_gain=32.1609
threshold=-0.55548117645502815
decision_type=2
left_child=-1
right_child=-2
leaf_value=-0.11832971468567849 0.042375512375976102
leaf_weight=20 33
leaf_count=20 33
internal_value=0
internal_weight=0
internal_count=53
is_linear=0
shrinkage=0.1


Tree=42
num_leaves=2
num_cat=0
split_feature=8
split_gain=26.0503
threshold=-0.55548117645502815
decision_type=2
left_child=-1
right_child=-2
leaf_value=-0.10649674549698829 0.038137954089677698
leaf_weight=20 33
leaf_count=20 33
internal_value=0
internal_weight=0
internal_count=53
is_linear=0
shrinkage=0.1


Tree=43
num_leaves=2
num_cat=0
split_feature=5
split_gain=27.7171
threshold=-0.32061547390366663
decision_type=2
left_child=-1
right_child=-2
leaf_value=-0.10406620644387746 0.043785821351048075
leaf_weight=21 32
leaf_count=21 32
internal_value=0
internal_weight=0
internal_count=53
is_linear=0
shrinkage=0.1


Tree=44
num_leaves=2
num_cat=0
split_feature=8
split_gain=23.8503
threshold=-0.55548117645502815
decision_type=2
left_child=-1
right_child=-2
leaf_value=-0.099486392885446556 0.038906320387666879
leaf_weight=20 33
leaf_count=20 33
internal_value=0
internal_weight=0
internal_count=53
is_linear=0
shrinkage=0.1


Tree=45
num_leaves=2
num_cat=0
split_feature=5
split_gain=291.414
threshold=-0.32061547390366663
decision_type=2
left_child=-1
right_child=-2
leaf_value=-0.24934337479727611 0.23979481299375666
leaf_weight=21 29
leaf_count=21 29
internal_value=0
internal_weight=0
internal_count=50
is_linear=0
shrinkage=0.1


Tree=46
num_leaves=2
num_cat=0
split_feature=5
split_gain=236.045
threshold=-0.32061547390366663
decision_type=2
left_child=-1
right_child=-2
leaf_value=-0.22440902278536845 0.21581535318802142
leaf_weight=21 29
leaf_count=21 29
internal_value=0
internal_weight=0
internal_count=50
is_linear=0
shrinkage=0.1


Tree=47
num_leaves=2
num_cat=0
split_feature=5
split_gain=191.197
threshold=-0.32061547390366663
decision_type=2
left_child=-1
right_child=-2
leaf_value=-0.20196812692142668 0.19423381069610859
leaf_weight=21 29
leaf_count=21 29
internal_value=0
internal_weight=0
internal_count=50
is_linear=0
shrinkage=0.1


Tree=48
num_leaves=2
num_cat=0
split_feature=5
split_gain=154.869
threshold=-0.32061547390366663
decision_type=2
left_child=-1
right_child=-2
leaf_value=-0.18177131088007065 0.17481043369605626
leaf_weight=21 29
leaf_count=21 29
internal_value=0
internal_weight=0
internal_count=50
is_linear=0
shrinkage=0.1


Tree=49
num_leaves=2
num_cat=0
split_feature=5
split_gain=125.444
threshold=-0.32061547390366663
decision_type=2
left_child=-1
right_child=-2
leaf_value=-0.16359418261618841 0.1573293817839746
leaf_weight=21 29
leaf_count=21 29
internal_value=0
internal_weight=0
internal_count=50
is_linear=0
shrinkage=0.1


Tree=50
num_leaves=2
num_cat=0
split_feature=8
split_gain=120.92
threshold=1.0000000180025095e-35
decision_type=2
left_child=-1
right_child=-2
leaf_value=-0.10581461211236626 0.18882791417340439
leaf_weight=26 30
leaf_count=26 30
internal_value=0
internal_weight=0
internal_count=56
is_linear=0
shrinkage=0.1


Tree=51
num_leaves=2
num_cat=0
split_feature=8
split_gain=97.945
threshold=1.0000000180025095e-35
decision_type=2
left_child=-1
right_child=-2
leaf_value=-0.095233152515944455 0.16994510740041735
leaf_weight=26 30
leaf_count=26 30
internal_value=0
internal_weight=0
internal_count=56
is_linear=0
shrinkage=0.1


Tree=52
num_leaves=2
num_cat=0
split_feature=5
split_gain=94.8668
threshold=-0.40836643878938189
decision_type=2
left_child=-1
right_child=-2
leaf_value=-0.12588632206122083 0.14296214733804977
leaf_weight=21 35
leaf_count=21 35
internal_value=0
internal_weight=0
internal_count=56
is_linear=0
shrinkage=0.1


Tree=53
num_leaves=2
num_cat=0
split_feature=8
split_gain=85.5481
threshold=1.0000000180025095e-35
decision_type=2
left_child=-1
right_child=-2
leaf_value=-0.094835887018304615 0.152992971042792
leaf_weight=26 30
leaf_count=26 30
internal_value=0
internal_weight=0
internal_count=56
is_linear=0
shrinkage=0.1


Tree=54
num_leaves=2
num_cat=0
split_feature=5
split_gain=82.6445
threshold=-0.40836643878938189
decision_type=2
left_child=-1
right_child=-2
leaf_value=-0.12269631553263892 0.12823638375316346
leaf_weight=21 35
leaf_count=21 35
internal_value=0
internal_weight=0
internal_count=56
is_linear=0
shrinkage=0.1


Tree=55
num_leaves=2
num_cat=0
split_feature=8
split_gain=89.527
threshold=-0.34885748213324114
decision_type=2
left_child=-1
right_child=-2
leaf_value=-0.081307327821850781 0.18839744562283159
leaf_weight=20 32
leaf_count=20 32
internal_value=0
internal_weight=0
internal_count=52
is_linear=0
shrinkage=0.1


Tree=56
num_leaves=2
num_cat=0
split_feature=8
split_gain=72.5169
threshold=-0.34885748213324114
decision_type=2
left_child=-1
right_child=-2
leaf_value=-0.073176607082423281 0.16955769769847395
leaf_weight=20 32
leaf_count=20 32
internal_value=0
internal_weight=0
internal_count=52
is_linear=0
shrinkage=0.1


Tree=57
num_leaves=2
num_cat=0
split_feature=5
split_gain=63.911
threshold=-0.32061547390366663
decision_type=2
left_child=-1
right_child=-2
leaf_value=-0.066118271861757547 0.15982471418476873
leaf_weight=21 31
leaf_count=21 31
internal_value=0
internal_weight=0
internal_count=52
is_linear=0
shrinkage=0.1


Tree=58
num_leaves=2
num_cat=0
split_feature=8
split_gain=63.8575
threshold=-0.34885748213324114
decision_type=2
left_child=-1
right_child=-2
leaf_value=-0.078452263958752155 0.14932874944061042
leaf_weight=20 32
leaf_count=20 32
internal_value=0
internal_weight=0
internal_count=52
is_linear=0
shrinkage=0.1


Tree=59
num_leaves=2
num_cat=0
split_feature=5
split_gain=56.5779
threshold=-0.32061547390366663
decision_type=2
left_child=-1
right_child=-2
leaf_value=-0.071185320615768433 0.14140059089648627
leaf_weight=21 31
leaf_count=21 31
internal_value=0
internal_weight=0
internal_count=52
is_linear=0
shrinkage=0.1


Tree=60
num_leaves=2
num_cat=0
split_feature=8
split_gain=107.846
threshold=-0.55548117645502815
decision_type=2
left_child=-1
right_child=-2
leaf_value=-0.18323610801072349 0.10665352890888852
leaf_weight=21 33
leaf_count=21 33
internal_value=0
internal_weight=0
internal_count=54
is_linear=0
shrinkage=0.1


Tree=61
num_leaves=2
num_cat=0
split_feature=8
split_gain=87.3554
threshold=-0.55548117645502815
decision_type=2
left_child=-1
right_child=-2
leaf_value=-0.16491249815693923 0.095988168860926773
leaf_weight=21 33
leaf_count=21 33
internal_value=0
internal_weight=0
internal_count=54
is_linear=0
shrinkage=0.1


Tree=62
num_leaves=2
num_cat=0
split_feature=8
split_gain=70.7579
threshold=-0.55548117645502815
decision_type=2
left_child=-1
right_child=-2
leaf_value=-0.14842124496187484 0.086389358386848913
leaf_weight=21 33
leaf_count=21 33
internal_value=0
internal_weight=0
internal_count=54
is_linear=0
shrinkage=0.1


Tree=63
num_leaves=2
num_cat=0
split_feature=8
split_gain=57.3139
threshold=-0.55548117645502815
decision_type=2
left_child=-1
right_child=-2
leaf_value=-0.13357912302017214 0.077750425898667541
leaf_weight=21 33
leaf_count=21 33
internal_value=0
internal_weight=0
internal_count=54
is_linear=0
shrinkage=0.1


Tree=64
num_leaves=2
num_cat=0
split_feature=8
split_gain=46.4242
threshold=-0.55548117645502815
decision_type=2
left_child=-1
right_child=-2
leaf_value=-0.12022120633295603 0.069975373645623534
leaf_weight=21 33
leaf_count=21 33
internal_value=0
internal_weight=0
internal_count=54
is_linear=0
shrinkage=0.1


Tree=65
num_leaves=2
num_cat=0
split_feature=1
split_gain=148.174
threshold=-0.62786602979090933
decision_type=2
left_child=-1
right_child=-2
leaf_value=-0.054193495746169773 -0.4105729633569718
leaf_weight=28 20
leaf_count=28 20
internal_value=0
internal_weight=0
internal_count=48
is_linear=0
shrinkage=0.1


Tree=66
num_leaves=2
num_cat=0
split_feature=1
split_gain=120.021
threshold=-0.62786602979090933
decision_type=2
left_child=-1
right_child=-2
leaf_value=-0.04877414591277817 -0.36951568230986598
leaf_weight=28 20
leaf_count=28 20
internal_value=0
internal_weight=0
internal_count=48
is_linear=0
shrinkage=0.1


Tree=67
num_leaves=2
num_cat=0
split_feature=1
split_gain=97.217
threshold=-0.62786602979090933
decision_type=2
left_child=-1
right_child=-2
leaf_value=-0.04389673596514123 -0.33256409958004957
leaf_weight=28 20
leaf_count=28 20
internal_value=0
internal_weight=0
internal_count=48
is_linear=0
shrinkage=0.1


Tree=68
num_leaves=2
num_cat=0
split_feature=8
split_gain=85.6105
threshold=-0.17693423530720179
decision_type=2
left_child=-1
right_child=-2
leaf_value=-0.0025735081258145246 -0.27060518069909167
leaf_weight=22 26
leaf_count=22 26
internal_value=0
internal_weight=0
internal_count=48
is_linear=0
shrinkage=0.1


Tree=69
num_leaves=2
num_cat=0
split_feature=1
split_gain=71.7146
threshold=-0.62786602979090933
decision_type=2
left_child=-1
right_child=-2
leaf_value=-0.02967715082424028 -0.27760782703757286
leaf_weight=28 20
leaf_count=28 20
internal_value=0
internal_weight=0
internal_count=48
is_linear=0
shrinkage=0.1


Tree=70
num_leaves=2
num_cat=0
split_feature=8
split_gain=22.9776
threshold=0.054081303618759465
decision_type=2
left_child=-1
right_child=-2
leaf_value=0.039758372679352762 0.17614348019872395
leaf_weight=30 21
leaf_count=30 21
internal_value=0
internal_weight=0
internal_count=51
is_linear=0
shrinkage=0.1


Tree=71
num_leaves=2
num_cat=0
split_feature=8
split_gain=18.6118
threshold=0.054081303618759465
decision_type=2
left_child=-1
right_child=-2
leaf_value=0.035782532915472988 0.15852912238665992
leaf_weight=30 21
leaf_count=30 21
internal_value=0
internal_weight=0
internal_count=51
is_linear=0
shrinkage=0.1


Tree=72
num_leaves=2
num_cat=0
split_feature=8
split_gain=15.0756
threshold=0.054081303618759465
decision_type=2
left_child=-1
right_child=-2
leaf_value=0.032204281265536948 0.14267620912620002
leaf_weight=30 21
leaf_count=30 21
internal_value=0
internal_weight=0
internal_count=51
is_linear=0
shrinkage=0.1


Tree=73
num_leaves=2
num_cat=0
split_feature=8
split_gain=12.2112
threshold=0.054081303618759465
decision_type=2
left_child=-1
right_child=-2
leaf_value=0.028983853094590208 0.12840858582141143
leaf_weight=30 21
leaf_count=30 21
internal_value=0
internal_weight=0
internal_count=51
is_linear=0
shrinkage=0.1


Tree=74
num_leaves=2
num_cat=0
split_feature=8
split_gain=9.98668
threshold=1.0000000180025095e-35
decision_type=2
left_child=-1
right_child=-2
leaf_value=0.021210629589579727 0.10986663534616431
leaf_weight=27 24
leaf_count=27 24
internal_value=0
internal_weight=0
internal_count=51
is_linear=0
shrinkage=0.1


Tree=75
num_leaves=2
num_cat=0
split_feature=8
split_gain=12.6957
threshold=-0.55548117645502815
decision_type=2
left_child=-1
right_child=-2
leaf_value=-0.058053170783179148 0.0420117374509573
leaf_weight=21 32
leaf_count=21 32
internal_value=0
internal_weight=0
internal_count=53
is_linear=0
shrinkage=0.1


Tree=76
num_leaves=2
num_cat=0
split_feature=8
split_gain=10.2835
threshold=-0.55548117645502815
decision_type=2
left_child=-1
right_child=-2
leaf_value=-0.052247852761121032 0.037810562178492546
leaf_weight=21 32
leaf_count=21 32
internal_value=0
internal_weight=0
internal_count=53
is_linear=0
shrinkage=0.1


Tree=77
num_leaves=2
num_cat=0
split_feature=8
split_gain=8.32966
threshold=-0.55548117645502815
decision_type=2
left_child=-1
right_child=-2
leaf_value=-0.047023067375024159 0.034029510244727133
leaf_weight=21 32
leaf_count=21 32
internal_value=0
internal_weight=0
internal_count=53
is_linear=0
shrinkage=0.1


Tree=78
num_leaves=2
num_cat=0
split_feature=8
split_gain=6.74702
threshold=-0.55548117645502815
decision_type=2
left_child=-1
right_child=-2
leaf_value=-0.042320760658809117 0.0306265558116138
leaf_weight=21 32
leaf_count=21 32
internal_value=0
internal_weight=0
internal_count=53
is_linear=0
shrinkage=0.1


Tree=79
num_leaves=2
num_cat=0
split_feature=8
split_gain=5.46509
threshold=-0.55548117645502815
decision_type=2
left_child=-1
right_child=-2
leaf_value=-0.038088685486997877 0.027563903201371434
leaf_weight=21 32
leaf_count=21 32
internal_value=0
internal_weight=0
internal_count=53
is_linear=0
shrinkage=0.1


Tree=80
num_leaves=2
num_cat=0
split_feature=1
split_gain=47.4989
threshold=-0.66802736233101079
decision_type=2
left_child=-1
right_child=-2
leaf_value=-0.12298575190915949 0.067249984017440256
leaf_weight=21 35
leaf_count=21 35
internal_value=0
internal_weight=0
internal_count=56
is_linear=0
shrinkage=0.1


Tree=81
num_leaves=2
num_cat=0
split_feature=1
split_gain=38.4741
threshold=-0.66802736233101079
decision_type=2
left_child=-1
right_child=-2
leaf_value=-0.11068717645747322 0.060524971783161165
leaf_weight=21 35
leaf_count=21 35
internal_value=0
internal_weight=0
internal_count=56
is_linear=0
shrinkage=0.1


Tree=82
num_leaves=2
num_cat=0
split_feature=5
split_gain=34.5776
threshold=-0.32061547390366663
decision_type=2
left_child=-1
right_child=-2
leaf_value=-0.10475594032378424 0.057554981572819609
leaf_weight=21 35
leaf_count=21 35
internal_value=0
internal_weight=0
internal_count=56
is_linear=0
shrinkage=0.1


Tree=83
num_leaves=2
num_cat=0
split_feature=1
split_gain=30.1101
threshold=-0.66802736233101079
decision_type=2
left_child=-1
right_child=-2
leaf_value=-0.097644863029321044 0.053818198675954977
leaf_weight=21 35
leaf_count=21 35
internal_value=0
internal_weight=0
internal_count=56
is_linear=0
shrinkage=0.1


Tree=84
num_leaves=2
num_cat=0
split_feature=5
split_gain=27.0754
threshold=-0.32061547390366663
decision_type=2
left_child=-1
right_child=-2
leaf_value=-0.092449638673237397 0.051177918394761428
leaf_weight=21 35
leaf_count=21 35
internal_value=0
internal_weight=0
internal_count=56
is_linear=0
shrinkage=0.1


Tree=85
num_leaves=2
num_cat=0
split_feature=5
split_gain=94.8595
threshold=-0.32061547390366663
decision_type=2
left_child=-1
right_child=-2
leaf_value=-0.20314678221940996 0.071315659582614904
leaf_weight=20 34
leaf_count=20 34
internal_value=0
internal_weight=0
internal_count=54
is_linear=0
shrinkage=0.1


Tree=86
num_leaves=2
num_cat=0
split_feature=5
split_gain=76.8362
threshold=-0.32061547390366663
decision_type=2
left_child=-1
right_child=-2
leaf_value=-0.18283210180699827 0.064184090188320941
leaf_weight=20 34
leaf_count=20 34
internal_value=0
internal_weight=0
internal_count=54
is_linear=0
shrinkage=0.1


Tree=87
num_leaves=2
num_cat=0
split_feature=5
split_gain=62.2374
threshold=-0.32061547390366663
decision_type=2
left_child=-1
right_child=-2
leaf_value=-0.16454890194931068 0.057765691332957329
leaf_weight=20 34
leaf_count=20 34
internal_value=0
internal_weight=0
internal_count=54
is_linear=0
shrinkage=0.1


Tree=88
num_leaves=2
num_cat=0
split_feature=5
split_gain=50.4123
threshold=-0.32061547390366663
decision_type=2
left_child=-1
right_child=-2
leaf_value=-0.14809401385486126 0.051989135452929672
leaf_weight=20 34
leaf_count=20 34
internal_value=0
internal_weight=0
internal_count=54
is_linear=0
shrinkage=0.1


Tree=89
num_leaves=2
num_cat=0
split_feature=5
split_gain=40.8339
threshold=-0.32061547390366663
decision_type=2
left_child=-1
right_child=-2
leaf_value=-0.13328460484743118 0.046790200603358888
leaf_weight=20 34
leaf_count=20 34
internal_value=0
internal_weight=0
internal_count=54
is_linear=0
shrinkage=0.1


Tree=90
num_leaves=2
num_cat=0
split_feature=8
split_gain=16.7075
threshold=1.0000000180025095e-35
decision_type=2
left_child=-1
right_child=-2
leaf_value=-0.0053821521726521576 0.11526510765155157
leaf_weight=22 24
leaf_count=22 24
internal_value=0
internal_weight=0
internal_count=46
is_linear=0
shrinkage=0.1


Tree=91
num_leaves=2
num_cat=0
split_feature=8
split_gain=13.5331
threshold=1.0000000180025095e-35
decision_type=2
left_child=-1
right_child=-2
leaf_value=-0.0048439359123056587 0.1037385995189349
leaf_weight=22 24
leaf_count=22 24
internal_value=0
internal_weight=0
internal_count=46
is_linear=0
shrinkage=0.1


Tree=92
num_leaves=2
num_cat=0
split_feature=8
split_gain=10.9618
threshold=1.0000000180025095e-35
decision_type=2
left_child=-1
right_child=-2
leaf_value=-0.0043595389886335895 0.093364753325780245
leaf_weight=22 24
leaf_count=22 24
internal_value=0
internal_weight=0
internal_count=46
is_linear=0
shrinkage=0.1


Tree=93
num_leaves=2
num_cat=0
split_feature=8
split_gain=8.87904
threshold=1.0000000180025095e-35
decision_type=2
left_child=-1
right_child=-2
leaf_value=-0.0039235892620953644 0.084028280029694244
leaf_weight=22 24
leaf_count=22 24
internal_value=0
internal_weight=0
internal_count=46
is_linear=0
shrinkage=0.1


Tree=94
num_leaves=2
num_cat=0
split_feature=1
split_gain=8.62342
threshold=-0.58730298662525537
decision_type=2
left_child=-1
right_child=-2
leaf_value=0.077450529336929322 -0.0094733164423987989
leaf_weight=25 21
leaf_count=25 21
internal_value=0
internal_weight=0
internal_count=46
is_linear=0
shrinkage=0.1


Tree=95
num_leaves=2
num_cat=0
split_feature=8
split_gain=205.501
threshold=-0.55548117645502815
decision_type=2
left_child=-1
right_child=-2
leaf_value=-0.075891541937987014 0.32926071363110698
leaf_weight=21 31
leaf_count=21 31
internal_value=0
internal_weight=0
internal_count=52
is_linear=0
shrinkage=0.1


Tree=96
num_leaves=2
num_cat=0
split_feature=8
split_gain=166.456
threshold=-0.55548117645502815
decision_type=2
left_child=-1
right_child=-2
leaf_value=-0.068302388276372639 0.29633462332910104
leaf_weight=21 31
leaf_count=21 31
internal_value=0
internal_weight=0
internal_count=52
is_linear=0
shrinkage=0.1


Tree=97
num_leaves=2
num_cat=0
split_feature=1
split_gain=139.348
threshold=-0.6465409405385536
decision_type=2
left_child=-1
right_child=-2
leaf_value=-0.01161540356175653 0.31798555915770321
leaf_weight=29 23
leaf_count=29 23
internal_value=0
internal_weight=0
internal_count=52
is_linear=0
shrinkage=0.1


Tree=98
num_leaves=2
num_cat=0
split_feature=8
split_gain=129.924
threshold=-0.55548117645502815
decision_type=2
left_child=-1
right_child=-2
leaf_value=-0.071297306248119904 0.25085104530857455
leaf_weight=21 31
leaf_count=21 31
internal_value=0
internal_weight=0
internal_count=52
is_linear=0
shrinkage=0.1


Tree=99
num_leaves=2
num_cat=0
split_feature=1
split_gain=108.54
threshold=-0.6465409405385536
decision_type=2
left_child=-1
right_child=-2
leaf_value=-0.01998698364557891 0.27090642089429112
leaf_weight=29 23
leaf_count=29 23
internal_value=0
internal_weight=0
internal_count=52
is_linear=0
shrinkage=0.1


Tree=100
num_leaves=2
num_cat=0
split_feature=1
split_gain=32.233
threshold=-0.62786602979090933
decision_type=2
left_child=-1
right_child=-2
leaf_value=0.0020454854030033639 -0.16297366201877594
leaf_weight=29 20
leaf_count=29 20
internal_value=0
internal_weight=0
internal_count=49
is_linear=0
shrinkage=0.1


Tree=101
num_leaves=2
num_cat=0
split_feature=1
split_gain=26.1087
threshold=-0.62786602979090933
decision_type=2
left_child=-1
right_child=-2
leaf_value=0.0018409330269386029 -0.14667628973722457
leaf_weight=29 20
leaf_count=29 20
internal_value=0
internal_weight=0
internal_count=49
is_linear=0
shrinkage=0.1


Tree=102
num_leaves=2
num_cat=0
split_feature=8
split_gain=21.1691
threshold=-0.17693423530720179
decision_type=2
left_child=-1
right_child=-2
leaf_value=0.019914979013529691 -0.11223163080436212
leaf_weight=22 27
leaf_count=22 27
internal_value=0
internal_weight=0
internal_count=49
is_linear=0
shrinkage=0.1


Tree=103
num_leaves=2
num_cat=0
split_feature=1
split_gain=19.0884
threshold=-0.62786602979090933
decision_type=2
left_child=-1
right_child=-2
leaf_value=0.0042221250205204406 -0.12276767134666443
leaf_weight=29 20
leaf_count=29 20
internal_value=0
internal_weight=0
internal_count=49
is_linear=0
shrinkage=0.1


Tree=104
num_leaves=2
num_cat=0
split_feature=1
split_gain=15.4616
threshold=-0.62786602979090933
decision_type=2
left_child=-1
right_child=-2
leaf_value=0.0037999172662866523 -0.11049091726541521
leaf_weight=29 20
leaf_count=29 20
internal_value=0
internal_weight=0
internal_count=49
is_linear=0
shrinkage=0.1


Tree=105
num_leaves=2
num_cat=0
split_feature=8
split_gain=40.1715
threshold=-0.55548117645502815
decision_type=2
left_child=-1
right_child=-2
leaf_value=-0.05703213818016506 0.11791607209614346
leaf_weight=21 35
leaf_count=21 35
internal_value=0
internal_weight=0
internal_count=56
is_linear=0
shrinkage=0.1


Tree=106
num_leaves=2
num_cat=0
split_feature=8
split_gain=32.5389
threshold=-0.55548117645502815
decision_type=2
left_child=-1
right_child=-2
leaf_value=-0.051328923766102111 0.10612446205956597
leaf_weight=21 35
leaf_count=21 35
internal_value=0
internal_weight=0
internal_count=56
is_linear=0
shrinkage=0.1


Tree=107
num_leaves=2
num_cat=0
split_feature=8
split_gain=26.3565
threshold=-0.55548117645502815
decision_type=2
left_child=-1
right_child=-2
leaf_value=-0.046196032652542712 0.095512024339820659
leaf_weight=21 35
leaf_count=21 35
internal_value=0
internal_weight=0
internal_count=56
is_linear=0
shrinkage=0.1


Tree=108
num_leaves=2
num_cat=0
split_feature=5
split_gain=25.6013
threshold=-0.32061547390366663
decision_type=2
left_child=-1
right_child=-2
leaf_value=-0.045921000499616976 0.092523105672615416
leaf_weight=22 34
leaf_count=22 34
internal_value=0
internal_weight=0
internal_count=56
is_linear=0
shrinkage=0.1


Tree=109
num_leaves=2
num_cat=0
split_feature=8
split_gain=23.9858
threshold=-0.55548117645502815
decision_type=2
left_child=-1
right_child=-2
leaf_value=-0.050169481408028377 0.085015154986509259
leaf_weight=21 35
leaf_count=21 35
internal_value=0
internal_weight=0
internal_count=56
is_linear=0
shrinkage=0.1


Tree=110
num_leaves=2
num_cat=0
split_feature=8
split_gain=86.7626
threshold=-0.17693423530720179
decision_type=2
left_child=-1
right_child=-2
leaf_value=0.055961747014004248 -0.2158358218303571
leaf_weight=23 24
leaf_count=23 24
internal_value=0
internal_weight=0
internal_count=47
is_linear=0
shrinkage=0.1


Tree=111
num_leaves=2
num_cat=0
split_feature=8
split_gain=70.2777
threshold=-0.17693423530720179
decision_type=2
left_child=-1
right_child=-2
leaf_value=0.050365574560735538 -0.19425224714602035
leaf_weight=23 24
leaf_count=23 24
internal_value=0
internal_weight=0
internal_count=47
is_linear=0
shrinkage=0.1


Tree=112
num_leaves=2
num_cat=0
split_feature=8
split_gain=56.9249
threshold=-0.17693423530720179
decision_type=2
left_child=-1
right_child=-2
leaf_value=0.04532901255980782 -0.17482702409227691
leaf_weight=23 24
leaf_count=23 24
internal_value=0
internal_weight=0
internal_count=47
is_linear=0
shrinkage=0.1


Tree=113
num_leaves=2
num_cat=0
split_feature=8
split_gain=46.1092
threshold=-0.17693423530720179
decision_type=2
left_child=-1
right_child=-2
leaf_value=0.040796113921248399 -0.15734432488679886
leaf_weight=23 24
leaf_count=23 24
internal_value=0
internal_weight=0
internal_count=47
is_linear=0
shrinkage=0.1


Tree=114
num_leaves=2
num_cat=0
split_feature=8
split_gain=37.3484
threshold=-0.17693423530720179
decision_type=2
left_child=-1
right_child=-2
leaf_value=0.036716502775316649 -0.14160990267992021
leaf_weight=23 24
leaf_count=23 24
internal_value=0
internal_weight=0
internal_count=47
is_linear=0
shrinkage=0.1


Tree=115
num_leaves=2
num_cat=0
split_feature=1
split_gain=53.7661
threshold=-0.58730298662525537
decision_type=2
left_child=-1
right_child=-2
leaf_value=-0.043069366415341703 -0.25169565223512197
leaf_weight=30 21
leaf_count=30 21
internal_value=0
internal_weight=0
internal_count=51
is_linear=0
shrinkage=0.1


Tree=116
num_leaves=2
num_cat=0
split_feature=1
split_gain=43.5505
threshold=-0.58730298662525537
decision_type=2
left_child=-1
right_child=-2
leaf_value=-0.038762429157892866 -0.22652609774044585
leaf_weight=30 21
leaf_count=30 21
internal_value=0
internal_weight=0
internal_count=51
is_linear=0
shrinkage=0.1


Tree=117
num_leaves=2
num_cat=0
split_feature=8
split_gain=36.8629
threshold=-0.17693423530720179
decision_type=2
left_child=-1
right_child=-2
leaf_value=-0.014294229758282505 -0.18462470063456782
leaf_weight=24 27
leaf_count=24 27
internal_value=0
internal_weight=0
internal_count=51
is_linear=0
shrinkage=0.1


Tree=118
num_leaves=2
num_cat=0
split_feature=1
split_gain=30.8842
threshold=-0.58730298662525537
decision_type=2
left_child=-1
right_child=-2
leaf_value=-0.028914617498715718 -0.18703321970644451
leaf_weight=30 21
leaf_count=30 21
internal_value=0
internal_weight=0
internal_count=51
is_linear=0
shrinkage=0.1


Tree=119
num_leaves=2
num_cat=0
split_feature=8
split_gain=26.16
threshold=-0.17693423530720179
decision_type=2
left_child=-1
right_child=-2
leaf_value=-0.008655691395203273 -0.15214393171999191
leaf_weight=24 27
leaf_count=24 27
internal_value=0
internal_weight=0
internal_count=51
is_linear=0
shrinkage=0.1


Tree=120
num_leaves=2
num_cat=0
split_feature=1
split_gain=211.359
threshold=-0.6465409405385536
decision_type=2
left_child=-1
right_child=-2
leaf_value=-0.0099783800818302026 0.39787838313883794
leaf_weight=27 24
leaf_count=27 24
internal_value=0
internal_weight=0
internal_count=51
is_linear=0
shrinkage=0.1


Tree=121
num_leaves=2
num_cat=0
split_feature=8
split_gain=171.396
threshold=1.0000000180025095e-35
decision_type=2
left_child=-1
right_child=-2
leaf_value=-0.002391162338400526 0.36602830822053167
leaf_weight=28 23
leaf_count=28 23
internal_value=0
internal_weight=0
internal_count=51
is_linear=0
shrinkage=0.1


Tree=122
num_leaves=2
num_cat=0
split_feature=5
split_gain=152.625
threshold=-0.40836643878938189
decision_type=2
left_child=-1
right_child=-2
leaf_value=-0.067991109406575559 0.28633389167727963
leaf_weight=20 31
leaf_count=20 31
internal_value=0
internal_weight=0
internal_count=51
is_linear=0
shrinkage=0.1


Tree=123
num_leaves=2
num_cat=0
split_feature=1
split_gain=151.332
threshold=-0.6465409405385536
decision_type=2
left_child=-1
right_child=-2
leaf_value=-0.029761936225824889 0.31535198502242567
leaf_weight=27 24
leaf_count=27 24
internal_value=0
internal_weight=0
internal_count=51
is_linear=0
shrinkage=0.1


Tree=124
num_leaves=2
num_cat=0
split_feature=8
split_gain=134.149
threshold=1.0000000180025095e-35
decision_type=2
left_child=-1
right_child=-2
leaf_value=-0.02761186305433512 0.29832696227923683
leaf_weight=28 23
leaf_count=28 23
internal_value=0
internal_weight=0
internal_count=51
is_linear=0
shrinkage=0.1


Tree=125
num_leaves=2
num_cat=0
split_feature=1
split_gain=95.9854
threshold=-0.58730298662525537
decision_type=2
left_child=-1
right_child=-2
leaf_value=-0.043433071740648969 -0.32106447815895084
leaf_weight=33 20
leaf_count=33 20
internal_value=0
internal_weight=0
internal_count=53
is_linear=0
shrinkage=0.1


Tree=126
num_leaves=2
num_cat=0
split_feature=1
split_gain=77.7482
threshold=-0.58730298662525537
decision_type=2
left_child=-1
right_child=-2
leaf_value=-0.039089759303764869 -0.28895802602171899
leaf_weight=33 20
leaf_count=33 20
internal_value=0
internal_weight=0
internal_count=53
is_linear=0
shrinkage=0.1


Tree=127
num_leaves=2
num_cat=0
split_feature=1
split_gain=62.976
threshold=-0.58730298662525537
decision_type=2
left_child=-1
right_child=-2
leaf_value=-0.035180785665006348 -0.26006224834360187
leaf_weight=33 20
leaf_count=33 20
internal_value=0
internal_weight=0
internal_count=53
is_linear=0
shrinkage=0.1


Tree=128
num_leaves=2
num_cat=0
split_feature=1
split_gain=51.0106
threshold=-0.58730298662525537
decision_type=2
left_child=-1
right_child=-2
leaf_value=-0.031662708520889281 -0.23405600182712077
leaf_weight=33 20
leaf_count=33 20
internal_value=0
internal_weight=0
internal_count=53
is_linear=0
shrinkage=0.1


Tree=129
num_leaves=2
num_cat=0
split_feature=1
split_gain=42.047
threshold=-0.62786602979090933
decision_type=2
left_child=-1
right_child=-2
leaf_value=-0.01924484302600225 -0.19895850228874579
leaf_weight=30 23
leaf_count=30 23
internal_value=0
internal_weight=0
internal_count=53
is_linear=0
shrinkage=0.1


Tree=130
num_leaves=2
num_cat=0
split_feature=1
split_gain=181.995
threshold=-0.62786602979090933
decision_type=2
left_child=-1
right_child=-2
leaf_value=-0.085999544682326151 0.30146740940293637
leaf_weight=27 22
leaf_count=27 22
internal_value=0
internal_weight=0
internal_count=49
is_linear=0
shrinkage=0.1


Tree=131
num_leaves=2
num_cat=0
split_feature=1
split_gain=147.416
threshold=-0.62786602979090933
decision_type=2
left_child=-1
right_child=-2
leaf_value=-0.077399591108163204 0.27132068093527451
leaf_weight=27 22
leaf_count=27 22
internal_value=0
internal_weight=0
internal_count=49
is_linear=0
shrinkage=0.1


Tree=132
num_leaves=2
num_cat=0
split_feature=1
split_gain=119.407
threshold=-0.62786602979090933
decision_type=2
left_child=-1
right_child=-2
leaf_value=-0.069659631140530115 0.24418859339573165
leaf_weight=27 22
leaf_count=27 22
internal_value=0
internal_weight=0
internal_count=49
is_linear=0
shrinkage=0.1


Tree=133
num_leaves=2
num_cat=0
split_feature=1
split_gain=96.7197
threshold=-0.62786602979090933
decision_type=2
left_child=-1
right_child=-2
leaf_value=-0.062693666956490951 0.21976976196535608
leaf_weight=27 22
leaf_count=27 22
internal_value=0
internal_weight=0
internal_count=49
is_linear=0
shrinkage=0.1


Tree=134
num_leaves=2
num_cat=0
split_feature=1
split_gain=78.3429
threshold=-0.62786602979090933
decision_type=2
left_child=-1
right_child=-2
leaf_value=-0.056424302138664111 0.19779277443885804
leaf_weight=27 22
leaf_count=27 22
internal_value=0
internal_weight=0
internal_count=49
is_linear=0
shrinkage=0.1


Tree=135
num_leaves=2
num_cat=0
split_feature=5
split_gain=12.8486
threshold=-0.32061547390366663
decision_type=2
left_child=-1
right_child=-2
leaf_value=-0.10340364830834525 -0.0044622213499886645
leaf_weight=21 35
leaf_count=21 35
internal_value=0
internal_weight=0
internal_count=56
is_linear=0
shrinkage=0.1


Tree=136
num_leaves=2
num_cat=0
split_feature=5
split_gain=10.4074
threshold=-0.32061547390366663
decision_type=2
left_child=-1
right_child=-2
leaf_value=-0.093063296022869293 -0.0040160136989184792
leaf_weight=21 35
leaf_count=21 35
internal_value=0
internal_weight=0
internal_count=56
is_linear=0
shrinkage=0.1


Tree=137
num_leaves=2
num_cat=0
split_feature=1
split_gain=8.53032
threshold=-0.62786602979090933
decision_type=2
left_child=-1
right_child=-2
leaf_value=0.0013813208668462694 -0.077128832340240483
leaf_weight=31 25
leaf_count=31 25
internal_value=0
internal_weight=0
internal_count=56
is_linear=0
shrinkage=0.1


Tree=138
num_leaves=2
num_cat=0
split_feature=5
split_gain=8.60389
threshold=-0.32061547390366663
decision_type=2
left_child=-1
right_child=-2
leaf_value=-0.080904227637109305 6.0834458896092012e-05
leaf_weight=21 35
leaf_count=21 35
internal_value=0
internal_weight=0
internal_count=56
is_linear=0
shrinkage=0.1


Tree=139
num_leaves=2
num_cat=0
split_feature=1
split_gain=7.06778
threshold=-0.62786602979090933
decision_type=2
left_child=-1
right_child=-2
leaf_value=0.0046324136276398933 -0.066831139683723451
leaf_weight=31 25
leaf_count=31 25
internal_value=0
internal_weight=0
internal_count=56
is_linear=0
shrinkage=0.1


Tree=140
num_leaves=2
num_cat=0
split_feature=1
split_gain=188.003
threshold=-0.62786602979090933
decision_type=2
left_child=-1
right_child=-2
leaf_value=0.034043236573537188 -0.35082487255673517
leaf_weight=30 22
leaf_count=30 22
internal_value=0
internal_weight=0
internal_count=52
is_linear=0
shrinkage=0.1


Tree=141
num_leaves=2
num_cat=0
split_feature=1
split_gain=152.282
threshold=-0.62786602979090933
decision_type=2
left_child=-1
right_child=-2
leaf_value=0.030638910631338757 -0.31574236176146031
leaf_weight=30 22
leaf_count=30 22
internal_value=0
internal_weight=0
internal_count=52
is_linear=0
shrinkage=0.1


Tree=142
num_leaves=2
num_cat=0
split_feature=1
split_gain=123.349
threshold=-0.62786602979090933
decision_type=2
left_child=-1
right_child=-2
leaf_value=0.027575020492076874 -0.28416811674833298
leaf_weight=30 22
leaf_count=30 22
internal_value=0
internal_weight=0
internal_count=52
is_linear=0
shrinkage=0.1


Tree=143
num_leaves=2
num_cat=0
split_feature=1
split_gain=99.9124
threshold=-0.62786602979090933
decision_type=2
left_child=-1
right_child=-2
leaf_value=0.024817517399787905 -0.25575130229646509
leaf_weight=30 22
leaf_count=30 22
internal_value=0
internal_weight=0
internal_count=52
is_linear=0
shrinkage=0.1


Tree=144
num_leaves=2
num_cat=0
split_feature=5
split_gain=81.428
threshold=-0.32061547390366663
decision_type=2
left_child=-1
right_child=-2
leaf_value=0.06754326195943923 -0.18749070321359942
leaf_weight=21 31
leaf_count=21 31
internal_value=0
internal_weight=0
internal_count=52
is_linear=0
shrinkage=0.1


Tree=145
num_leaves=2
num_cat=0
split_feature=8
split_gain=17.0012
threshold=0.21352809239968548
decision_type=2
left_child=-1
right_child=-2
leaf_value=0.020051524905781999 -0.09385442674160005
leaf_weight=38 20
leaf_count=38 20
internal_value=0
internal_weight=0
internal_count=58
is_linear=0
shrinkage=0.1


Tree=146
num_leaves=2
num_cat=0
split_feature=8
split_gain=13.7709
threshold=0.21352809239968548
decision_type=2
left_child=-1
right_child=-2
leaf_value=0.018046373795521885 -0.084468979835510258
leaf_weight=38 20
leaf_count=38 20
internal_value=0
internal_weight=0
internal_count=58
is_linear=0
shrinkage=0.1


Tree=147
num_leaves=2
num_cat=0
split_feature=8
split_gain=12.9631
threshold=-0.8044892183300022
decision_type=2
left_child=-1
right_child=-2
leaf_value=-0.080738776624202729 0.018724211579874941
leaf_weight=20 38
leaf_count=20 38
internal_value=0
internal_weight=0
internal_count=58
is_linear=0
shrinkage=0.1


Tree=148
num_leaves=2
num_cat=0
split_feature=8
split_gain=12.9181
threshold=-0.17693423530720179
decision_type=2
left_child=-1
right_child=-2
leaf_value=0.038340752514509052 -0.056555921211838722
leaf_weight=26 32
leaf_count=26 32
internal_value=0
internal_weight=0
internal_count=58
is_linear=0
shrinkage=0.1


Tree=149
num_leaves=2
num_cat=0
split_feature=8
split_gain=12.4585
threshold=-0.8044892183300022
decision_type=2
left_child=-1
right_child=-2
leaf_value=-0.07649897493422031 0.021009016821258948
leaf_weight=20 38
leaf_count=20 38
internal_value=0
internal_weight=0
internal_count=58
is_linear=0
shrinkage=0.1


Tree=150
num_leaves=2
num_cat=0
split_feature=8
split_gain=34.8193
threshold=1.0000000180025095e-35
decision_type=2
left_child=-1
right_child=-2
leaf_value=0.034612265859658903 0.20164550884316365
leaf_weight=26 24
leaf_count=26 24
internal_value=0
internal_weight=0
internal_count=50
is_linear=0
shrinkage=0.1


Tree=151
num_leaves=2
num_cat=0
split_feature=8
split_gain=28.2037
threshold=1.0000000180025095e-35
decision_type=2
left_child=-1
right_child=-2
leaf_value=0.031151037262036253 0.18148094899952413
leaf_weight=26 24
leaf_count=26 24
internal_value=0
internal_weight=0
internal_count=50
is_linear=0
shrinkage=0.1


Tree=152
num_leaves=2
num_cat=0
split_feature=1
split_gain=23.5701
threshold=-0.58730298662525537
decision_type=2
left_child=-1
right_child=-2
leaf_value=0.0321190245449543 0.17043591209433295
leaf_weight=28 22
leaf_count=28 22
internal_value=0
internal_weight=0
internal_count=50
is_linear=0
shrinkage=0.1


Tree=153
num_leaves=2
num_cat=0
split_feature=8
split_gain=19.7953
threshold=1.0000000180025095e-35
decision_type=2
left_child=-1
right_child=-2
leaf_value=0.023228065440287958 0.14917087654272718
leaf_weight=26 24
leaf_count=26 24
internal_value=0
internal_weight=0
internal_count=50
is_linear=0
shrinkage=0.1


Tree=154
num_leaves=2
num_cat=0
split_feature=1
split_gain=16.537
threshold=-0.58730298662525537
decision_type=2
left_child=-1
right_child=-2
leaf_value=0.024335336578743802 0.14019263806668195
leaf_weight=28 22
leaf_count=28 22
internal_value=0
internal_weight=0
internal_count=50
is_linear=0
shrinkage=0.1


Tree=155
num_leaves=2
num_cat=0
split_feature=1
split_gain=58.8609
threshold=-0.46922902109123876
decision_type=2
left_child=-1
right_child=-2
leaf_value=-0.00071884810924530032 -0.2157719857990742
leaf_weight=35 20
leaf_count=35 20
internal_value=0
internal_weight=0
internal_count=55
is_linear=0
shrinkage=0.1


Tree=156
num_leaves=2
num_cat=0
split_feature=1
split_gain=47.6773
threshold=-0.46922902109123876
decision_type=2
left_child=-1
right_child=-2
leaf_value=-0.00064696673836026877 -0.19419481277465822
leaf_weight=35 20
leaf_count=35 20
internal_value=0
internal_weight=0
internal_count=55
is_linear=0
shrinkage=0.1


Tree=157
num_leaves=2
num_cat=0
split_feature=1
split_gain=38.6186
threshold=-0.46922902109123876
decision_type=2
left_child=-1
right_child=-2
leaf_value=-0.00058226640735353742 -0.17477533325552941
leaf_weight=35 20
leaf_count=35 20
internal_value=0
internal_weight=0
internal_count=55
is_linear=0
shrinkage=0.1


Tree=158
num_leaves=2
num_cat=0
split_feature=8
split_gain=31.9719
threshold=-0.17693423530720179
decision_type=2
left_child=-1
right_child=-2
leaf_value=0.029119220748543742 -0.12461802411463954
leaf_weight=24 31
leaf_count=24 31
internal_value=0
internal_weight=0
internal_count=55
is_linear=0
shrinkage=0.1


Tree=159
num_leaves=2
num_cat=0
split_feature=1
split_gain=27.2156
threshold=-0.46922902109123876
decision_type=2
left_child=-1
right_child=-2
leaf_value=0.0013957799332482475 -0.14483595766127108
leaf_weight=35 20
leaf_count=35 20
internal_value=0
internal_weight=0
internal_count=55
is_linear=0
shrinkage=0.1


Tree=160
num_leaves=2
num_cat=0
split_feature=1
split_gain=123.7
threshold=-0.66099904805303356
decision_type=2
left_child=-1
right_child=-2
leaf_value=-0.059889804882307857 0.24702475580932767
leaf_weight=24 29
leaf_count=24 29
internal_value=0
internal_weight=0
internal_count=53
is_linear=0
shrinkage=0.1


Tree=161
num_leaves=2
num_cat=0
split_feature=1
split_gain=100.197
threshold=-0.66099904805303356
decision_type=2
left_child=-1
right_child=-2
leaf_value=-0.0539008249839147 0.22232227076872668
leaf_weight=24 29
leaf_count=24 29
internal_value=0
internal_weight=0
internal_count=53
is_linear=0
shrinkage=0.1


Tree=162
num_leaves=2
num_cat=0
split_feature=1
split_gain=81.1593
threshold=-0.66099904805303356
decision_type=2
left_child=-1
right_child=-2
leaf_value=-0.048510742932558061 0.20009004381196252
leaf_weight=24 29
leaf_count=24 29
internal_value=0
internal_weight=0
internal_count=53
is_linear=0
shrinkage=0.1


Tree=163
num_leaves=2
num_cat=0
split_feature=8
split_gain=72.568
threshold=1.0000000180025095e-35
decision_type=2
left_child=-1
right_child=-2
leaf_value=-0.031802511364886807 0.20259955239295963
leaf_weight=28 25
leaf_count=28 25
internal_value=0
internal_weight=0
internal_count=53
is_linear=0
shrinkage=0.1


Tree=164
num_leaves=2
num_cat=0
split_feature=1
split_gain=61.2851
threshold=-0.66099904805303356
decision_type=2
left_child=-1
right_child=-2
leaf_value=-0.047316136832038565 0.16871220209989057
leaf_weight=24 29
leaf_count=24 29
internal_value=0
internal_weight=0
internal_count=53
is_linear=0
shrinkage=0.1


Tree=165
num_leaves=2
num_cat=0
split_feature=8
split_gain=61.7671
threshold=0.095505923630014741
decision_type=2
left_child=-1
right_child=-2
leaf_value=-0.034194855164322593 -0.25337766215205193
leaf_weight=36 20
leaf_count=36 20
internal_value=0
internal_weight=0
internal_count=56
is_linear=0
shrinkage=0.1


Tree=166
num_leaves=2
num_cat=0
split_feature=8
split_gain=50.0314
threshold=0.095505923630014741
decision_type=2
left_child=-1
right_child=-2
leaf_value=-0.030775373118619127 -0.22803988724946977
leaf_weight=36 20
leaf_count=36 20
internal_value=0
internal_weight=0
internal_count=56
is_linear=0
shrinkage=0.1


Tree=167
num_leaves=2
num_cat=0
split_feature=8
split_gain=40.5254
threshold=0.095505923630014741
decision_type=2
left_child=-1
right_child=-2
leaf_value=-0.02769783155785667 -0.205235892534256
leaf_weight=36 20
leaf_count=36 20
internal_value=0
internal_weight=0
internal_count=56
is_linear=0
shrinkage=0.1


Tree=168
num_leaves=2
num_cat=0
split_feature=8
split_gain=32.8256
threshold=0.095505923630014741
decision_type=2
left_child=-1
right_child=-2
leaf_value=-0.024928049282688235 -0.18471228778362275
leaf_weight=36 20
leaf_count=36 20
internal_value=0
internal_weight=0
internal_count=56
is_linear=0
shrinkage=0.1


Tree=169
num_leaves=2
num_cat=0
split_feature=8
split_gain=28.0688
threshold=-0.17693423530720179
decision_type=2
left_child=-1
right_child=-2
leaf_value=0.0022542781662195921 -0.13970338920752209
leaf_weight=26 30
leaf_count=26 30
internal_value=0
internal_weight=0
internal_count=56
is_linear=0
shrinkage=0.1


Tree=170
num_leaves=2
num_cat=0
split_feature=1
split_gain=77.1727
threshold=-0.46922902109123876
decision_type=2
left_child=-1
right_child=-2
leaf_value=-0.010934167099890835 0.23800767958164215
leaf_weight=33 20
leaf_count=33 20
internal_value=0
internal_weight=0
internal_count=53
is_linear=0
shrinkage=0.1


Tree=171
num_leaves=2
num_cat=0
split_feature=1
split_gain=62.5099
threshold=-0.46922902109123876
decision_type=2
left_child=-1
right_child=-2
leaf_value=-0.0098407494214673846 0.21420690938830378
leaf_weight=33 20
leaf_count=33 20
internal_value=0
internal_weight=0
internal_count=53
is_linear=0
shrinkage=0.1


Tree=172
num_leaves=2
num_cat=0
split_feature=1
split_gain=50.633
threshold=-0.46922902109123876
decision_type=2
left_child=-1
right_child=-2
leaf_value=-0.0088566723561873933 0.19278620421886444
leaf_weight=33 20
leaf_count=33 20
internal_value=0
internal_weight=0
internal_count=53
is_linear=0
shrinkage=0.1


Tree=173
num_leaves=2
num_cat=0
split_feature=1
split_gain=41.0128
threshold=-0.46922902109123876
decision_type=2
left_child=-1
right_child=-2
leaf_value=-0.0079710078679702499 0.17350759923458101
leaf_weight=33 20
leaf_count=33 20
internal_value=0
internal_weight=0
internal_count=53
is_linear=0
shrinkage=0.1


Tree=174
num_leaves=2
num_cat=0
split_feature=1
split_gain=33.2203
threshold=-0.46922902109123876
decision_type=2
left_child=-1
right_child=-2
leaf_value=-0.0071739061199354408 0.15615684077143671
leaf_weight=33 20
leaf_count=33 20
internal_value=0
internal_weight=0
internal_count=53
is_linear=0
shrinkage=0.1


Tree=175
num_leaves=2
num_cat=0
split_feature=8
split_gain=61.4087
threshold=0.21352809239968548
decision_type=2
left_child=-1
right_child=-2
leaf_value=-0.00070170089602470407 -0.21718385025858877
leaf_weight=38 20
leaf_count=38 20
internal_value=0
internal_weight=0
internal_count=58
is_linear=0
shrinkage=0.1


Tree=176
num_leaves=2
num_cat=0
split_feature=8
split_gain=49.7411
threshold=0.21352809239968548
decision_type=2
left_child=-1
right_child=-2
leaf_value=-0.0006315335141200769 -0.19546550750732422
leaf_weight=38 20
leaf_count=38 20
internal_value=0
internal_weight=0
internal_count=58
is_linear=0
shrinkage=0.1


Tree=177
num_leaves=2
num_cat=0
split_feature=8
split_gain=40.2902
threshold=0.21352809239968548
decision_type=2
left_child=-1
right_child=-2
leaf_value=-0.00056837723639450576 -0.17591893494129182
leaf_weight=38 20
leaf_count=38 20
internal_value=0
internal_weight=0
internal_count=58
is_linear=0
shrinkage=0.1


Tree=178
num_leaves=2
num_cat=0
split_feature=8
split_gain=32.6351
threshold=0.21352809239968548
decision_type=2
left_child=-1
right_child=-2
leaf_value=-0.00051153847261479026 -0.15832703053951264
leaf_weight=38 20
leaf_count=38 20
internal_value=0
internal_weight=0
internal_count=58
is_linear=0
shrinkage=0.1


Tree=179
num_leaves=2
num_cat=0
split_feature=8
split_gain=26.4344
threshold=0.21352809239968548
decision_type=2
left_child=-1
right_child=-2
leaf_value=-0.00046038899178567691 -0.14249431520700456
leaf_weight=38 20
leaf_count=38 20
internal_value=0
internal_weight=0
internal_count=58
is_linear=0
shrinkage=0.1


Tree=180
num_leaves=2
num_cat=0
split_feature=1
split_gain=300.572
threshold=-0.58730298662525537
decision_type=2
left_child=-1
right_child=-2
leaf_value=-0.091983825501439909 0.41193251466378578
leaf_weight=29 20
leaf_count=29 20
internal_value=0
internal_weight=0
internal_count=49
is_linear=0
shrinkage=0.1


Tree=181
num_leaves=2
num_cat=0
split_feature=1
split_gain=243.463
threshold=-0.58730298662525537
decision_type=2
left_child=-1
right_child=-2
leaf_value=-0.082785443730395425 0.37073924466967584
leaf_weight=29 20
leaf_count=29 20
internal_value=0
internal_weight=0
internal_count=49
is_linear=0
shrinkage=0.1


Tree=182
num_leaves=2
num_cat=0
split_feature=1
split_gain=197.205
threshold=-0.58730298662525537
decision_type=2
left_child=-1
right_child=-2
leaf_value=-0.074506894055480985 0.33366530433297159
leaf_weight=29 20
leaf_count=29 20
internal_value=0
internal_weight=0
internal_count=49
is_linear=0
shrinkage=0.1


Tree=183
num_leaves=2
num_cat=0
split_feature=1
split_gain=159.736
threshold=-0.58730298662525537
decision_type=2
left_child=-1
right_child=-2
leaf_value=-0.067056209260019761 0.30029881786555057
leaf_weight=29 20
leaf_count=29 20
internal_value=0
internal_weight=0
internal_count=49
is_linear=0
shrinkage=0.1


Tree=184
num_leaves=2
num_cat=0
split_feature=1
split_gain=129.386
threshold=-0.58730298662525537
decision_type=2
left_child=-1
right_child=-2
leaf_value=-0.060350589916623877 0.27026891835033895
leaf_weight=29 20
leaf_count=29 20
internal_value=0
internal_weight=0
internal_count=49
is_linear=0
shrinkage=0.1


Tree=185
num_leaves=2
num_cat=0
split_feature=1
split_gain=29.5691
threshold=-0.65658138950709277
decision_type=2
left_child=-1
right_child=-2
leaf_value=0.074699087496157043 -0.073297645648320517
leaf_weight=27 27
leaf_count=27 27
internal_value=0
internal_weight=0
internal_count=54
is_linear=0
shrinkage=0.1


Tree=186
num_leaves=2
num_cat=0
split_feature=1
split_gain=23.951
threshold=-0.65658138950709277
decision_type=2
left_child=-1
right_child=-2
leaf_value=0.06722918092100709 -0.065967875829449407
leaf_weight=27 27
leaf_count=27 27
internal_value=0
internal_weight=0
internal_count=54
is_linear=0
shrinkage=0.1


Tree=187
num_leaves=2
num_cat=0
split_feature=1
split_gain=19.4003
threshold=-0.65658138950709277
decision_type=2
left_child=-1
right_child=-2
leaf_value=0.060506261540231879 -0.059371096778798982
leaf_weight=27 27
leaf_count=27 27
internal_value=0
internal_weight=0
internal_count=54
is_linear=0
shrinkage=0.1


Tree=188
num_leaves=2
num_cat=0
split_feature=8
split_gain=15.9666
threshold=-0.55548117645502815
decision_type=2
left_child=-1
right_child=-2
leaf_value=-0.06765339130624419 0.043888052756136116
leaf_weight=21 33
leaf_count=21 33
internal_value=0
internal_weight=0
internal_count=54
is_linear=0
shrinkage=0.1


Tree=189
num_leaves=2
num_cat=0
split_feature=1
split_gain=16.0773
threshold=-0.65658138950709277
decision_type=2
left_child=-1
right_child=-2
leaf_value=0.055024226423766878 -0.054104744725757173
leaf_weight=27 27
leaf_count=27 27
internal_value=0
internal_weight=0
internal_count=54
is_linear=0
shrinkage=0.1


Tree=190
num_leaves=2
num_cat=0
split_feature=1
split_gain=200.005
threshold=-0.58730298662525537
decision_type=2
left_child=-1
right_child=-2
leaf_value=0.026122347228229051 -0.38213142231106761
leaf_weight=30 20
leaf_count=30 20
internal_value=0
internal_weight=0
internal_count=50
is_linear=0
shrinkage=0.1


Tree=191
num_leaves=2
num_cat=0
split_feature=1
split_gain=162.004
threshold=-0.58730298662525537
decision_type=2
left_child=-1
right_child=-2
leaf_value=0.023510111135741075 -0.34391829855740075
leaf_weight=30 20
leaf_count=30 20
internal_value=0
internal_weight=0
internal_count=50
is_linear=0
shrinkage=0.1


Tree=192
num_leaves=2
num_cat=0
split_feature=1
split_gain=131.224
threshold=-0.58730298662525537
decision_type=2
left_child=-1
right_child=-2
leaf_value=0.021159098371863368 -0.30952646419405938
leaf_weight=30 20
leaf_count=30 20
internal_value=0
internal_weight=0
internal_count=50
is_linear=0
shrinkage=0.1


Tree=193
num_leaves=2
num_cat=0
split_feature=1
split_gain=106.291
threshold=-0.58730298662525537
decision_type=2
left_child=-1
right_child=-2
leaf_value=0.019043190839389962 -0.27857381030917167
leaf_weight=30 20
leaf_count=30 20
internal_value=0
internal_weight=0
internal_count=50
is_linear=0
shrinkage=0.1


Tree=194
num_leaves=2
num_cat=0
split_feature=1
split_gain=86.0957
threshold=-0.58730298662525537
decision_type=2
left_child=-1
right_child=-2
leaf_value=0.017138869340221088 -0.25071642791386695
leaf_weight=30 20
leaf_count=30 20
internal_value=0
internal_weight=0
internal_count=50
is_linear=0
shrinkage=0.1


Tree=195
num_leaves=2
num_cat=0
split_feature=1
split_gain=6.67248
threshold=-0.58730298662525537
decision_type=2
left_child=-1
right_child=-2
leaf_value=0.013147456918297143 -0.059885433113033126
leaf_weight=29 22
leaf_count=29 22
internal_value=0
internal_weight=0
internal_count=51
is_linear=0
shrinkage=0.1


Tree=196
num_leaves=2
num_cat=0
split_feature=1
split_gain=5.40471
threshold=-0.58730298662525537
decision_type=2
left_child=-1
right_child=-2
leaf_value=0.01183270598793852 -0.053896902230652903
leaf_weight=29 22
leaf_count=29 22
internal_value=0
internal_weight=0
internal_count=51
is_linear=0
shrinkage=0.1


Tree=197
num_leaves=2
num_cat=0
split_feature=1
split_gain=4.37782
threshold=-0.58730298662525537
decision_type=2
left_child=-1
right_child=-2
leaf_value=0.010649438549218508 -0.04850721620023251
leaf_weight=29 22
leaf_count=29 22
internal_value=0
internal_weight=0
internal_count=51
is_linear=0
shrinkage=0.1


Tree=198
num_leaves=2
num_cat=0
split_feature=1
split_gain=3.54603
threshold=-0.58730298662525537
decision_type=2
left_child=-1
right_child=-2
leaf_value=0.0095844940828352151 -0.043656488038091495
leaf_weight=29 22
leaf_count=29 22
internal_value=0
internal_weight=0
internal_count=51
is_linear=0
shrinkage=0.1


Tree=199
num_leaves=2
num_cat=0
split_feature=1
split_gain=2.87229
threshold=-0.58730298662525537
decision_type=2
left_child=-1
right_child=-2
leaf_value=0.0086260437644247352 -0.039290842634033075
leaf_weight=29 22
leaf_count=29 22
internal_value=0
internal_weight=0
internal_count=51
is_linear=0
shrinkage=0.1


Tree=200
num_leaves=2
num_cat=0
split_feature=1
split_gain=14.189
threshold=-0.66099904805303356
decision_type=2
left_child=-1
right_child=-2
leaf_value=-0.044500147446524356 0.068504912883043292
leaf_weight=20 25
leaf_count=20 25
internal_value=0
internal_weight=0
internal_count=45
is_linear=0
shrinkage=0.1


Tree=201
num_leaves=2
num_cat=0
split_feature=1
split_gain=11.4931
threshold=-0.66099904805303356
decision_type=2
left_child=-1
right_child=-2
leaf_value=-0.040050134081393483 0.061654420237988242
leaf_weight=20 25
leaf_count=20 25
internal_value=0
internal_weight=0
internal_count=45
is_linear=0
shrinkage=0.1


Tree=202
num_leaves=2
num_cat=0
split_feature=1
split_gain=9.30944
threshold=-0.66099904805303356
decision_type=2
left_child=-1
right_child=-2
leaf_value=-0.0360451253131032 0.055488995999097825
leaf_weight=20 25
leaf_count=20 25
internal_value=0
internal_weight=0
internal_count=45
is_linear=0
shrinkage=0.1


Tree=203
num_leaves=2
num_cat=0
split_feature=1
split_gain=7.54064
threshold=-0.66099904805303356
decision_type=2
left_child=-1
right_child=-2
leaf_value=-0.032440608106553553 0.04994007778167725
leaf_weight=20 25
leaf_count=20 25
internal_value=0
internal_weight=0
internal_count=45
is_linear=0
shrinkage=0.1


Tree=204
num_leaves=2
num_cat=0
split_feature=1
split_gain=6.22894
threshold=-0.62786602979090933
decision_type=2
left_child=-1
right_child=-2
leaf_value=0.045270922297611836 -0.029602598994970322
leaf_weight=25 20
leaf_count=25 20
internal_value=0
internal_weight=0
internal_count=45
is_linear=0
shrinkage=0.1


Tree=205
num_leaves=2
num_cat=0
split_feature=1
split_gain=24.1766
threshold=-0.46922902109123876
decision_type=2
left_child=-1
right_child=-2
leaf_value=-0.0049988642455108707 0.13602320596575737
leaf_weight=31 20
leaf_count=31 20
internal_value=0
internal_weight=0
internal_count=51
is_linear=0
shrinkage=0.1


Tree=206
num_leaves=2
num_cat=0
split_feature=1
split_gain=19.5831
threshold=-0.46922902109123876
decision_type=2
left_child=-1
right_child=-2
leaf_value=-0.0044989748948043393 0.12242087565362454
leaf_weight=31 20
leaf_count=31 20
internal_value=0
internal_weight=0
internal_count=51
is_linear=0
shrinkage=0.1


Tree=207
num_leaves=2
num_cat=0
split_feature=1
split_gain=15.8623
threshold=-0.46922902109123876
decision_type=2
left_child=-1
right_child=-2
leaf_value=-0.0040490746978790529 0.11017879828810694
leaf_weight=31 20
leaf_count=31 20
internal_value=0
internal_weight=0
internal_count=51
is_linear=0
shrinkage=0.1


Tree=208
num_leaves=2
num_cat=0
split_feature=1
split_gain=12.8484
threshold=-0.46922902109123876
decision_type=2
left_child=-1
right_child=-2
leaf_value=-0.0036441705520114591 0.09916089802980424
leaf_weight=31 20
leaf_count=31 20
internal_value=0
internal_weight=0
internal_count=51
is_linear=0
shrinkage=0.1


Tree=209
num_leaves=2
num_cat=0
split_feature=1
split_gain=10.4072
threshold=-0.46922902109123876
decision_type=2
left_child=-1
right_child=-2
leaf_value=-0.0032797529392184751 0.089244825243949888
leaf_weight=31 20
leaf_count=31 20
internal_value=0
internal_weight=0
internal_count=51
is_linear=0
shrinkage=0.1


Tree=210
num_leaves=2
num_cat=0
split_feature=1
split_gain=87.5572
threshold=-0.62786602979090933
decision_type=2
left_child=-1
right_child=-2
leaf_value=0.076372133612632759 -0.19716328683901918
leaf_weight=25 22
leaf_count=25 22
internal_value=0
internal_weight=0
internal_count=47
is_linear=0
shrinkage=0.1


Tree=211
num_leaves=2
num_cat=0
split_feature=1
split_gain=70.9213
threshold=-0.62786602979090933
decision_type=2
left_child=-1
right_child=-2
leaf_value=0.068734918519854554 -0.17744694636626679
leaf_weight=25 22
leaf_count=25 22
internal_value=0
internal_weight=0
internal_count=47
is_linear=0
shrinkage=0.1


Tree=212
num_leaves=2
num_cat=0
split_feature=1
split_gain=57.4463
threshold=-0.62786602979090933
decision_type=2
left_child=-1
right_child=-2
leaf_value=0.061861421141773468 -0.15970226329835979
leaf_weight=25 22
leaf_count=25 22
internal_value=0
internal_weight=0
internal_count=47
is_linear=0
shrinkage=0.1


Tree=213
num_leaves=2
num_cat=0
split_feature=1
split_gain=46.5315
threshold=-0.62786602979090933
decision_type=2
left_child=-1
right_child=-2
leaf_value=0.055675284206867216 -0.14373203353448347
leaf_weight=25 22
leaf_count=25 22
internal_value=0
internal_weight=0
internal_count=47
is_linear=0
shrinkage=0.1


Tree=214
num_leaves=2
num_cat=0
split_feature=1
split_gain=37.6905
threshold=-0.62786602979090933
decision_type=2
left_child=-1
right_child=-2
leaf_value=0.05010775589942932 -0.12935883650048213
leaf_weight=25 22
leaf_count=25 22
internal_value=0
internal_weight=0
internal_count=47
is_linear=0
shrinkage=0.1


Tree=215
num_leaves=2
num_cat=0
split_feature=8
split_gain=3.65673
threshold=-0.17693423530720179
decision_type=2
left_child=-1
right_child=-2
leaf_value=0.014278673736945444 -0.039534508649791994
leaf_weight=23 28
leaf_count=23 28
internal_value=0
internal_weight=0
internal_count=51
is_linear=0
shrinkage=0.1


Tree=216
num_leaves=2
num_cat=0
split_feature=1
split_gain=3.76884
threshold=-0.6465409405385536
decision_type=2
left_child=-1
right_child=-2
leaf_value=-0.041461939573287969 0.012917211307929114
leaf_weight=25 26
leaf_count=25 26
internal_value=0
internal_weight=0
internal_count=51
is_linear=0
shrinkage=0.1


Tree=217
num_leaves=2
num_cat=0
split_feature=8
split_gain=3.21609
threshold=-0.17693423530720179
decision_type=2
left_child=-1
right_child=-2
leaf_value=0.015341983411623085 -0.035124892156038971
leaf_weight=23 28
leaf_count=23 28
internal_value=0
internal_weight=0
internal_count=51
is_linear=0
shrinkage=0.1


Tree=218
num_leaves=2
num_cat=0
split_feature=1
split_gain=3.29065
threshold=-0.6465409405385536
decision_type=2
left_child=-1
right_child=-2
leaf_value=-0.037033134460449223 0.013779248182590194
leaf_weight=25 26
leaf_count=25 26
internal_value=0
internal_weight=0
internal_count=51
is_linear=0
shrinkage=0.1


Tree=219
num_leaves=2
num_cat=0
split_feature=8
split_gain=2.82772
threshold=-0.17693423530720179
decision_type=2
left_child=-1
right_child=-2
leaf_value=0.015964634651723115 -0.031357066865478248
leaf_weight=23 28
leaf_count=23 28
internal_value=0
internal_weight=0
internal_count=51
is_linear=0
shrinkage=0.1


Tree=220
num_leaves=2
num_cat=0
split_feature=1
split_gain=72.7356
threshold=-0.62786602979090933
decision_type=2
left_child=-1
right_child=-2
leaf_value=-0.0033811814550842555 0.2463081841170788
leaf_weight=28 20
leaf_count=28 20
internal_value=0
internal_weight=0
internal_count=48
is_linear=0
shrinkage=0.1


Tree=221
num_leaves=2
num_cat=0
split_feature=1
split_gain=59.0378
threshold=-0.6465409405385536
decision_type=2
left_child=-1
right_child=-2
leaf_value=-0.015784220755100251 0.20621508264347266
leaf_weight=25 23
leaf_count=25 23
internal_value=0
internal_weight=0
internal_count=48
is_linear=0
shrinkage=0.1


Tree=222
num_leaves=2
num_cat=0
split_feature=1
split_gain=48.9809
threshold=-0.62786602979090933
decision_type=2
left_child=-1
right_child=-2
leaf_value=-0.0038431989295142038 0.20105584986507893
leaf_weight=28 20
leaf_count=28 20
internal_value=0
internal_weight=0
internal_count=48
is_linear=0
shrinkage=0.1


Tree=223
num_leaves=2
num_cat=0
split_feature=8
split_gain=41.1581
threshold=0.054081303618759465
decision_type=2
left_child=-1
right_child=-2
leaf_value=-0.0048823524466050528 0.18294310480356218
leaf_weight=28 20
leaf_count=28 20
internal_value=0
internal_weight=0
internal_count=48
is_linear=0
shrinkage=0.1


Tree=224
num_leaves=2
num_cat=0
split_feature=1
split_gain=35.2086
threshold=-0.66099904805303356
decision_type=2
left_child=-1
right_child=-2
leaf_value=-0.02706585597585548 0.14482268572140197
leaf_weight=22 26
leaf_count=22 26
internal_value=0
internal_weight=0
internal_count=48
is_linear=0
shrinkage=0.1


Tree=225
num_leaves=2
num_cat=0
split_feature=5
split_gain=20.7483
threshold=-0.32061547390366663
decision_type=2
left_child=-1
right_child=-2
leaf_value=-0.12849912941455841 0.0048583588429859711
leaf_weight=20 28
leaf_count=20 28
internal_value=0
internal_weight=0
internal_count=48
is_linear=0
shrinkage=0.1


Tree=226
num_leaves=2
num_cat=0
split_feature=5
split_gain=16.8061
threshold=-0.32061547390366663
decision_type=2
left_child=-1
right_child=-2
leaf_value=-0.1156492218375206 0.004372538945504597
leaf_weight=20 28
leaf_count=20 28
internal_value=0
internal_weight=0
internal_count=48
is_linear=0
shrinkage=0.1


Tree=227
num_leaves=2
num_cat=0
split_feature=5
split_gain=13.6129
threshold=-0.32061547390366663
decision_type=2
left_child=-1
right_child=-2
leaf_value=-0.10408429980278017 0.0039352873606341224
leaf_weight=20 28
leaf_count=20 28
internal_value=0
internal_weight=0
internal_count=48
is_linear=0
shrinkage=0.1


Tree=228
num_leaves=2
num_cat=0
split_feature=5
split_gain=11.0265
threshold=-0.32061547390366663
decision_type=2
left_child=-1
right_child=-2
leaf_value=-0.093675881028175367 0.0035417675439800532
leaf_weight=20 28
leaf_count=20 28
internal_value=0
internal_weight=0
internal_count=48
is_linear=0
shrinkage=0.1


Tree=229
num_leaves=2
num_cat=0
split_feature=8
split_gain=9.7292
threshold=-0.17693423530720179
decision_type=2
left_child=-1
right_child=-2
leaf_value=0.02000088028609753 -0.071318960083382468
