tree
version=v4
num_class=1
num_tree_per_iteration=1
label_index=0
max_feature_idx=12
objective=regression
feature_names=Column_0 Column_1 Column_2 Column_3 Column_4 Column_5 Column_6 Column_7 Column_8 Column_9 Column_10 Column_11 Column_12
feature_infos=[-1.185213976887552:2.6732865516851692] [-0.86260857600378016:2.2924601761379773] [-0.76573175678578786:3.3284358200351987] none [-0.74919875830561178:3.0656234940621765] [-0.91441836431870016:2.5427523421366551] [-0.65998524893725774:3.3524613793392848] none [-1.7009124727502491:1.0170836050009873] [-1.1813819769465548:2.6600561507768825] [-0.73051424481691507:2.8570538770318641] [-0.7811287860001741:3.3605551289510167] [-0.65584135049060233:3.3658271560004889]
tree_sizes=310 314 317 314 314 314 314 315 314 312 315 315 315 315 314 317 316 317 317 317 320 320 320 318 320 317 315 317 316 316 315 315 315 314 315 316 317 317 317 317 317 317 315 317 317 315 314 313 315 315 317 316 317 317 316 317 317 316 317 317 315 315 318 315 314 318 318 318 317 320 315 317 318 314 315 320 320 320 320 320 315 313 315 318 315 317 317 317 315 317 315 315 318 314 315 318 318 317 317 318 316 317 318 317 318 319 318 318 318 318 321 321 320 321 321 316 315 316 315 316 318 317 317 318 318 315 315 316 315 316 318 317 318 318 321 318 319 318 317 317 318 318 318 318 318 316 316 316 316 314 320 318 318 318 318 316 316 319 316 318 318 317 318 318 318 315 316 316 316 315 318 316 319 318 316 319 321 321 321 321 316 316 316 316 316 318 318 318 318 318 316 316 316 316 315 315 316 316 316 316 321 320 320 320 320 321 321 319 321 319 321 319 321 321 321 318 318 318 317 318 319 316 319 319 319 316 316 316 315 315 316 315 316 316 315 317 317 319 318 316 315 316 315 316 316 316 316 315 315 319 316 316 316 315 316 317 318 318 317 318 315 316 316 316 319 320 321 321 321 320 314 316 315 316 319 320 321 320 321 321 317 317 317 318 318 321 321 320 321 321 321 321 321 321 321 321 320 321 320 320 318 318 318 318 318 318 318 318 317 317 319 318 318 318 318 319 319 319 319 318 319 319 318 318 319 318 318 318 318 317 318 318 318 318 319 317 318 319 318 318 321 321 318 317 321 320 321 320 320 321 320 319 321 320 321 319 319 319 317 319 319 319 317 316 316 317 316 318 318 317 317 318 318 318 318 318 318 318 318 318 319 318 318 318 318 321 321 321 319 321 317 319 318 318 318 316 319 318 317 317 318 318 317 318 317 319 318 318 319 317 316 318 314 318 316 320 321 321 319 321 318 317 318 317 317 321 320 321 321 319 320 321 321 321 321 317 318 318 318 317 316 318 318 318 317 318 319 318 318 317 317 318 318 318 318 318 318 317 318 318 315 316 316 315 316 320 320 320 320 319 318 318 317 318 318 316 316 316 316 316 321 320 321 321 321 316 316 316 316 316 316 317 318 318 317 319 316 316 317 316 321 320 321 320 321 318 317 318 316 318 316 315 316 315 316 321 321 320 320 321 321 322 322 322 320 316 315 316 316 316 317 317 318 318 318 318 318 316 318 318 318 318 319 318 318 318 318 318 318 317 318 316 318 318 319 318 318 319 319 319 318 317 319 317 319 315 316 316 316 316 322 322 322 322 322 316 316 315 318 316 318 317 317 318 318 317 316 317 317 322 320 322 322 322 321 319 319 319 319 319 317 316 317 317 317 318 318 318 318 318 320 317 318 317 318 322 322 320 322 322 322 322 322 322 322 319 318 319 318 319 320 322 322 321 322 317 318 318 318 316 318 317 318 316 318 317 317 316 317 317 319 318 318 319 319 322 322 321 322 320 317 318 319 318 318 317 317 317 317 316 319 318 319 319 318 322 321 322 322 320 319 318 319 319 318 322 322 322 319 320 322 322 322 320 322 319 319 318 318 319 319 319 319 319 318 321 322 321 320 321 319 317 318 319 319 322 322 321 322 322 322 320 322 319 322 322 322 319 321 322 319 319 318 319 318 322 321 321 321 322 318 318 319 319 319 322 322 322 322 322 318 319 319 319 319 321 317 321 317 322 320 318 319 318 319 320 320 321 321 320 318 319 319 319 318 319 319 319 319 319 322 322 322 322 321 317 319 317 317 317 319 319 319 317 318 319 319 319 319 319 320 320 320 320 319 318 318 319 318 318 319 319 319 318 317 321 319 319 321 321 320 321 321 322 322 319 318 319 319 319 322 322 322 320 319 321 319 321 319 321 317 318 319 319 319 317 317 316 317 321 319 319 318 319 319 318 319 319 319 318 320 320 320 319 319 316 317 317 316 316 315 317 317 317 317 321 321 321 321 320 322 322 321 322 322 321 322 322 322 322 319 319 319 317 318 320 321 321 321 321 320 320 319 320 318 319 319 319 318 319 321 322 322 321 322 318 319 318 319 319 317 317 317 317 317 317 319 318 318 318 316 317 317 317 316 321 318 319 318 321 319 319 319 319 316 322 322 322 322 322 322 321 322 322 322 317 317 320 318 317 317 317 317 317 317 320 320 320 320 322 319 319 318 319 319 319 319 317 318 319 322 322 322 322 319 319 320 317 320 320 319 319 319 318 318 319 319 319 319 318 318 322 321 321 320 321 321 320 320 321 320 320 320 320 320 320 319 320 320 320 320 319 320 320 320 320 319 319 318 320 320 320 320 320 320 318 322 318 318 318 321 320 321 322 322 320 320 320 319 317 320 322 320 319 319 320 320 319 319 320 320 320 320 320 320 320 320 318 320 320 320 322 320 320 319 322 321 322 322 322 320 320 317 320 320 320 320 320 320 320 318 318 317 318 318 317 318 318 318 318 320 320 320 319 320 320 320 320 318 320 322 323 323 321 323 322 322 322 323 323 323 323 323 323 323 320 320 320 320 319 321 321 319 321 321 323 323 322 322 323 319 319 320 319 320 320 320 323 320 321 322 323 323 323 323 322 322 320 321 322 319 320 319 320 320 320 318 320 320 320 321 322 321 320 322 322 323 323 323 323 321 322 321 323 323 318 318 318 318 318 323 323 319 322 323 320 320 320 320 320 321 321 322 322 322 320 322 322 320 319 322 322 322 322 321 319 320 320 320 320 320 323 323 323 323 317 320 320 320 320 320 320 320 320 320 321 322 322 322 321 319 319 320 320 320 320 320 320 319 320 320 320 319 319 319 320 320 320 319 319 320 320 320 320 319 319 320 320 319 320 320 322 320 320 320 320 320 320 320 319 320 320 322 320 320 320 322 322 320 321 320 320 320 319 320 321 319 319 320 319 323 322 322 323 323 320 319 319 320 320 320 320 319 320 320 322 322 317 321 322 321 320 322 320 322 321 323 322 321 323 319 320 319 320 320 321 320 320 320 320 322 321 322 321 321 320 320 320 320 320 320 319 319 320 320 320 320 319 320 320 321 323 322 323 323 320 320 320 320 320 320 322 322 320 322 322 322 320 321 320 323 321 323 322 323 320 319 319 320 320 321 320 321 321 321 320 319 320 320 320 320 318 319 320 320 320 319 320 320 320 321 321 321 321 323 323 322 323 323 322 320 321 322 322 322 318 321 318 318 318 321 321 321 321 323 320 320 319 320 320 323 323 323 323 323 317 318 318 321 321 324 324 324 324 324 319 320 319 319 320 320 319 320 319 320 320 320 320 320 318 321 320 321 321 321 318 320 320 320 319 320 320 320 321 321 321 318 318 318 318 319 318 320 320 320 322 323 323 323 321 323 323 322 323 322 320 320 320 320 320 319 320 320 320 319 320 318 318 318 318 320 321 321 320 321 320 320 320 319 318 322 322 322 322 322 318 318 318 318 318 321 320 320 320 320 323 323 323 322 323 319 319 320 320 318 320 318 320 320 319 319 320 320 320 319 323 322 323 321 322 320 320 320 319 320 409 410 408 407 408 320 320 319 320 319 320 320 320 319 320 320 320 322 320 320 322 320 322 321 321 321 321 321 320 320 321 322 322 320 322 320 321 320 321 321 320 319 320 320 318 320 320 320 320 319 320 320 321 320 320 321 321 321 321 321 320 320 320 320 322 319 318 319 316 320 318 317 317 320 318 322 322 322 322 322 322 319 320 320 320 323 323 321 322 323 323 322 323 323 323 320 319 320 320 320 320 317 318 320 320 323 321 322 322 322 324 322 324 324 324 321 321 321 321 321 320 319 320 320 320 323 323 323 322 323 320 321 321 321 321 320 320 320 320 320 320 320 319 319 320 321 320 321 321 321 318 322 318 322 318 320 319 320 320 320 320 319 319 320 320 320 320 320 320 320 321 322 321 322 322 321 321 320 320 321 321 321 322 321 321 321 322 321 319 321 323 323 323 322 321 323 324 324 323 324 320 320 320 320 320 319 320 323 320 320 321 320 321 321 321 319 320 320 320 318 320 318 319 319 319 321 321 320 321 321 320 319 319 319 320 321 319 321 319 321 320 320 319 321 321 320 319 319 319 320 322 322 322 322 321 320 320 320 319 320 320 320 320 320 320 320 320 320 320 318 322 322 322 322 320 323 322 323 322 323 322 322 321 322 322 320 320 320 320 319 321 320 321 321 321 321 321 320 320 321 321 320 319 320 320 320 317 320 320 318 321 322 321 322 322 323 323 323 322 323 320 320 320 320 319 321 321 321 321 321 317 321 316 318 318 321 321 321 321 321 321 320 321 321 321 319 319 320 319 320 321 320 319 321 321 318 320 318 320 320 323 322 321 323 323 318 318 320 318 317 321 321 321 321 321 319 320 317 320 320 322 322 320 321 320 321 320 320 320 319 320 320 318 320 319 322 321 322 322 322 321 320 320 321 321 320 320 319 320 320 321 321 321 321 320 321 322 322 322 321 320 320 320 320 320 321 321 321 321 321 320 320 320 320 320 321 321 321 321 321 322 321 320 322 321 323 323 321 323 322 321 322 322 322 322 322 321 322 322 321 320 320 320 318 321 320 320 320 320 320 320 320 320 320 320 321 321 321 318 320 321 321 321 320 321 321 321 321 318 321 321 321 321 321 321 322 320 322 320 322 321 321 321 320 321 320 321 320 320 320 320 321 319 319 321 321 321 321 320 321 319 320 319 319 320 321 321 320 321 321 323 320 318 320 319 320 320 320 320 319 320 318 318 321 320 321 320 322 322 322 320 320 320 319 320 321 320 321 321 321 321 320 320 320 320 322 322 322 322 322 320 320 323 320 317 319 321 321 322 321 321 321 321 321 321 322 321 321 322 321 321 322 322 322 322 320 324 320 324 321 322 322 322 321 322 322 322 322 322 321 319 320 319 320 319 322 320 320 320 320 321 321 321 321 320 320 321 321 321 321 320 320 320 320 318 320 320 320 320 320 319 321 321 321 321 320 320 320 320 320 320 319 320 320 318 322 322 321 322 321 324 321 323 324 321 319 320 320 319 320 321 320 320 320 320 321 321 321 320 321 321 320 321 319 321 321 321 321 320 321 318 320 320 319 320 320 318 320 320 318 320 320 319 319 319 323 324 323 324 324 320 320 321 321 320 319 320 320 319 319 321 321 320 321 321 320 320 320 319 319 322 321 322 322 322 322 321 321 319 321 324 324 323 324 322 321 321 319 321 321 321 322 321 322 321 320 321 319 321 320 320 316 319 320 319 321 321 320 321 321 320 321 321 321 321 322 322 321 322 322 321 320 320 321 321 321 321 321 321 321 321 321 321 321 319 321 321 321 321 320 322 322 323 323 322 321 320 320 320 320 320 316 321 320 321 320 321 321 321 321 321 321 322 322 322 322 321 322 322 322 321 321 320 320 321 321 324 321 320 324 321 321 321 321 320 321 321 321 321 321 322 322 321 322 322 321 320 321 320 320 321 321 321 321 321 319 317 320 320 319 321 321 321 321 320 320 321 320 319 321 322 320 322 322 322 321 321 321 320 321 322 322 322 322 322 321 321 321 321 320 321 320 320 320 321 321 321 321 319 319 321 321 320 321 321 321 321 321 323 322 321 321 321 321 322 321 321 321 319 321 321 321 321 321 321 323 323 322 323 323 322 322 321 322 322 321 320 321 321 321 320 321 321 321 320 321 322 320 322 322 322 321 321 321 320 321 319 321 321 319 322 321 322 322 321 321 320 321 321 322 318 318 318 318 317 322 321 322 322 320 321 321 319 321 321 322 322 322 322 321 321 321 322 320 321 321 321 321 322 321 322 322 322 322 321 322 321 321 322 322 322 322 323 322 323 321 319 321 320 320 321 322 322 322 320 322 320 320 322 320 321 321 320 321 322 318 320 320 320 320 321 321 320 320 324 322 322 321 322 322 322 322 321 322 321 321 322 322 322 322 321 320 321 321 321 323 320 322 323 323 322 323 322 321 322 320 323 323 323 323 321 321 321 321 321 321 320 321 321 321 319 321 320 320 320 321 321 321 319 321 321 321 321 321 321 322 322 322 322 322 321 321 319 321 320 320 320 320 320 320 321 322 319 321 322 321 321 322 318 321 322 322 321 322 319 321 322 322 321 322 321 321 321 321 320 322 322 322 322 322 321 320 321 321 321 320 319 320 320 320 319 320 320 321 321 321 321 322 322 322 319 320 320 320 320 321 321 321 321 318 322 322 322 321 322 321 321 321 321 321 322 322 322 322 322 321 322 322 322 322 320 321 321 321 321 322 322 322 322 321 321 321 321 320 321 321 321 320 321 321 322 321 322 322 321 321 320 321 321 320 322 321 322 322 322 321 321 321 320 321 322 320 321 321 321 320 321 321 321 321 322 322 321 322 322 322 322 320 321 321 320 322 322 322 322 320 321 321 321 321 320 319 320 320 320 320 322 322 321 322 322 322 321 322 322 321 321 321 321 321 322 320 321 321 321 322 322 322 322 322 319 321 319 321 321 409 409 409 409 408 322 321 322 322 322 321 320 320 321 321 321 322 323 322 321 321 321 320 321 321 320 321 321 320 321 321 320 320 319 321 322 322 322 322 322 320 321 321 321 321 320 322 321 321 321 322 322 321 322 322 321 322 322 321 322 321 321 321 322 321 322 322 321 322 322 322 322 322 322 322 322 322 321 322 321 321 322 321 321 321 320 320 320 320 319 320 321 320 321 320 322 322 321 322 321 321 319 321 321 321 322 321 322 322 322 321 322 322 322 322 322 322 322 322 322 321 321 319 321 321 321 321 320 321 321 321 321 321 319 321 320 320 321 321 321 322 322 322 322 317 320 321 321 321 321 322 322 322 322 322 321 320 322 322 322 321 320 322 322 321 320 321 321 321 321 321 320 320 321 321 322 322 321 321 321 322 321 321 322 320 322 322 321 321 322 320 320 320 318 319 319 322 321 322 321 322 322 322 322 322 321 318 324 323 321 322 321 322 321 322 319 322 321 321 322 319 320 321 321 321 322 322 322 322 322 321 321 322 322 322 321 321 322 321 320 321 319 321 320 320 320 321 319 320 321 320 322 322 321 321 321 322 320 322 322 321 322 322 322 322 322 321 321 322 322 320 321 321 320 321 322 321 322 322 321 321 321 321 321 321 321 321 321 321 321 322 322 322 322 322 321 322 321 322 322 321 321 321 321 321 322 322 322 322 320 320 322 322 322 322 322 320 321 322 321 322 321 322 322 322 321 322 322 322 322 320 322 321 321 320 321 321 321 321 321 321 320 321 321 322 321 321 322 322 322 322 322 321 322 321 322 320 321 322 321 320 321 321 321 320 321 321 320 321 318 320 320 321 320 321 322 322 319 322 321 322 322 322 322 322 322 321 321 321 322 321 321 321 321 321 321 322 321 321 321 322 321 322 322 320 321 322 322 322 322 321 321 320 320 320 321 322 322 322 322 321 322 321 320 321 322 322 321 321 322 320 321 321 321 318 322 322 322 322 322 320 321 321 321 320 321 320 321 321 321 321 321 321 321 321 321 321 319 321 321 322 321 322 322 321 323 321 321 321 323 321 319 321 320 321 322 322 322 322 322 322 321 322 322 322 322 322 322 322 322 322 320 321 322 322 321 321 321 320 321 321 322 322 322 322 322 322 320 322 322 321 321 321 320 321 320 321 320 320 323 321 321 320 321 322 321 322 322 322 321 322 321 321 321 322 322 322 320 320 322 321 321 321 321 321 320 321 321 321 321 320 321 320 320 322 321 321 321 321 321 323 322 322 322 322 321 321 321 320 321 321 321 321 321 322 322 322 322 322 322 319 321 321 321 321 322 321 322 322 322 322 322 322 322 321 322 322 322 321 322 409 414 410 408 410 322 323 322 323 323 322 322 321 321 322 322 322 322 321 322 321 321 319 321 321 322 322 322 322 322 321 321 321 321 320 322 322 322 321 322 321 322 321 321 320 411 410 412 411 411 322 322 322 321 322 321 320 320 321 321 321 320 321 321 321 320 320 321 321 320 322 322 321 322 322 410 411 410 412 411 321 320 322 321 321 320 322 320 322 322 319 321 321 321 321 321 321 321 321 321 320 321 319 320 320 321 321 321 323 320 321 322 322 322 322 321 321 321 322 321 322 321 321 321 321 321 321 321 320 321 322 322 322 322 321 322 323 321 321 321 321 321 320 322 320 322 320 322 322 321 322 322 322 322 320 322 323 322 323 320 322 322 321 322 322 322 322 321 322 322 321 320 321 321 321 324 323 324 324 322 320 320 321 320 321 321 321 321 321 320 321 322 322 322 322 320 322 322 322 322 322 322 321 322 321 321 321 321 321 321 321 321 320 321 321 321 321 321 320 321 321 321 320 321 320 321 321 321 321 321 323 321 322 320 320 321 319 322 322 322 321 319 321 321 321 320 321 321 318 321 319 322 322 322 321 320 321 320 321 321 320 321 321 321 321 321 321 321 321 321 321 321 321 318 321 321 319 321 320 321 319 321 322 322 322 321 320 320 321 321 322 322 321 322 322 320 321 321 321 321 322 321 321 321 321 322 322 322 322 322 322 321 322 322 322 321 321 321 321 321 320 321 321 321 320 321 321 321 321 320 411 413 322 411 413 322 322 322 322 322 321 320 321 321 321 321 321 321 321 321 322 321 321 321 321 321 321 321 321 321 322 322 321 322 321 322 321 321 322 321 322 321 322 322 322 319 320 321 321 320 320 322 322 322 322 321 321 321 319 321 322 322 322 321 321 321 320 320 321 321 322 322 322 320 322 322 322 322 322 322 322 322 322 321 319 320 322 321 322 321 322 322 322 322 322 322 321 320 322 321 320 322 321 320 319 319 321 321 321 321 321 322 320 322 322 321 322 322 321 320 322 320 321 322 322 321 320 321 321 321 322 322 322 321 322 322 322 322 322 322 321 321 321 319 320 322 321 321 322 322 321 321 321 321 321 322 322 322 322 321 321 323 320 321 321 321 322 321 321 321 322 321 321 321 321 322 321 321 322 320 322 322 319 322 322 322 322 322 322 322 322 321 321 322 322 321 320 321 321 320 322 322 321 322 321 321 322 322 322 321 322 322 322 322 321 322 319 322 322 322 322 322 321 322 322 322 322 320 322 322 321 321 321 321 320 321 321 321 321 321 322 321 321 321 321 322 322 322 321 322 322 322 322 322 322 322 322 321 322 322 321 321 320 321 321 321 321 321 320 321 321 322 322 322 322 320 320 321 321 321 319 322 322 322 322 322 322 321 322 322 322 322 322 322 319 322 322 322 321 321 321 320 321 321 321 321 322 322 321 320 322 321 322 322 322 321 321 321 321 320 321 321 321 321 321 321 322 322 322 320 321 321 320 321 321 322 320 322 322 322 321 321 321 320 321 321 321 322 322 320 322 322 322 322 322 321 322 321 322 322 321 322 322 322 322 322 321 322 322 322 322 322 321 322 322 320 321 320 321 321 321 319 321 321 321 321 322 321 321 321 322 322 322 322 322 321 321 321 321 320 322 322 321 321 322 322 320 322 321 322 321 320 319 320 321 322 322 322 321 320 322 321 322 322 322 321 321 320 320 321 320 321 321 320 321 322 321 321 321 322 322 322 322 322 322 323 321 323 323 323 321 321 318 320 321 321 321 321 321 321 322 322 322 322 321 322 322 321 322 322 320 321 321 321 321 321 320 320 322 320 321 321 321 320 323 321 321 321 321 320 320 320 321 321 321 322 322 322 322 322 322 322 322 322 322 322 322 321 322 322 322 320 322 322 322 322 320 319 321 319 321 320 320 321 321 322 321 321 322 322 321 321 318 321 321 321 322 322 322 322 320 322 322 322 322 321 321 321 320 321 323 322 323 323 323 321 320 320 322 321 322 322 322 320 322 322 322 322 322 322 322 322 322 321 322 321 320 322 321 321 320 322 322 322 320 320 320 320 321 321 321 321 323 321 320 322 321 322 320 322 323 321 320 321 321 321 322 322 322 322 321 321 320 321 321 321 320 321 321 320 319 320 321 321 320 320 320 321 321 322 321 322 322 322 321 321 320 321 320 321 318 321 321 321 321 322 322 322 322 322 320 321 320 321 321 322 321 322 322 323 320 321 321 321 321 321 319 321 321 321 321 321 321 321 321 321 321 321 321 321 320 320 321 321 321 324 321 321 319 320 321 320 321 321 321 322 320 320 321 322 322 322 322 322 322 322 322 322 322 321 321 321 321 321 321 321 321 321 321 321 322 322 321 321 322 322 322 320 322 322 321 321 320 321 321 322 322 322 322 322 323 323 323 321 322 322 321 322 322 322 322 322 322 320 322 321 320 321 321 321 321 322 321 320 321 322 322 322 322 321 322 322 322 322 321 322 322 322 321 322 321 321 320 322 321 321 320 321 321 321 321 320 320 319 321 321 321 321 322 319 322 321 320 321 322 320 321 321 321 321 322 322 321 322 322 321 322 322 322 322 321 321 321 321 321 322 322 322 322 322 321 321 321 321 321 322 322 321 322 321 321 322 320 322 321 320 321 319 321 321 321 320 322 321 318 320 322 320 322 322 321 321 322 321 322 322 321 322 322 321 322 322 322 320 322 321 321 321 321 321 320 321 322 322 321 322 322 322 322 322 321 320 321 320 321 318 320 321 321 321 322 322 321 321 321 321 321 320 321 321 322 321 322 322 321 321 321 321 319 321 321 320 321 320 321 322 322 322 322 322 321 321 318 320 321 321 321 321 321 321 321 321 319 321 321 321 322 321 322 322 322 321 321 321 321 321 321 320 320 321 321 322 321 321 322 321 321 322 322 321 320 322 322 322 322 321 321 320 321 320 322 322 322 321 322 324 324 324 323 324 321 321 321 321 321 322 322 322 322 320 321 321 319 321 322 320 321 321 321 320 321 321 320 321 321 322 322 321 321 322 322 322 322 322 322 321 322 322 322 322 321 322 322 322 321 320 322 321 322 322 321 321 320 322 320 321 322 321 320 322 322 322 321 322 322 322 321 322 322 321 320 321 321 321 321 321 321 320 321 320 322 321 322 322 322 322 322 322 322 322 322 322 320 322 322 322 322 322 322 322 322 321 322 322 322 320 322 321 319 320 321 321 321 320 320 321 322 321 322 323 321 321 321 321 321 321 322 322 322 320 321 321 321 321 321 322 321 322 322 321 321 321 320 321 322 321 321 321 321 320 321 322 321 321 321 322 320 321 322 321 321 320 321 321 320 321 321 321 321 321 321 320 321 321 321 321 321 321 320 321 320 321 321 321 321 321 321 320 321 321 321 322 319 319 322 322 317 321 321 321 322 321 321 321 321 322 322 322 322 321 322 322 322 322 322 320 321 321 320 320 322 322 322 322 322 321 322 322 322 322 321 322 322 322 322 322 321 322 320 322 321 319 320 320 321 321 322 322 322 322 321 321 321 321 319 321 321 322 320 322 322 322 322 322 322 322 322 320 322 320 322 322 322 322 322 321 322 322 322 322 322 321 322 322 321 322 322 322 322 322 322 322 322 322 322 320 321 320 320 321 321 322 321 321 322 321 321 321 320 321 321 321 321 319 321 321 320 322 322 323 322 322 321 322 322 322 322 322 322 322 321 321 321 321 321 322 322 322 322 322 322 322 319 322 321 322 320 322 322 320 320 320 321 321 321 322 322 322 322 322 321 322 322 322 322 322 320 322 322 320 322 321 322 322 322 321 321 321 321 321 321 320 321 321 321 322 322 322 322 322 321 322 322 322 322 321 322 322 322 321 322 322 322 321 322 322 321 321 321 322 322 322 323 322 320 320 321 322 322 321 322 320 322 322 322 320 322 322 322 320 321 321 320 321 320 321 321 321 321 321 321 321 320 321 321 321 321 320 321 321 321 321 321 321 319 322 322 321 321 322 322 321 322 322 321 322 322 322 321 322 321 321 321 320 322 319 320 320 321 322 321 320 321 321 321 322 322 322 321 322 322 322 322 320 322 322 322 321 322 322 320 322 321 321 321 322 322 322 322 320 320 322 321 321 322 321 322 322 322 321 321 320 321 321 321 322 321 322 320 320 322 320 322 322 321 321 321 319 321 320 321 322 322 322 322 321 322 321 322 321 322 321 321 321 321 321 321 321 321 320 322 322 322 322 322 321 321 321 321 320 321 322 321 322 322 321 322 322 321 321 321 320 322 322 322 321 321 321 322 322 322 322 321 321 322 321 321 321 321 321 321 321 321 320 321 322 322 322 321 323 321 321 321 321 321 322 322 322 321 322 321 321 321 321 320 322 321 322 322 322 321 321 321 322 321 320 321 321 321 321 320 321 322 321 321 321 321 321 321 321 321 322 321 321 320 320 321 320 321 321 320 321 320 320 321 322 322 322 322 322 322 322 322 321 322 320 321 322 320 321 321 321 321 319 321 322 322 322 322 321 319 320 321 321 321 322 322 322 322 322 321 320 322 322 322 320 321 322 320 321 322 322 322 322 322 322 322 322 322 321 322 322 322 322 322 321 322 321 322 322 322 321 321 322 321 321 320 319 320 321 321 322 322 320 322 321 321 321 320 321 322 321 321 321 320 322 321 322 321 322 320 321 321 321 321 321 324 323 324 324 322 322 322 321 322 321 322 322 322 321 322 322 322 321 322 322 322 322 322 322 320 319 321 320 321 321 321 319 321 321 321 321 320 321 321 322 321 322 322 322 322 322 322 322 322 321 321 321 321 320 322 322 322 322 322 322 318 322 322 322 321 320 321 321 321 321 321 320 321 321 322 322 322 322 322 321 321 321 321 321 321 321 321 321 321 322 322 321 322 322 321 321 321 322 321 322 322 322 321 322 322 321 322 322 321 321 321 321 320 320 322 322 322 321 322 320 323 321 321 321 321 321 321 321 321 322 322 322 322 321 321 321 322 321 322 321 321 322 322 322 321 323 321 321 321 323 323 323 323 323 321 320 323 323 320 322 322 322 322 320 321 321 320 320 321 322 322 321 322 321 322 322 322 321 322 322 321 322 322 321 322 322 321 322 322 322 322 322 322 322 321 321 320 320 320 320 321 321 323 321 318 321 320 320 321 320 321 321 321 322 322 320 320 322 322 321 320 320 319 321 322 323 321 321 322 321 321 321 321 319 322 322 320 322 322 320 321 321 321 321 321 321 320 322 322 320 321 319 321 321 322 321 321 322 322 322 321 322 321 319 320 321 319 322 321 320 321 320 321 321 322 322 322 322 322 322 322 321 322 321 322 322 322 322 321 324 324 324 323 324 321 321 321 320 320 322 322 322 321 322 320 321 321 321 320 322 323 322 322 322 319 320 321 321 321 323 323 321 321 318 320 321 321 321 319 324 324 321 321 320 322 322 322 321 320 322 322 321 322 322 321 320 319 321 321 322 322 322 323 322 321 321 320 321 321 320 321 319 320 321 322 322 322 321 322 321 321 321 319 321 321 321 321 319 321 321 321 321 320 321 322 321 322 322 319 323 321 323 321 322 322 322 322 321 320 320 321 320 320 321 322 322 321 322 322 321 321 321 319 321 322 321 321 320 322 322 321 319 322 322 321 321 320 321 321 320 321 321 321 322 321 321 320 320 320 321 320 321 321 321 322 321 321 322 322 320 322 321 322 322 322 323 322 321 322 321 322 321 322 322 321 321 320 321 321 319 322 322 322 322 321 322 322 322 321 322 322 322 322 322 322 322 322 321 322 322 322 322 322 322 321 320 321 320 321 321 320 321 321 321 321 321 321 321 320 321 322 322 322 319 322 322 322 322 322 319 320 320 321 321 321 321 320 320 323 324 322 322 322 322 321 321 320 321 321 322 322 322 321 322 323 323 321 323 320 321 321 321 321 320 321 321 321 321 321 322 322 321 322 321 323 321 321 321 320 323 324 324 323 323 322 322 321 322 321 321 321 321 321 321 321 321 321 321 320 320 320 321 320 321 322 322 320 321 321 321 321 323 321 321 320 320 321 321 320 321 321 321 319 322 321 321 323 320 321 322 322 322 322 322 321 321 322 321 321 322 322 320 321 322 321 319 320 322 321 322 322 322 322 322 322 322 322 323 322 321 321 321 321 321 321 322 322 322 322 322 322 322 322 322 320 320 321 320 322 321 321 322 321 321 322 322 321 322 322 321 321 321 320 321 322 323 321 322 322 322 322 322 320 319 322 322 322 322 321 322 321 322 321 320 321 321 323 323 322 322 320 321 320 322 321 319 320 321 321 320 321 321 321 319 322 322 321 322 322 320 321 320 321 323 321 322 322 321 322 322 321 320 321 321 322 321 321 321 320 322 322 322 322 322 321 321 321 321 321 321 321 320 320 319 322 322 322 322 322 321 321 321 321 320 321 321 320 319 321 320 321 320 321 321 321 320 321 322 321 323 321 321 321 323 321 319 321 319 322 321 321 322 320 321 321 320 321 319 322 321 321 321 321 321 322 319 322 322 321 322 322 322 322 322 321 321 321 321 321 322 322 321 322 321 323 321 323 323 323 322 322 322 322 322 320 321 321 323 321 322 322 322 322 321 321 322 322 322 322 324 322 321 324 322 319 321 320 321 318 320 321 322 322 322 323 322 322 322 322 322 322 322 322 322 321 323 319 321 321 322 322 322 322 322 322 322 322 322 322 322 322 322 322 322 321 321 322 322 322 322 322 321 322 322 322 322 322 322 322 321 321 323 320 323 321 322 322 321 322 322 322 322 321 322 321 320 321 321 321 321 322 322 322 323 321 320 321 320 321 322 322 322 321 320 321 322 321 322 320 321 322 322 322 322 322 322 321 321 321 322 322 321 322 322 322 322 321 321 322 322 322 322 321 320 321 321 320 321 321 322 322 322 322 322 321 320 320 320 320 321 321 319 323 321 321 321 321 321 322 322 321 322 322 322 321 319 321 321 321 322 322 323 322 322 322 321 322 322 322 319 321 321 322 321 322 321 322 322 322 322 321 322 322 321 321 321 321 321 320 321 322 322 321 322 321 322 320 321 321 321 322 321 322 322 321 321 321 321 319 322 322 321 322 323 321 321 321 322 321 322 322 321 321 322 322 321 322 322 322 322 321 322 322 322 322 322 322 322 322 322 321 322 322 322 321 320 321 321 320 321 320 320 321 321 322 322 322 322 322 323 323 322 323 323 322 322 322 322 322 322 322 322 322 320 322 322 322 321 321 321 321 321 321 321 321 321 321 321 321 321 322 322 322 322 321 321 320 321 320 322 322 322 321 322 320 321 321 320 321 321 321 322 322 321 321 322 322 320 322 321 322 322 322 322 322 322 322 322 322 322 322 322 321 322 322 321 322 322 322 320 321 321 320 321 322 322 322 322 322 321 320 321 321 320 320 321 321 321 321 322 322 322 322 322 322 320 321 322 322 322 321 321 322 321 322 322 322 321 322 321 320 320 321 321 322 321 322 322 321 322 322 322 322 322 320 321 321 321 321 322 322 322 322 322 322 322 322 322 321 322 322 322 322 322 321 319 323 322 322 321 320 321 321 321 321 322 322 322 322 320 321 321 320 319 321 321 321 321 319 321 321 321 321 323 322 322 323 322 321 320 321 323 321 320 321 319 319 320 321 322 322 320 322 322 318 321 321 321 321 321 322 323 322 322 321 321 321 322 322 322 322 321 322 321 322 322 322 321 321 322 322 321 322 321 321 321 319 321 321 322 322 322 321 322 321 322 322 322 322 321 321 321 321 321 322 321 322 322 322 321 321 320 321 320 322 321 322 322 322 322 322 321 322 322 321 322 322 320 322 322 322 322 321 321 321 322 320 321 321 322 322 321 322 322 322 321 322 322 322 322 322 322 322 322

Tree=0
num_leaves=2
num_cat=0
split_feature=9
split_gain=2.52291
threshold=0.262726813285248
decision_type=2
left_child=-1
right_child=-2
leaf_value=0.33103357590308119 0.33148248895240312
leaf_weight=31 21
leaf_count=31 21
internal_value=0.331236
internal_weight=0
internal_count=52
is_linear=0
shrinkage=1


Tree=1
num_leaves=2
num_cat=0
split_feature=9
split_gain=2.51787
threshold=0.262726813285248
decision_type=2
left_child=-1
right_child=-2
leaf_value=-0.00020262397403618502 0.00024584015565259118
leaf_weight=31 21
leaf_count=31 21
internal_value=0
internal_weight=0
internal_count=52
is_linear=0
shrinkage=0.001


Tree=2
num_leaves=2
num_cat=0
split_feature=0
split_gain=2.41987
threshold=-0.22022987763178914
decision_type=2
left_child=-1
right_child=-2
leaf_value=-0.00021360617233761426 0.00022073903416647858
leaf_weight=29 23
leaf_count=29 23
internal_value=0
internal_weight=0
internal_count=52
is_linear=0
shrinkage=0.001


Tree=3
num_leaves=2
num_cat=0
split_feature=9
split_gain=2.50828
threshold=0.262726813285248
decision_type=2
left_child=-1
right_child=-2
leaf_value=-0.00020223576378738207 0.00024537358450747672
leaf_weight=31 21
leaf_count=31 21
internal_value=0
internal_weight=0
internal_count=52
is_linear=0
shrinkage=0.001


Tree=4
num_leaves=2
num_cat=0
split_feature=9
split_gain=2.50327
threshold=0.262726813285248
decision_type=2
left_child=-1
right_child=-2
leaf_value=-0.00020203353156666122 0.00024512820282862299
leaf_weight=31 21
leaf_count=31 21
internal_value=0
internal_weight=0
internal_count=52
is_linear=0
shrinkage=0.001


Tree=5
num_leaves=2
num_cat=0
split_feature=9
split_gain=2.79508
threshold=0.262726813285248
decision_type=2
left_child=-1
right_child=-2
leaf_value=-0.00020590112451463938 0.00025112350228364058
leaf_weight=32 23
leaf_count=32 23
internal_value=0
internal_weight=0
internal_count=55
is_linear=0
shrinkage=0.001


Tree=6
num_leaves=2
num_cat=0
split_feature=9
split_gain=2.78949
threshold=0.262726813285248
decision_type=2
left_child=-1
right_child=-2
leaf_value=-0.00020569522678852081 0.00025087238005969836
leaf_weight=32 23
leaf_count=32 23
internal_value=0
internal_weight=0
internal_count=55
is_linear=0
shrinkage=0.001


Tree=7
num_leaves=2
num_cat=0
split_feature=0
split_gain=2.5612
threshold=-0.22022987763178914
decision_type=2
left_child=-1
right_child=-2
leaf_value=-0.00021174467454353969 0.0002216387937963009
leaf_weight=30 25
leaf_count=30 25
internal_value=0
internal_weight=0
internal_count=55
is_linear=0
shrinkage=0.001


Tree=8
num_leaves=2
num_cat=0
split_feature=9
split_gain=2.77896
threshold=0.262726813285248
decision_type=2
left_child=-1
right_child=-2
leaf_value=-0.00020530487224459649 0.00025039986893534664
leaf_weight=32 23
leaf_count=32 23
internal_value=0
internal_weight=0
internal_count=55
is_linear=0
shrinkage=0.001


Tree=9
num_leaves=2
num_cat=0
split_feature=9
split_gain=2.7734
threshold=0.262726813285248
decision_type=2
left_child=-1
right_child=-2
leaf_value=-0.0002050995663739741 0.00025014946982264522
leaf_weight=32 23
leaf_count=32 23
internal_value=0
internal_weight=0
internal_count=55
is_linear=0
shrinkage=0.001


Tree=10
num_leaves=2
num_cat=0
split_feature=9
split_gain=2.65524
threshold=0.262726813285248
decision_type=2
left_child=-1
right_child=-2
leaf_value=-0.00018366943957904975 0.00027371525561267681
leaf_weight=30 22
leaf_count=30 22
internal_value=0
internal_weight=0
internal_count=52
is_linear=0
shrinkage=0.001


Tree=11
num_leaves=2
num_cat=0
split_feature=9
split_gain=2.64993
threshold=0.262726813285248
decision_type=2
left_child=-1
right_child=-2
leaf_value=-0.00018348577191742757 0.00027344154452227734
leaf_weight=30 22
leaf_count=30 22
internal_value=0
internal_weight=0
internal_count=52
is_linear=0
shrinkage=0.001


Tree=12
num_leaves=2
num_cat=0
split_feature=9
split_gain=2.64464
threshold=0.262726813285248
decision_type=2
left_child=-1
right_child=-2
leaf_value=-0.00018330228744695585 0.00027316809847781603
leaf_weight=30 22
leaf_count=30 22
internal_value=0
internal_weight=0
internal_count=52
is_linear=0
shrinkage=0.001


Tree=13
num_leaves=2
num_cat=0
split_feature=9
split_gain=2.63935
threshold=0.262726813285248
decision_type=2
left_child=-1
right_child=-2
leaf_value=-0.00018311898169728617 0.00027289493039081043
leaf_weight=30 22
leaf_count=30 22
internal_value=0
internal_weight=0
internal_count=52
is_linear=0
shrinkage=0.001


Tree=14
num_leaves=2
num_cat=0
split_feature=9
split_gain=2.63407
threshold=0.262726813285248
decision_type=2
left_child=-1
right_child=-2
leaf_value=-0.0001829358613739411 0.00027262204004959627
leaf_weight=30 22
leaf_count=30 22
internal_value=0
internal_weight=0
internal_count=52
is_linear=0
shrinkage=0.001


Tree=15
num_leaves=2
num_cat=0
split_feature=9
split_gain=2.64792
threshold=0.40300075491649395
decision_type=2
left_child=-1
right_child=-2
leaf_value=-0.00016565823862611345 0.00029546679845079781
leaf_weight=33 20
leaf_count=33 20
internal_value=0
internal_weight=0
internal_count=53
is_linear=0
shrinkage=0.001


Tree=16
num_leaves=2
num_cat=0
split_feature=9
split_gain=2.64263
threshold=0.40300075491649395
decision_type=2
left_child=-1
right_child=-2
leaf_value=-0.0001654925813446894 0.00029517133682966236
leaf_weight=33 20
leaf_count=33 20
internal_value=0
internal_weight=0
internal_count=53
is_linear=0
shrinkage=0.001


Tree=17
num_leaves=2
num_cat=0
split_feature=9
split_gain=2.63735
threshold=0.40300075491649395
decision_type=2
left_child=-1
right_child=-2
leaf_value=-0.00016532708897791577 0.00029487616838887333
leaf_weight=33 20
leaf_count=33 20
internal_value=0
internal_weight=0
internal_count=53
is_linear=0
shrinkage=0.001


Tree=18
num_leaves=2
num_cat=0
split_feature=9
split_gain=2.63208
threshold=0.40300075491649395
decision_type=2
left_child=-1
right_child=-2
leaf_value=-0.00016516176162456925 0.00029458129107952119
leaf_weight=33 20
leaf_count=33 20
internal_value=0
internal_weight=0
internal_count=53
is_linear=0
shrinkage=0.001


Tree=19
num_leaves=2
num_cat=0
split_feature=9
split_gain=2.62681
threshold=0.40300075491649395
decision_type=2
left_child=-1
right_child=-2
leaf_value=-0.00016499659788766593 0.00029428670853376388
leaf_weight=33 20
leaf_count=33 20
internal_value=0
internal_weight=0
internal_count=53
is_linear=0
shrinkage=0.001


Tree=20
num_leaves=2
num_cat=0
split_feature=9
split_gain=2.35619
threshold=1.0000000180025095e-35
decision_type=2
left_child=-1
right_child=-2
leaf_value=-0.00020562988409289607 0.00023523994905620135
leaf_weight=27 22
leaf_count=27 22
internal_value=0
internal_weight=0
internal_count=49
is_linear=0
shrinkage=0.001


Tree=21
num_leaves=2
num_cat=0
split_feature=9
split_gain=2.35148
threshold=1.0000000180025095e-35
decision_type=2
left_child=-1
right_child=-2
leaf_value=-0.00020542425717468615 0.00023500471276400442
leaf_weight=27 22
leaf_count=27 22
internal_value=0
internal_weight=0
internal_count=49
is_linear=0
shrinkage=0.001


Tree=22
num_leaves=2
num_cat=0
split_feature=9
split_gain=2.34678
threshold=1.0000000180025095e-35
decision_type=2
left_child=-1
right_child=-2
leaf_value=-0.00020521883169809978 0.00023476970629681917
leaf_weight=27 22
leaf_count=27 22
internal_value=0
internal_weight=0
internal_count=49
is_linear=0
shrinkage=0.001


Tree=23
num_leaves=2
num_cat=0
split_feature=9
split_gain=2.34209
threshold=1.0000000180025095e-35
decision_type=2
left_child=-1
right_child=-2
leaf_value=-0.0002050136129061381 0.0002345349414655092
leaf_weight=27 22
leaf_count=27 22
internal_value=0
internal_weight=0
internal_count=49
is_linear=0
shrinkage=0.001


Tree=24
num_leaves=2
num_cat=0
split_feature=9
split_gain=2.33741
threshold=1.0000000180025095e-35
decision_type=2
left_child=-1
right_child=-2
leaf_value=-0.00020480860079880115 0.00023430040032094854
leaf_weight=27 22
leaf_count=27 22
internal_value=0
internal_weight=0
internal_count=49
is_linear=0
shrinkage=0.001


Tree=25
num_leaves=2
num_cat=0
split_feature=9
split_gain=2.19163
threshold=0.40300075491649395
decision_type=2
left_child=-1
right_child=-2
leaf_value=-0.00015245359990124902 0.00026308728153394027
leaf_weight=30 22
leaf_count=30 22
internal_value=0
internal_weight=0
internal_count=52
is_linear=0
shrinkage=0.001


Tree=26
num_leaves=2
num_cat=0
split_feature=9
split_gain=2.18742
threshold=0.262726813285248
decision_type=2
left_child=-1
right_child=-2
leaf_value=-0.00017402820854827208 0.00023647438596934082
leaf_weight=27 25
leaf_count=27 25
internal_value=0
internal_weight=0
internal_count=52
is_linear=0
shrinkage=0.001


Tree=27
num_leaves=2
num_cat=0
split_feature=0
split_gain=2.0043
threshold=-0.22022987763178914
decision_type=2
left_child=-1
right_child=-2
leaf_value=-0.00019714696834916654 0.00019814707574852068
leaf_weight=23 29
leaf_count=23 29
internal_value=0
internal_weight=0
internal_count=52
is_linear=0
shrinkage=0.001


Tree=28
num_leaves=2
num_cat=0
split_feature=9
split_gain=2.18017
threshold=0.40300075491649395
decision_type=2
left_child=-1
right_child=-2
leaf_value=-0.0001520632587838918 0.00026238957631655711
leaf_weight=30 22
leaf_count=30 22
internal_value=0
internal_weight=0
internal_count=52
is_linear=0
shrinkage=0.001


Tree=29
num_leaves=2
num_cat=0
split_feature=9
split_gain=2.17581
threshold=0.40300075491649395
decision_type=2
left_child=-1
right_child=-2
leaf_value=-0.0001519111920458575 0.00026212718507105654
leaf_weight=30 22
leaf_count=30 22
internal_value=0
internal_weight=0
internal_count=52
is_linear=0
shrinkage=0.001


Tree=30
num_leaves=2
num_cat=0
split_feature=9
split_gain=2.38338
threshold=0.262726813285248
decision_type=2
left_child=-1
right_child=-2
leaf_value=-0.00018788376964371781 0.00024860317200760951
leaf_weight=29 22
leaf_count=29 22
internal_value=0
internal_weight=0
internal_count=51
is_linear=0
shrinkage=0.001


Tree=31
num_leaves=2
num_cat=0
split_feature=9
split_gain=2.37861
threshold=0.262726813285248
decision_type=2
left_child=-1
right_child=-2
leaf_value=-0.00018769588244372401 0.00024835456746884367
leaf_weight=29 22
leaf_count=29 22
internal_value=0
internal_weight=0
internal_count=51
is_linear=0
shrinkage=0.001


Tree=32
num_leaves=2
num_cat=0
split_feature=9
split_gain=2.37386
threshold=0.262726813285248
decision_type=2
left_child=-1
right_child=-2
leaf_value=-0.00018750818690349316 0.00024810621387917885
leaf_weight=29 22
leaf_count=29 22
internal_value=0
internal_weight=0
internal_count=51
is_linear=0
shrinkage=0.001


Tree=33
num_leaves=2
num_cat=0
split_feature=9
split_gain=2.36911
threshold=0.262726813285248
decision_type=2
left_child=-1
right_child=-2
leaf_value=-0.00018732067634319438 0.0002478581117466092
leaf_weight=29 22
leaf_count=29 22
internal_value=0
internal_weight=0
internal_count=51
is_linear=0
shrinkage=0.001


Tree=34
num_leaves=2
num_cat=0
split_feature=9
split_gain=2.36438
threshold=0.262726813285248
decision_type=2
left_child=-1
right_child=-2
leaf_value=-0.00018713336258098997 0.00024761024921793827
leaf_weight=29 22
leaf_count=29 22
internal_value=0
internal_weight=0
internal_count=51
is_linear=0
shrinkage=0.001


Tree=35
num_leaves=2
num_cat=0
split_feature=9
split_gain=2.6832
threshold=0.48737736267028769
decision_type=2
left_child=-1
right_child=-2
leaf_value=-0.00016082246211756554 0.00029833226967602967
leaf_weight=35 20
leaf_count=35 20
internal_value=0
internal_weight=0
internal_count=55
is_linear=0
shrinkage=0.001


Tree=36
num_leaves=2
num_cat=0
split_feature=9
split_gain=2.67784
threshold=0.48737736267028769
decision_type=2
left_child=-1
right_child=-2
leaf_value=-0.00016066164202722054 0.00029803393185138703
leaf_weight=35 20
leaf_count=35 20
internal_value=0
internal_weight=0
internal_count=55
is_linear=0
shrinkage=0.001


Tree=37
num_leaves=2
num_cat=0
split_feature=9
split_gain=2.67249
threshold=0.48737736267028769
decision_type=2
left_child=-1
right_child=-2
leaf_value=-0.00016050098010205797 0.00029773590136319403
leaf_weight=35 20
leaf_count=35 20
internal_value=0
internal_weight=0
internal_count=55
is_linear=0
shrinkage=0.001


Tree=38
num_leaves=2
num_cat=0
split_feature=9
split_gain=2.66714
threshold=0.48737736267028769
decision_type=2
left_child=-1
right_child=-2
leaf_value=-0.00016034047795193538 0.00029743816554546353
leaf_weight=35 20
leaf_count=35 20
internal_value=0
internal_weight=0
internal_count=55
is_linear=0
shrinkage=0.001


Tree=39
num_leaves=2
num_cat=0
split_feature=9
split_gain=2.66181
threshold=0.48737736267028769
decision_type=2
left_child=-1
right_child=-2
leaf_value=-0.00016018014016694256 0.00029714072179049255
leaf_weight=35 20
leaf_count=35 20
internal_value=0
internal_weight=0
internal_count=55
is_linear=0
shrinkage=0.001


Tree=40
num_leaves=2
num_cat=0
split_feature=9
split_gain=2.33332
threshold=0.40300075491649395
decision_type=2
left_child=-1
right_child=-2
leaf_value=-0.00017196261864437751 0.00026090314760804178
leaf_weight=33 20
leaf_count=33 20
internal_value=0
internal_weight=0
internal_count=53
is_linear=0
shrinkage=0.001


Tree=41
num_leaves=2
num_cat=0
split_feature=9
split_gain=2.32866
threshold=0.40300075491649395
decision_type=2
left_child=-1
right_child=-2
leaf_value=-0.00017179065632323424 0.00026064224988222125
leaf_weight=33 20
leaf_count=33 20
internal_value=0
internal_weight=0
internal_count=53
is_linear=0
shrinkage=0.001


Tree=42
num_leaves=2
num_cat=0
split_feature=9
split_gain=2.324
threshold=0.40300075491649395
decision_type=2
left_child=-1
right_child=-2
leaf_value=-0.00017161886566883009 0.00026038160501047972
leaf_weight=33 20
leaf_count=33 20
internal_value=0
internal_weight=0
internal_count=53
is_linear=0
shrinkage=0.001


Tree=43
num_leaves=2
num_cat=0
split_feature=9
split_gain=2.31936
threshold=0.40300075491649395
decision_type=2
left_child=-1
right_child=-2
leaf_value=-0.00017144724481146445 0.00026012122035026553
leaf_weight=33 20
leaf_count=33 20
internal_value=0
internal_weight=0
internal_count=53
is_linear=0
shrinkage=0.001


Tree=44
num_leaves=2
num_cat=0
split_feature=0
split_gain=2.12002
threshold=-0.22022987763178914
decision_type=2
left_child=-1
right_child=-2
leaf_value=-0.0001975656660007579 0.00020307837349362672
leaf_weight=28 25
leaf_count=28 25
internal_value=0
internal_weight=0
internal_count=53
is_linear=0
shrinkage=0.001


Tree=45
num_leaves=2
num_cat=0
split_feature=9
split_gain=2.32534
threshold=0.262726813285248
decision_type=2
left_child=-1
right_child=-2
leaf_value=-0.00018783253778903081 0.00024661597656086087
leaf_weight=28 22
leaf_count=28 22
internal_value=0
internal_weight=0
internal_count=50
is_linear=0
shrinkage=0.001


Tree=46
num_leaves=2
num_cat=0
split_feature=9
split_gain=2.3207
threshold=0.262726813285248
decision_type=2
left_child=-1
right_child=-2
leaf_value=-0.00018764470720530622 0.00024636936589906162
leaf_weight=28 22
leaf_count=28 22
internal_value=0
internal_weight=0
internal_count=50
is_linear=0
shrinkage=0.001


Tree=47
num_leaves=2
num_cat=0
split_feature=9
split_gain=2.31606
threshold=0.262726813285248
decision_type=2
left_child=-1
right_child=-2
leaf_value=-0.000187457061605528 0.00024612299674613912
leaf_weight=28 22
leaf_count=28 22
internal_value=0
internal_weight=0
internal_count=50
is_linear=0
shrinkage=0.001


Tree=48
num_leaves=2
num_cat=0
split_feature=9
split_gain=2.31143
threshold=0.262726813285248
decision_type=2
left_child=-1
right_child=-2
leaf_value=-0.00018726960498107863 0.00024587687223472381
leaf_weight=28 22
leaf_count=28 22
internal_value=0
internal_weight=0
internal_count=50
is_linear=0
shrinkage=0.001


Tree=49
num_leaves=2
num_cat=0
split_feature=9
split_gain=2.30681
threshold=0.262726813285248
decision_type=2
left_child=-1
right_child=-2
leaf_value=-0.00018708233679145842 0.00024563099930740217
leaf_weight=28 22
leaf_count=28 22
internal_value=0
internal_weight=0
internal_count=50
is_linear=0
shrinkage=0.001


Tree=50
num_leaves=2
num_cat=0
split_feature=9
split_gain=2.84741
threshold=0.48737736267028769
decision_type=2
left_child=-1
right_child=-2
leaf_value=-0.00015949757594738484 0.00030221167901022867
leaf_weight=34 22
leaf_count=34 22
internal_value=0
internal_weight=0
internal_count=56
is_linear=0
shrinkage=0.001


Tree=51
num_leaves=2
num_cat=0
split_feature=9
split_gain=2.84172
threshold=0.48737736267028769
decision_type=2
left_child=-1
right_child=-2
leaf_value=-0.00015933807884164922 0.0003019094644961032
leaf_weight=34 22
leaf_count=34 22
internal_value=0
internal_weight=0
internal_count=56
is_linear=0
shrinkage=0.001


Tree=52
num_leaves=2
num_cat=0
split_feature=9
split_gain=2.83604
threshold=0.48737736267028769
decision_type=2
left_child=-1
right_child=-2
leaf_value=-0.00015917874072500341 0.00030160755308514291
leaf_weight=34 22
leaf_count=34 22
internal_value=0
internal_weight=0
internal_count=56
is_linear=0
shrinkage=0.001


Tree=53
num_leaves=2
num_cat=0
split_feature=9
split_gain=2.83037
threshold=0.48737736267028769
decision_type=2
left_child=-1
right_child=-2
leaf_value=-0.00015901956069009268 0.00030130594816397537
leaf_weight=34 22
leaf_count=34 22
internal_value=0
internal_weight=0
internal_count=56
is_linear=0
shrinkage=0.001


Tree=54
num_leaves=2
num_cat=0
split_feature=9
split_gain=2.82471
threshold=0.48737736267028769
decision_type=2
left_child=-1
right_child=-2
leaf_value=-0.0001588605423218242 0.00030100463330745699
leaf_weight=34 22
leaf_count=34 22
internal_value=0
internal_weight=0
internal_count=56
is_linear=0
shrinkage=0.001


Tree=55
num_leaves=2
num_cat=0
split_feature=9
split_gain=2.61329
threshold=0.48737736267028769
decision_type=2
left_child=-1
right_child=-2
leaf_value=-0.00015126749523551553 0.00030952487066388131
leaf_weight=32 20
leaf_count=32 20
internal_value=0
internal_weight=0
internal_count=52
is_linear=0
shrinkage=0.001


Tree=56
num_leaves=2
num_cat=0
split_feature=9
split_gain=2.60806
threshold=0.48737736267028769
decision_type=2
left_child=-1
right_child=-2
leaf_value=-0.00015111623089251224 0.00030921535566449167
leaf_weight=32 20
leaf_count=32 20
internal_value=0
internal_weight=0
internal_count=52
is_linear=0
shrinkage=0.001


Tree=57
num_leaves=2
num_cat=0
split_feature=0
split_gain=2.42797
threshold=-0.22022987763178914
decision_type=2
left_child=-1
right_child=-2
leaf_value=-0.000198651162981987 0.00023383400086270372
leaf_weight=25 27
leaf_count=25 27
internal_value=0
internal_weight=0
internal_count=52
is_linear=0
shrinkage=0.001


Tree=58
num_leaves=2
num_cat=0
split_feature=9
split_gain=2.59903
threshold=0.48737736267028769
decision_type=2
left_child=-1
right_child=-2
leaf_value=-0.00015086106700255185 0.00030867230352014301
leaf_weight=32 20
leaf_count=32 20
internal_value=0
internal_weight=0
internal_count=52
is_linear=0
shrinkage=0.001


Tree=59
num_leaves=2
num_cat=0
split_feature=9
split_gain=2.59383
threshold=0.48737736267028769
decision_type=2
left_child=-1
right_child=-2
leaf_value=-0.00015071020567484085 0.00030836362764239311
leaf_weight=32 20
leaf_count=32 20
internal_value=0
internal_weight=0
internal_count=52
is_linear=0
shrinkage=0.001


Tree=60
num_leaves=2
num_cat=0
split_feature=9
split_gain=2.52799
threshold=0.262726813285248
decision_type=2
left_child=-1
right_child=-2
leaf_value=-0.00018331625170046182 0.00026051512595620896
leaf_weight=33 21
leaf_count=33 21
internal_value=0
internal_weight=0
internal_count=54
is_linear=0
shrinkage=0.001


Tree=61
num_leaves=2
num_cat=0
split_feature=9
split_gain=2.52294
threshold=0.262726813285248
decision_type=2
left_child=-1
right_child=-2
leaf_value=-0.00018313293664709129 0.00026025460780199083
leaf_weight=33 21
leaf_count=33 21
internal_value=0
internal_weight=0
internal_count=54
is_linear=0
shrinkage=0.001


Tree=62
num_leaves=2
num_cat=0
split_feature=0
split_gain=2.32473
threshold=-0.22022987763178914
decision_type=2
left_child=-1
right_child=-2
leaf_value=-0.00020333994205655722 0.00021277584546478464
leaf_weight=29 25
leaf_count=29 25
internal_value=0
internal_weight=0
internal_count=54
is_linear=0
shrinkage=0.001


Tree=63
num_leaves=2
num_cat=0
split_feature=9
split_gain=2.51374
threshold=0.262726813285248
decision_type=2
left_child=-1
right_child=-2
leaf_value=-0.00018279690205147772 0.00025978157713654493
leaf_weight=33 21
leaf_count=33 21
internal_value=0
internal_weight=0
internal_count=54
is_linear=0
shrinkage=0.001


Tree=64
num_leaves=2
num_cat=0
split_feature=9
split_gain=2.50871
threshold=0.262726813285248
decision_type=2
left_child=-1
right_child=-2
leaf_value=-0.00018261410395621858 0.0002595217946384634
leaf_weight=33 21
leaf_count=33 21
internal_value=0
internal_weight=0
internal_count=54
is_linear=0
shrinkage=0.001


Tree=65
num_leaves=2
num_cat=0
split_feature=0
split_gain=1.99142
threshold=-0.22022987763178914
decision_type=2
left_child=-1
right_child=-2
leaf_value=-0.00020273606593792254 0.00020605758463617267
leaf_weight=26 22
leaf_count=26 22
internal_value=0
internal_weight=0
internal_count=48
is_linear=0
shrinkage=0.001


Tree=66
num_leaves=2
num_cat=0
split_feature=0
split_gain=1.98744
threshold=-0.22022987763178914
decision_type=2
left_child=-1
right_child=-2
leaf_value=-0.00020253333535331946 0.00020585152644145472
leaf_weight=26 22
leaf_count=26 22
internal_value=0
internal_weight=0
internal_count=48
is_linear=0
shrinkage=0.001


Tree=67
num_leaves=2
num_cat=0
split_feature=0
split_gain=1.98347
threshold=-0.22022987763178914
decision_type=2
left_child=-1
right_child=-2
leaf_value=-0.00020233080077629824 0.00020564567573125138
leaf_weight=26 22
leaf_count=26 22
internal_value=0
internal_weight=0
internal_count=48
is_linear=0
shrinkage=0.001


Tree=68
num_leaves=2
num_cat=0
split_feature=0
split_gain=1.9795
threshold=-0.22022987763178914
decision_type=2
left_child=-1
right_child=-2
leaf_value=-0.00020212847080368262 0.00020544002521306871
leaf_weight=26 22
leaf_count=26 22
internal_value=0
internal_weight=0
internal_count=48
is_linear=0
shrinkage=0.001


Tree=69
num_leaves=2
num_cat=0
split_feature=9
split_gain=1.97555
threshold=1.0000000180025095e-35
decision_type=2
left_child=-1
right_child=-2
leaf_value=-0.00020192633683864886 0.00020523458825614813
leaf_weight=26 22
leaf_count=26 22
internal_value=0
internal_weight=0
internal_count=48
is_linear=0
shrinkage=0.001


Tree=70
num_leaves=2
num_cat=0
split_feature=9
split_gain=2.18873
threshold=0.262726813285248
decision_type=2
left_child=-1
right_child=-2
leaf_value=-0.00017855644200850899 0.00024237467193355164
leaf_weight=30 21
leaf_count=30 21
internal_value=0
internal_weight=0
internal_count=51
is_linear=0
shrinkage=0.001


Tree=71
num_leaves=2
num_cat=0
split_feature=0
split_gain=2.0189
threshold=-0.22022987763178914
decision_type=2
left_child=-1
right_child=-2
leaf_value=-0.00020032578305556224 0.00019767648491077124
leaf_weight=26 25
leaf_count=26 25
internal_value=0
internal_weight=0
internal_count=51
is_linear=0
shrinkage=0.001


Tree=72
num_leaves=2
num_cat=0
split_feature=0
split_gain=2.01486
threshold=-0.22022987763178914
decision_type=2
left_child=-1
right_child=-2
leaf_value=-0.00020012546158753908 0.00019747881353367121
leaf_weight=26 25
leaf_count=26 25
internal_value=0
internal_weight=0
internal_count=51
is_linear=0
shrinkage=0.001


Tree=73
num_leaves=2
num_cat=0
split_feature=9
split_gain=2.1772
threshold=0.262726813285248
decision_type=2
left_child=-1
right_child=-2
leaf_value=-0.00017808351327742761 0.00024173714477746262
leaf_weight=30 21
leaf_count=30 21
internal_value=0
internal_weight=0
internal_count=51
is_linear=0
shrinkage=0.001


Tree=74
num_leaves=2
num_cat=0
split_feature=9
split_gain=2.17285
threshold=0.262726813285248
decision_type=2
left_child=-1
right_child=-2
leaf_value=-0.00017790542901105559 0.00024149540833951462
leaf_weight=30 21
leaf_count=30 21
internal_value=0
internal_weight=0
internal_count=51
is_linear=0
shrinkage=0.001


Tree=75
num_leaves=2
num_cat=0
split_feature=9
split_gain=1.61422
threshold=1.0000000180025095e-35
decision_type=2
left_child=-1
right_child=-2
leaf_value=-0.00019206863592068356 0.00016005453808010434
leaf_weight=30 23
leaf_count=30 23
internal_value=0
internal_weight=0
internal_count=53
is_linear=0
shrinkage=0.001


Tree=76
num_leaves=2
num_cat=0
split_feature=9
split_gain=1.61099
threshold=1.0000000180025095e-35
decision_type=2
left_child=-1
right_child=-2
leaf_value=-0.00019187656939029693 0.00015989448123550771
leaf_weight=30 23
leaf_count=30 23
internal_value=0
internal_weight=0
internal_count=53
is_linear=0
shrinkage=0.001


Tree=77
num_leaves=2
num_cat=0
split_feature=9
split_gain=1.60777
threshold=1.0000000180025095e-35
decision_type=2
left_child=-1
right_child=-2
leaf_value=-0.00019168468962113064 0.00015973458759000766
leaf_weight=30 23
leaf_count=30 23
internal_value=0
internal_weight=0
internal_count=53
is_linear=0
shrinkage=0.001


Tree=78
num_leaves=2
num_cat=0
split_feature=9
split_gain=1.60456
threshold=1.0000000180025095e-35
decision_type=2
left_child=-1
right_child=-2
leaf_value=-0.00019149300406376521 0.00015957485087742302
leaf_weight=30 23
leaf_count=30 23
internal_value=0
internal_weight=0
internal_count=53
is_linear=0
shrinkage=0.001


Tree=79
num_leaves=2
num_cat=0
split_feature=9
split_gain=1.60135
threshold=1.0000000180025095e-35
decision_type=2
left_child=-1
right_child=-2
leaf_value=-0.00019130151619513831 0.00015941527871030342
leaf_weight=30 23
leaf_count=30 23
internal_value=0
internal_weight=0
internal_count=53
is_linear=0
shrinkage=0.001


Tree=80
num_leaves=2
num_cat=0
split_feature=9
split_gain=2.67499
threshold=0.262726813285248
decision_type=2
left_child=-1
right_child=-2
leaf_value=-0.00017644132685734693 0.00026781588144924332
leaf_weight=33 23
leaf_count=33 23
internal_value=0
internal_weight=0
internal_count=56
is_linear=0
shrinkage=0.001


Tree=81
num_leaves=2
num_cat=0
split_feature=9
split_gain=2.66965
threshold=0.262726813285248
decision_type=2
left_child=-1
right_child=-2
leaf_value=-0.000176264885019257 0.00026754806012563081
leaf_weight=33 23
leaf_count=33 23
internal_value=0
internal_weight=0
internal_count=56
is_linear=0
shrinkage=0.001


Tree=82
num_leaves=2
num_cat=0
split_feature=9
split_gain=2.66431
threshold=0.262726813285248
decision_type=2
left_child=-1
right_child=-2
leaf_value=-0.00017608861785706583 0.00026728051698402216
leaf_weight=33 23
leaf_count=33 23
internal_value=0
internal_weight=0
internal_count=56
is_linear=0
shrinkage=0.001


Tree=83
num_leaves=2
num_cat=0
split_feature=0
split_gain=2.43661
threshold=-0.22022987763178914
decision_type=2
left_child=-1
right_child=-2
leaf_value=-0.00019526787359139014 0.00022218367018892119
leaf_weight=29 27
leaf_count=29 27
internal_value=0
internal_weight=0
internal_count=56
is_linear=0
shrinkage=0.001


Tree=84
num_leaves=2
num_cat=0
split_feature=9
split_gain=2.65458
threshold=0.262726813285248
decision_type=2
left_child=-1
right_child=-2
leaf_value=-0.00017576786421352264 0.00026679105376419817
leaf_weight=33 23
leaf_count=33 23
internal_value=0
internal_weight=0
internal_count=56
is_linear=0
shrinkage=0.001


Tree=85
num_leaves=2
num_cat=0
split_feature=9
split_gain=2.38679
threshold=0.40300075491649395
decision_type=2
left_child=-1
right_child=-2
leaf_value=-0.00017313831235857353 0.00026222253572195768
leaf_weight=34 20
leaf_count=34 20
internal_value=0
internal_weight=0
internal_count=54
is_linear=0
shrinkage=0.001


Tree=86
num_leaves=2
num_cat=0
split_feature=9
split_gain=2.38202
threshold=0.40300075491649395
decision_type=2
left_child=-1
right_child=-2
leaf_value=-0.00017296517253784902 0.00026196030620485546
leaf_weight=34 20
leaf_count=34 20
internal_value=0
internal_weight=0
internal_count=54
is_linear=0
shrinkage=0.001


Tree=87
num_leaves=2
num_cat=0
split_feature=9
split_gain=2.37726
threshold=0.40300075491649395
decision_type=2
left_child=-1
right_child=-2
leaf_value=-0.00017279220709358068 0.00026169834565371278
leaf_weight=34 20
leaf_count=34 20
internal_value=0
internal_weight=0
internal_count=54
is_linear=0
shrinkage=0.001


Tree=88
num_leaves=2
num_cat=0
split_feature=9
split_gain=2.3725
threshold=0.40300075491649395
decision_type=2
left_child=-1
right_child=-2
leaf_value=-0.00017261941382414937 0.0002614366538822651
leaf_weight=34 20
leaf_count=34 20
internal_value=0
internal_weight=0
internal_count=54
is_linear=0
shrinkage=0.001


Tree=89
num_leaves=2
num_cat=0
split_feature=9
split_gain=2.36776
threshold=0.40300075491649395
decision_type=2
left_child=-1
right_child=-2
leaf_value=-0.00017244679572724956 0.00026117521300911907
leaf_weight=34 20
leaf_count=34 20
internal_value=0
internal_weight=0
internal_count=54
is_linear=0
shrinkage=0.001


Tree=90
num_leaves=2
num_cat=0
split_feature=9
split_gain=1.94212
threshold=0.262726813285248
decision_type=2
left_child=-1
right_child=-2
leaf_value=-0.00016354955188356912 0.00025094206803478303
leaf_weight=26 20
leaf_count=26 20
internal_value=0
internal_weight=0
internal_count=46
is_linear=0
shrinkage=0.001


Tree=91
num_leaves=2
num_cat=0
split_feature=9
split_gain=1.93824
threshold=0.262726813285248
decision_type=2
left_child=-1
right_child=-2
leaf_value=-0.00016338600504856843 0.00025069112814962865
leaf_weight=26 20
leaf_count=26 20
internal_value=0
internal_weight=0
internal_count=46
is_linear=0
shrinkage=0.001


Tree=92
num_leaves=2
num_cat=0
split_feature=0
split_gain=1.75209
threshold=-0.22022987763178914
decision_type=2
left_child=-1
right_child=-2
leaf_value=-0.00017853311222532523 0.00021179487801197431
leaf_weight=23 23
leaf_count=23 23
internal_value=0
internal_weight=0
internal_count=46
is_linear=0
shrinkage=0.001


Tree=93
num_leaves=2
num_cat=0
split_feature=9
split_gain=1.93114
threshold=0.262726813285248
decision_type=2
left_child=-1
right_child=-2
leaf_value=-0.00016308912462913072 0.0002502286419039592
leaf_weight=26 20
leaf_count=26 20
internal_value=0
internal_weight=0
internal_count=46
is_linear=0
shrinkage=0.001


Tree=94
num_leaves=2
num_cat=0
split_feature=9
split_gain=1.92728
threshold=0.262726813285248
decision_type=2
left_child=-1
right_child=-2
leaf_value=-0.00016292603342578962 0.00024997840833384545
leaf_weight=26 20
leaf_count=26 20
internal_value=0
internal_weight=0
internal_count=46
is_linear=0
shrinkage=0.001


Tree=95
num_leaves=2
num_cat=0
split_feature=9
split_gain=2.3563
threshold=1.0000000180025095e-35
decision_type=2
left_child=-1
right_child=-2
leaf_value=-0.0001940090165094093 0.00023204572185873983
leaf_weight=27 25
leaf_count=27 25
internal_value=0
internal_weight=0
internal_count=52
is_linear=0
shrinkage=0.001


Tree=96
num_leaves=2
num_cat=0
split_feature=0
split_gain=2.35159
threshold=-0.22022987763178914
decision_type=2
left_child=-1
right_child=-2
leaf_value=-0.00019381500449445514 0.00023181367052718996
leaf_weight=27 25
leaf_count=27 25
internal_value=0
internal_weight=0
internal_count=52
is_linear=0
shrinkage=0.001


Tree=97
num_leaves=2
num_cat=0
split_feature=0
split_gain=2.34689
threshold=-0.22022987763178914
decision_type=2
left_child=-1
right_child=-2
leaf_value=-0.0001936211900578605 0.00023158186068758369
leaf_weight=27 25
leaf_count=27 25
internal_value=0
internal_weight=0
internal_count=52
is_linear=0
shrinkage=0.001


Tree=98
num_leaves=2
num_cat=0
split_feature=0
split_gain=2.3422
threshold=-0.22022987763178914
decision_type=2
left_child=-1
right_child=-2
leaf_value=-0.00019342756547309733 0.00023135027883574368
leaf_weight=27 25
leaf_count=27 25
internal_value=0
internal_weight=0
internal_count=52
is_linear=0
shrinkage=0.001


Tree=99
num_leaves=2
num_cat=0
split_feature=0
split_gain=2.33752
threshold=-0.22022987763178914
decision_type=2
left_child=-1
right_child=-2
leaf_value=-0.00019323414067427317 0.00023111892940476535
leaf_weight=27 25
leaf_count=27 25
internal_value=0
internal_weight=0
internal_count=52
is_linear=0
shrinkage=0.001


Tree=100
num_leaves=2
num_cat=0
split_feature=9
split_gain=2.1026
threshold=0.40300075491649395
decision_type=2
left_child=-1
right_child=-2
leaf_value=-0.0001720904597394361 0.00024937586188316345
leaf_weight=29 20
leaf_count=29 20
internal_value=0
internal_weight=0
internal_count=49
is_linear=0
shrinkage=0.001


Tree=101
num_leaves=2
num_cat=0
split_feature=9
split_gain=2.0984
threshold=0.40300075491649395
decision_type=2
left_child=-1
right_child=-2
leaf_value=-0.00017191836759367765 0.00024912649299949411
leaf_weight=29 20
leaf_count=29 20
internal_value=0
internal_weight=0
internal_count=49
is_linear=0
shrinkage=0.001


Tree=102
num_leaves=2
num_cat=0
split_feature=9
split_gain=2.09421
threshold=0.40300075491649395
decision_type=2
left_child=-1
right_child=-2
leaf_value=-0.00017174645148595026 0.00024887736616656186
leaf_weight=29 20
leaf_count=29 20
internal_value=0
internal_weight=0
internal_count=49
is_linear=0
shrinkage=0.001


Tree=103
num_leaves=2
num_cat=0
split_feature=9
split_gain=2.09002
threshold=0.40300075491649395
decision_type=2
left_child=-1
right_child=-2
leaf_value=-0.00017157470318087344 0.0002486284902319312
leaf_weight=29 20
leaf_count=29 20
internal_value=0
internal_weight=0
internal_count=49
is_linear=0
shrinkage=0.001


Tree=104
num_leaves=2
num_cat=0
split_feature=9
split_gain=2.08584
threshold=0.40300075491649395
decision_type=2
left_child=-1
right_child=-2
leaf_value=-0.00017140312992831177 0.00024837985420599577
leaf_weight=29 20
leaf_count=29 20
internal_value=0
internal_weight=0
internal_count=49
is_linear=0
shrinkage=0.001


Tree=105
num_leaves=2
num_cat=0
split_feature=0
split_gain=2.04151
threshold=-0.22022987763178914
decision_type=2
left_child=-1
right_child=-2
leaf_value=-0.00018958791807807728 0.00019252204560541065
leaf_weight=29 27
leaf_count=29 27
internal_value=0
internal_weight=0
internal_count=56
is_linear=0
shrinkage=0.001


Tree=106
num_leaves=2
num_cat=0
split_feature=9
split_gain=2.08904
threshold=0.40300075491649395
decision_type=2
left_child=-1
right_child=-2
leaf_value=-0.00016071509154725767 0.00023475721311247487
leaf_weight=34 22
leaf_count=34 22
internal_value=0
internal_weight=0
internal_count=56
is_linear=0
shrinkage=0.001


Tree=107
num_leaves=2
num_cat=0
split_feature=9
split_gain=2.08486
threshold=0.40300075491649395
decision_type=2
left_child=-1
right_child=-2
leaf_value=-0.00016055437696238241 0.00023452245731922714
leaf_weight=34 22
leaf_count=34 22
internal_value=0
internal_weight=0
internal_count=56
is_linear=0
shrinkage=0.001


Tree=108
num_leaves=2
num_cat=0
split_feature=9
split_gain=2.08069
threshold=0.40300075491649395
decision_type=2
left_child=-1
right_child=-2
leaf_value=-0.00016039382204711299 0.00023428792603821916
leaf_weight=34 22
leaf_count=34 22
internal_value=0
internal_weight=0
internal_count=56
is_linear=0
shrinkage=0.001


Tree=109
num_leaves=2
num_cat=0
split_feature=9
split_gain=2.07653
threshold=0.40300075491649395
decision_type=2
left_child=-1
right_child=-2
leaf_value=-0.00016023342657632279 0.00023405364191752265
leaf_weight=34 22
leaf_count=34 22
internal_value=0
internal_weight=0
internal_count=56
is_linear=0
shrinkage=0.001


Tree=110
num_leaves=2
num_cat=0
split_feature=9
split_gain=2.15012
threshold=1.0000000180025095e-35
decision_type=2
left_child=-1
right_child=-2
leaf_value=-0.00018927616711992485 0.00024093741194034616
leaf_weight=26 21
leaf_count=26 21
internal_value=0
internal_weight=0
internal_count=47
is_linear=0
shrinkage=0.001


Tree=111
num_leaves=2
num_cat=0
split_feature=9
split_gain=2.14582
threshold=1.0000000180025095e-35
decision_type=2
left_child=-1
right_child=-2
leaf_value=-0.00018908689257044058 0.00024069647564153588
leaf_weight=26 21
leaf_count=26 21
internal_value=0
internal_weight=0
internal_count=47
is_linear=0
shrinkage=0.001


Tree=112
num_leaves=2
num_cat=0
split_feature=9
split_gain=2.14153
threshold=1.0000000180025095e-35
decision_type=2
left_child=-1
right_child=-2
leaf_value=-0.00018889780743763999 0.0002404557743575424
leaf_weight=26 21
leaf_count=26 21
internal_value=0
internal_weight=0
internal_count=47
is_linear=0
shrinkage=0.001


Tree=113
num_leaves=2
num_cat=0
split_feature=9
split_gain=2.13725
threshold=1.0000000180025095e-35
decision_type=2
left_child=-1
right_child=-2
leaf_value=-0.00018870890885591508 0.00024021532224668634
leaf_weight=26 21
leaf_count=26 21
internal_value=0
internal_weight=0
internal_count=47
is_linear=0
shrinkage=0.001


Tree=114
num_leaves=2
num_cat=0
split_feature=9
split_gain=2.13298
threshold=1.0000000180025095e-35
decision_type=2
left_child=-1
right_child=-2
leaf_value=-0.00018852020055055619 0.00023997511183621273
leaf_weight=26 21
leaf_count=26 21
internal_value=0
internal_weight=0
internal_count=47
is_linear=0
shrinkage=0.001


Tree=115
num_leaves=2
num_cat=0
split_feature=9
split_gain=1.93599
threshold=0.262726813285248
decision_type=2
left_child=-1
right_child=-2
leaf_value=-0.00017467871705691021 0.00022120343228535994
leaf_weight=30 21
leaf_count=30 21
internal_value=0
internal_weight=0
internal_count=51
is_linear=0
shrinkage=0.001


Tree=116
num_leaves=2
num_cat=0
split_feature=9
split_gain=1.93212
threshold=0.262726813285248
decision_type=2
left_child=-1
right_child=-2
leaf_value=-0.0001745040367046992 0.00022098222636573374
leaf_weight=30 21
leaf_count=30 21
internal_value=0
internal_weight=0
internal_count=51
is_linear=0
shrinkage=0.001


Tree=117
num_leaves=2
num_cat=0
split_feature=9
split_gain=1.92825
threshold=0.262726813285248
decision_type=2
left_child=-1
right_child=-2
leaf_value=-0.00017432952870925268 0.00022076124021606076
leaf_weight=30 21
leaf_count=30 21
internal_value=0
internal_weight=0
internal_count=51
is_linear=0
shrinkage=0.001


Tree=118
num_leaves=2
num_cat=0
split_feature=9
split_gain=1.9244
threshold=0.262726813285248
decision_type=2
left_child=-1
right_child=-2
leaf_value=-0.00017415520052115123 0.00022054048192997775
leaf_weight=30 21
leaf_count=30 21
internal_value=0
internal_weight=0
internal_count=51
is_linear=0
shrinkage=0.001


Tree=119
num_leaves=2
num_cat=0
split_feature=9
split_gain=1.92055
threshold=0.262726813285248
decision_type=2
left_child=-1
right_child=-2
leaf_value=-0.00017398104916016259 0.00022031994177294629
leaf_weight=30 21
leaf_count=30 21
internal_value=0
internal_weight=0
internal_count=51
is_linear=0
shrinkage=0.001


Tree=120
num_leaves=2
num_cat=0
split_feature=9
split_gain=2.56744
threshold=0.40300075491649395
decision_type=2
left_child=-1
right_child=-2
leaf_value=-0.00017364230389648583 0.00028225260763429106
leaf_weight=30 21
leaf_count=30 21
internal_value=0
internal_weight=0
internal_count=51
is_linear=0
shrinkage=0.001


Tree=121
num_leaves=2
num_cat=0
split_feature=9
split_gain=2.56231
threshold=0.40300075491649395
decision_type=2
left_child=-1
right_child=-2
leaf_value=-0.00017346866122340242 0.0002819703562085384
leaf_weight=30 21
leaf_count=30 21
internal_value=0
internal_weight=0
internal_count=51
is_linear=0
shrinkage=0.001


Tree=122
num_leaves=2
num_cat=0
split_feature=9
split_gain=2.55718
threshold=0.40300075491649395
decision_type=2
left_child=-1
right_child=-2
leaf_value=-0.0001732951952752046 0.00028168838786049968
leaf_weight=30 21
leaf_count=30 21
internal_value=0
internal_weight=0
internal_count=51
is_linear=0
shrinkage=0.001


Tree=123
num_leaves=2
num_cat=0
split_feature=9
split_gain=2.55207
threshold=0.40300075491649395
decision_type=2
left_child=-1
right_child=-2
leaf_value=-0.00017312190356994202 0.00028140669814421838
leaf_weight=30 21
leaf_count=30 21
internal_value=0
internal_weight=0
internal_count=51
is_linear=0
shrinkage=0.001


Tree=124
num_leaves=2
num_cat=0
split_feature=9
split_gain=2.54697
threshold=0.40300075491649395
decision_type=2
left_child=-1
right_child=-2
leaf_value=-0.00017294878161628729 0.00028112528651642307
leaf_weight=30 21
leaf_count=30 21
internal_value=0
internal_weight=0
internal_count=51
is_linear=0
shrinkage=0.001


Tree=125
num_leaves=2
num_cat=0
split_feature=9
split_gain=2.19023
threshold=0.262726813285248
decision_type=2
left_child=-1
right_child=-2
leaf_value=-0.00017485404522581536 0.0002445286689326167
leaf_weight=33 20
leaf_count=33 20
internal_value=0
internal_weight=0
internal_count=53
is_linear=0
shrinkage=0.001


Tree=126
num_leaves=2
num_cat=0
split_feature=9
split_gain=2.18585
threshold=0.262726813285248
decision_type=2
left_child=-1
right_child=-2
leaf_value=-0.0001746791908235261 0.00024428414376452567
leaf_weight=33 20
leaf_count=33 20
internal_value=0
internal_weight=0
internal_count=53
is_linear=0
shrinkage=0.001


Tree=127
num_leaves=2
num_cat=0
split_feature=9
split_gain=2.18148
threshold=0.262726813285248
decision_type=2
left_child=-1
right_child=-2
leaf_value=-0.00017450450959079195 0.00024403986260294912
leaf_weight=33 20
leaf_count=33 20
internal_value=0
internal_weight=0
internal_count=53
is_linear=0
shrinkage=0.001


Tree=128
num_leaves=2
num_cat=0
split_feature=9
split_gain=2.17712
threshold=0.262726813285248
decision_type=2
left_child=-1
right_child=-2
leaf_value=-0.00017433000988129413 0.0002437958212569356
leaf_weight=33 20
leaf_count=33 20
internal_value=0
internal_weight=0
internal_count=53
is_linear=0
shrinkage=0.001


Tree=129
num_leaves=2
num_cat=0
split_feature=9
split_gain=2.17277
threshold=0.262726813285248
decision_type=2
left_child=-1
right_child=-2
leaf_value=-0.00017415567352013154 0.00024355202978476882
leaf_weight=33 20
leaf_count=33 20
internal_value=0
internal_weight=0
internal_count=53
is_linear=0
shrinkage=0.001


Tree=130
num_leaves=2
num_cat=0
split_feature=9
split_gain=2.16692
threshold=0.40300075491649395
decision_type=2
left_child=-1
right_child=-2
leaf_value=-0.00015083289461576246 0.00027411050278238863
leaf_weight=28 21
leaf_count=28 21
internal_value=0
internal_weight=0
internal_count=49
is_linear=0
shrinkage=0.001


Tree=131
num_leaves=2
num_cat=0
split_feature=9
split_gain=2.16259
threshold=0.40300075491649395
decision_type=2
left_child=-1
right_child=-2
leaf_value=-0.0001506820608171568 0.00027383639486340273
leaf_weight=28 21
leaf_count=28 21
internal_value=0
internal_weight=0
internal_count=49
is_linear=0
shrinkage=0.001


Tree=132
num_leaves=2
num_cat=0
split_feature=9
split_gain=2.15827
threshold=0.40300075491649395
decision_type=2
left_child=-1
right_child=-2
leaf_value=-0.00015053137988849943 0.00027356255713051987
leaf_weight=28 21
leaf_count=28 21
internal_value=0
internal_weight=0
internal_count=49
is_linear=0
shrinkage=0.001


Tree=133
num_leaves=2
num_cat=0
split_feature=9
split_gain=2.15395
threshold=0.40300075491649395
decision_type=2
left_child=-1
right_child=-2
leaf_value=-0.00015038084862836903 0.00027328899169584648
leaf_weight=28 21
leaf_count=28 21
internal_value=0
internal_weight=0
internal_count=49
is_linear=0
shrinkage=0.001


Tree=134
num_leaves=2
num_cat=0
split_feature=9
split_gain=2.14998
threshold=1.0000000180025095e-35
decision_type=2
left_child=-1
right_child=-2
leaf_value=-0.00018262741155922413 0.00023639738454017789
leaf_weight=24 25
leaf_count=24 25
internal_value=0
internal_weight=0
internal_count=49
is_linear=0
shrinkage=0.001


Tree=135
num_leaves=2
num_cat=0
split_feature=9
split_gain=2.31463
threshold=0.40300075491649395
decision_type=2
left_child=-1
right_child=-2
leaf_value=-0.00015880342330509687 0.00025747521032198244
leaf_weight=34 22
leaf_count=34 22
internal_value=0
internal_weight=0
internal_count=56
is_linear=0
shrinkage=0.001


Tree=136
num_leaves=2
num_cat=0
split_feature=0
split_gain=2.16402
threshold=-0.22022987763178914
decision_type=2
left_child=-1
right_child=-2
leaf_value=-0.00019184907672128507 0.00020130882544409752
leaf_weight=28 28
leaf_count=28 28
internal_value=0
internal_weight=0
internal_count=56
is_linear=0
shrinkage=0.001


Tree=137
num_leaves=2
num_cat=0
split_feature=9
split_gain=2.30641
threshold=0.40300075491649395
decision_type=2
left_child=-1
right_child=-2
leaf_value=-0.00015852215314996154 0.00025701642814304006
leaf_weight=34 22
leaf_count=34 22
internal_value=0
internal_weight=0
internal_count=56
is_linear=0
shrinkage=0.001


Tree=138
num_leaves=2
num_cat=0
split_feature=9
split_gain=2.3018
threshold=0.40300075491649395
decision_type=2
left_child=-1
right_child=-2
leaf_value=-0.00015836363076232373 0.00025675941260785539
leaf_weight=34 22
leaf_count=34 22
internal_value=0
internal_weight=0
internal_count=56
is_linear=0
shrinkage=0.001


Tree=139
num_leaves=2
num_cat=0
split_feature=9
split_gain=2.2972
threshold=0.40300075491649395
decision_type=2
left_child=-1
right_child=-2
leaf_value=-0.00015820526550797855 0.00025650264437056405
leaf_weight=34 22
leaf_count=34 22
internal_value=0
internal_weight=0
internal_count=56
is_linear=0
shrinkage=0.001


Tree=140
num_leaves=2
num_cat=0
split_feature=9
split_gain=2.06514
threshold=0.40300075491649395
decision_type=2
left_child=-1
right_child=-2
leaf_value=-0.00015433399415304584 0.00025181539585104304
leaf_weight=31 21
leaf_count=31 21
internal_value=0
internal_weight=0
internal_count=52
is_linear=0
shrinkage=0.001


Tree=141
num_leaves=2
num_cat=0
split_feature=9
split_gain=2.06101
threshold=0.40300075491649395
decision_type=2
left_child=-1
right_child=-2
leaf_value=-0.00015417966447890766 0.00025156358348959611
leaf_weight=31 21
leaf_count=31 21
internal_value=0
internal_weight=0
internal_count=52
is_linear=0
shrinkage=0.001


Tree=142
num_leaves=2
num_cat=0
split_feature=9
split_gain=2.05689
threshold=0.40300075491649395
decision_type=2
left_child=-1
right_child=-2
leaf_value=-0.00015402548050417775 0.00025131201604381207
leaf_weight=31 21
leaf_count=31 21
internal_value=0
internal_weight=0
internal_count=52
is_linear=0
shrinkage=0.001


Tree=143
num_leaves=2
num_cat=0
split_feature=9
split_gain=2.05278
threshold=0.40300075491649395
decision_type=2
left_child=-1
right_child=-2
leaf_value=-0.00015387145755061459 0.00025106070279365498
leaf_weight=31 21
leaf_count=31 21
internal_value=0
internal_weight=0
internal_count=52
is_linear=0
shrinkage=0.001


Tree=144
num_leaves=2
num_cat=0
split_feature=9
split_gain=2.04868
threshold=0.40300075491649395
decision_type=2
left_child=-1
right_child=-2
leaf_value=-0.00015371758707108035 0.00025080964643330798
leaf_weight=31 21
leaf_count=31 21
internal_value=0
internal_weight=0
internal_count=52
is_linear=0
shrinkage=0.001


Tree=145
num_leaves=2
num_cat=0
split_feature=9
split_gain=1.99043
threshold=0.262726813285248
decision_type=2
left_child=-1
right_child=-2
leaf_value=-0.00018354469534912797 0.00019053151158615947
leaf_weight=33 25
leaf_count=33 25
internal_value=0
internal_weight=0
internal_count=58
is_linear=0
shrinkage=0.001


Tree=146
num_leaves=2
num_cat=0
split_feature=9
split_gain=1.98645
threshold=0.262726813285248
decision_type=2
left_child=-1
right_child=-2
leaf_value=-0.00018336114963290816 0.00019034098254516721
leaf_weight=33 25
leaf_count=33 25
internal_value=0
internal_weight=0
internal_count=58
is_linear=0
shrinkage=0.001


Tree=147
num_leaves=2
num_cat=0
split_feature=9
split_gain=1.98248
threshold=0.262726813285248
decision_type=2
left_child=-1
right_child=-2
leaf_value=-0.00018317778919343697 0.00019015063942410051
leaf_weight=33 25
leaf_count=33 25
internal_value=0
internal_weight=0
internal_count=58
is_linear=0
shrinkage=0.001


Tree=148
num_leaves=2
num_cat=0
split_feature=9
split_gain=1.97851
threshold=0.262726813285248
decision_type=2
left_child=-1
right_child=-2
leaf_value=-0.00018299461086280645 0.00018996049459092318
leaf_weight=33 25
leaf_count=33 25
internal_value=0
internal_weight=0
internal_count=58
is_linear=0
shrinkage=0.001


Tree=149
num_leaves=2
num_cat=0
split_feature=9
split_gain=1.97456
threshold=0.262726813285248
decision_type=2
left_child=-1
right_child=-2
leaf_value=-0.000182811617801869 0.00018977053149603308
leaf_weight=33 25
leaf_count=33 25
internal_value=0
internal_weight=0
internal_count=58
is_linear=0
shrinkage=0.001


Tree=150
num_leaves=2
num_cat=0
split_feature=0
split_gain=1.63406
threshold=1.0000000180025095e-35
decision_type=2
left_child=-1
right_child=-2
leaf_value=-0.0001694148920583897 0.00019243380962871015
leaf_weight=26 24
leaf_count=26 24
internal_value=0
internal_weight=0
internal_count=50
is_linear=0
shrinkage=0.001


Tree=151
num_leaves=2
num_cat=0
split_feature=9
split_gain=1.80598
threshold=0.40300075491649395
decision_type=2
left_child=-1
right_child=-2
leaf_value=-0.00015745880461201587 0.00022760552382983622
leaf_weight=29 21
leaf_count=29 21
internal_value=0
internal_weight=0
internal_count=50
is_linear=0
shrinkage=0.001


Tree=152
num_leaves=2
num_cat=0
split_feature=9
split_gain=1.80237
threshold=0.40300075491649395
decision_type=2
left_child=-1
right_child=-2
leaf_value=-0.00015730134725313764 0.00022737791925846114
leaf_weight=29 21
leaf_count=29 21
internal_value=0
internal_weight=0
internal_count=50
is_linear=0
shrinkage=0.001


Tree=153
num_leaves=2
num_cat=0
split_feature=9
split_gain=1.79877
threshold=0.40300075491649395
decision_type=2
left_child=-1
right_child=-2
leaf_value=-0.00015714404735200362 0.00022715053651925355
leaf_weight=29 21
leaf_count=29 21
internal_value=0
internal_weight=0
internal_count=50
is_linear=0
shrinkage=0.001


Tree=154
num_leaves=2
num_cat=0
split_feature=9
split_gain=1.79517
threshold=0.40300075491649395
decision_type=2
left_child=-1
right_child=-2
leaf_value=-0.00015698690283722405 0.00022692338397194232
leaf_weight=29 21
leaf_count=29 21
internal_value=0
internal_weight=0
internal_count=50
is_linear=0
shrinkage=0.001


Tree=155
num_leaves=2
num_cat=0
split_feature=9
split_gain=2.18611
threshold=0.262726813285248
decision_type=2
left_child=-1
right_child=-2
leaf_value=-0.00017714043657085109 0.00022486409234503905
leaf_weight=31 24
leaf_count=31 24
internal_value=0
internal_weight=0
internal_count=55
is_linear=0
shrinkage=0.001


Tree=156
num_leaves=2
num_cat=0
split_feature=9
split_gain=2.18174
threshold=0.262726813285248
decision_type=2
left_child=-1
right_child=-2
leaf_value=-0.00017696329398501304 0.00022463923382262389
leaf_weight=31 24
leaf_count=31 24
internal_value=0
internal_weight=0
internal_count=55
is_linear=0
shrinkage=0.001


Tree=157
num_leaves=2
num_cat=0
split_feature=0
split_gain=1.99985
threshold=-0.22022987763178914
decision_type=2
left_child=-1
right_child=-2
leaf_value=-0.00018896626494824888 0.00019246775027433481
leaf_weight=28 27
leaf_count=28 27
internal_value=0
internal_weight=0
internal_count=55
is_linear=0
shrinkage=0.001


Tree=158
num_leaves=2
num_cat=0
split_feature=9
split_gain=2.17364
threshold=0.262726813285248
decision_type=2
left_child=-1
right_child=-2
leaf_value=-0.00017663427826858336 0.00022422212312812916
leaf_weight=31 24
leaf_count=31 24
internal_value=0
internal_weight=0
internal_count=55
is_linear=0
shrinkage=0.001


Tree=159
num_leaves=2
num_cat=0
split_feature=9
split_gain=2.16934
threshold=0.40300075491649395
decision_type=2
left_child=-1
right_child=-2
leaf_value=-0.00015779517886146686 0.00025099041771941947
leaf_weight=34 21
leaf_count=34 21
internal_value=0
internal_weight=0
internal_count=55
is_linear=0
shrinkage=0.001


Tree=160
num_leaves=2
num_cat=0
split_feature=9
split_gain=2.33077
threshold=0.48737736267028769
decision_type=2
left_child=-1
right_child=-2
leaf_value=-0.00014312831121920187 0.00028950101397931576
leaf_weight=33 20
leaf_count=33 20
internal_value=0
internal_weight=0
internal_count=53
is_linear=0
shrinkage=0.001


Tree=161
num_leaves=2
num_cat=0
split_feature=9
split_gain=2.32611
threshold=0.48737736267028769
decision_type=2
left_child=-1
right_child=-2
leaf_value=-0.00014298518177714538 0.0002892115139402449
leaf_weight=33 20
leaf_count=33 20
internal_value=0
internal_weight=0
internal_count=53
is_linear=0
shrinkage=0.001


Tree=162
num_leaves=2
num_cat=0
split_feature=9
split_gain=2.32146
threshold=0.48737736267028769
decision_type=2
left_child=-1
right_child=-2
leaf_value=-0.00014284219639375807 0.00028892229720950126
leaf_weight=33 20
leaf_count=33 20
internal_value=0
internal_weight=0
internal_count=53
is_linear=0
shrinkage=0.001


Tree=163
num_leaves=2
num_cat=0
split_feature=9
split_gain=2.31682
threshold=0.48737736267028769
decision_type=2
left_child=-1
right_child=-2
leaf_value=-0.00014269935389077574 0.00028863337449729445
leaf_weight=33 20
leaf_count=33 20
internal_value=0
internal_weight=0
internal_count=53
is_linear=0
shrinkage=0.001


Tree=164
num_leaves=2
num_cat=0
split_feature=9
split_gain=2.31219
threshold=0.48737736267028769
decision_type=2
left_child=-1
right_child=-2
leaf_value=-0.00014255665447986262 0.00028834474654868247
leaf_weight=33 20
leaf_count=33 20
internal_value=0
internal_weight=0
internal_count=53
is_linear=0
shrinkage=0.001


Tree=165
num_leaves=2
num_cat=0
split_feature=9
split_gain=1.9819
threshold=0.262726813285248
decision_type=2
left_child=-1
right_child=-2
leaf_value=-0.00016871151377392167 0.00021648669843985277
leaf_weight=34 22
leaf_count=34 22
internal_value=0
internal_weight=0
internal_count=56
is_linear=0
shrinkage=0.001


Tree=166
num_leaves=2
num_cat=0
split_feature=9
split_gain=1.97794
threshold=0.262726813285248
decision_type=2
left_child=-1
right_child=-2
leaf_value=-0.00016854280259405427 0.00021627020573412832
leaf_weight=34 22
leaf_count=34 22
internal_value=0
internal_weight=0
internal_count=56
is_linear=0
shrinkage=0.001


Tree=167
num_leaves=2
num_cat=0
split_feature=9
split_gain=1.97399
threshold=0.262726813285248
decision_type=2
left_child=-1
right_child=-2
leaf_value=-0.00016837425787440119 0.00021605394331907686
leaf_weight=34 22
leaf_count=34 22
internal_value=0
internal_weight=0
internal_count=56
is_linear=0
shrinkage=0.001


Tree=168
num_leaves=2
num_cat=0
split_feature=9
split_gain=1.97004
threshold=0.262726813285248
decision_type=2
left_child=-1
right_child=-2
leaf_value=-0.00016820588334025266 0.00021583788452500646
leaf_weight=34 22
leaf_count=34 22
internal_value=0
internal_weight=0
internal_count=56
is_linear=0
shrinkage=0.001


Tree=169
num_leaves=2
num_cat=0
split_feature=9
split_gain=1.9661
threshold=0.262726813285248
decision_type=2
left_child=-1
right_child=-2
leaf_value=-0.00016803767888204141 0.00021562205263498155
leaf_weight=34 22
leaf_count=34 22
internal_value=0
internal_weight=0
internal_count=56
is_linear=0
shrinkage=0.001


Tree=170
num_leaves=2
num_cat=0
split_feature=9
split_gain=1.93277
threshold=0.40300075491649395
decision_type=2
left_child=-1
right_child=-2
leaf_value=-0.00013840786706317555 0.00025555580956861378
leaf_weight=33 20
leaf_count=33 20
internal_value=0
internal_weight=0
internal_count=53
is_linear=0
shrinkage=0.001


Tree=171
num_leaves=2
num_cat=0
split_feature=9
split_gain=1.92891
threshold=0.40300075491649395
decision_type=2
left_child=-1
right_child=-2
leaf_value=-0.00013826945997689934 0.000255300258891657
leaf_weight=33 20
leaf_count=33 20
internal_value=0
internal_weight=0
internal_count=53
is_linear=0
shrinkage=0.001


Tree=172
num_leaves=2
num_cat=0
split_feature=0
split_gain=1.75629
threshold=-0.22022987763178914
decision_type=2
left_child=-1
right_child=-2
leaf_value=-0.00017526779982906122 0.00018887157710614029
leaf_weight=26 27
leaf_count=26 27
internal_value=0
internal_weight=0
internal_count=53
is_linear=0
shrinkage=0.001


Tree=173
num_leaves=2
num_cat=0
split_feature=9
split_gain=1.92224
threshold=0.40300075491649395
decision_type=2
left_child=-1
right_child=-2
leaf_value=-0.00013803316574459049 0.00025485608545131982
leaf_weight=33 20
leaf_count=33 20
internal_value=0
internal_weight=0
internal_count=53
is_linear=0
shrinkage=0.001


Tree=174
num_leaves=2
num_cat=0
split_feature=9
split_gain=1.9184
threshold=0.40300075491649395
decision_type=2
left_child=-1
right_child=-2
leaf_value=-0.0001378951303054099 0.00025460122381336988
leaf_weight=33 20
leaf_count=33 20
internal_value=0
internal_weight=0
internal_count=53
is_linear=0
shrinkage=0.001


Tree=175
num_leaves=2
num_cat=0
split_feature=9
split_gain=1.691
threshold=1.0000000180025095e-35
decision_type=2
left_child=-1
right_child=-2
leaf_value=-0.00017593556530773642 0.00016576495856445814
leaf_weight=30 28
leaf_count=30 28
internal_value=0
internal_weight=0
internal_count=58
is_linear=0
shrinkage=0.001


Tree=176
num_leaves=2
num_cat=0
split_feature=9
split_gain=1.68762
threshold=1.0000000180025095e-35
decision_type=2
left_child=-1
right_child=-2
leaf_value=-0.00017575962642828625 0.00016559919547788531
leaf_weight=30 28
leaf_count=30 28
internal_value=0
internal_weight=0
internal_count=58
is_linear=0
shrinkage=0.001


Tree=177
num_leaves=2
num_cat=0
split_feature=9
split_gain=1.68424
threshold=1.0000000180025095e-35
decision_type=2
left_child=-1
right_child=-2
leaf_value=-0.00017558386822541554 0.00016543359249564154
leaf_weight=30 28
leaf_count=30 28
internal_value=0
internal_weight=0
internal_count=58
is_linear=0
shrinkage=0.001


Tree=178
num_leaves=2
num_cat=0
split_feature=9
split_gain=1.68088
threshold=1.0000000180025095e-35
decision_type=2
left_child=-1
right_child=-2
leaf_value=-0.00017540828548371794 0.00016526816033625178
leaf_weight=30 28
leaf_count=30 28
internal_value=0
internal_weight=0
internal_count=58
is_linear=0
shrinkage=0.001


Tree=179
num_leaves=2
num_cat=0
split_feature=9
split_gain=1.67752
threshold=1.0000000180025095e-35
decision_type=2
left_child=-1
right_child=-2
leaf_value=-0.00017523287969330948 0.00016510289493349515
leaf_weight=30 28
leaf_count=30 28
internal_value=0
internal_weight=0
internal_count=58
is_linear=0
shrinkage=0.001


Tree=180
num_leaves=2
num_cat=0
split_feature=9
split_gain=1.81198
threshold=0.262726813285248
decision_type=2
left_child=-1
right_child=-2
leaf_value=-0.00017489628266129228 0.00021172143412034281
leaf_weight=27 22
leaf_count=27 22
internal_value=0
internal_weight=0
internal_count=49
is_linear=0
shrinkage=0.001


Tree=181
num_leaves=2
num_cat=0
split_feature=9
split_gain=1.80836
threshold=0.262726813285248
decision_type=2
left_child=-1
right_child=-2
leaf_value=-0.00017472138436925081 0.00021150971540588549
leaf_weight=27 22
leaf_count=27 22
internal_value=0
internal_weight=0
internal_count=49
is_linear=0
shrinkage=0.001


Tree=182
num_leaves=2
num_cat=0
split_feature=9
split_gain=1.80474
threshold=0.262726813285248
decision_type=2
left_child=-1
right_child=-2
leaf_value=-0.00017454666627088078 0.00021129820122256537
leaf_weight=27 22
leaf_count=27 22
internal_value=0
internal_weight=0
internal_count=49
is_linear=0
shrinkage=0.001


Tree=183
num_leaves=2
num_cat=0
split_feature=9
split_gain=1.80114
threshold=0.262726813285248
decision_type=2
left_child=-1
right_child=-2
leaf_value=-0.00017437211938064407 0.00021108690297908403
leaf_weight=27 22
leaf_count=27 22
internal_value=0
internal_weight=0
internal_count=49
is_linear=0
shrinkage=0.001


Tree=184
num_leaves=2
num_cat=0
split_feature=9
split_gain=1.79754
threshold=0.262726813285248
decision_type=2
left_child=-1
right_child=-2
leaf_value=-0.00017419774604409381 0.00021087582028915427
leaf_weight=27 22
leaf_count=27 22
internal_value=0
internal_weight=0
internal_count=49
is_linear=0
shrinkage=0.001


Tree=185
num_leaves=2
num_cat=0
split_feature=9
split_gain=1.84988
threshold=0.40300075491649395
decision_type=2
left_child=-1
right_child=-2
leaf_value=-0.00014903043821344481 0.00023424806967377662
leaf_weight=34 20
leaf_count=34 20
internal_value=0
internal_weight=0
internal_count=54
is_linear=0
shrinkage=0.001


Tree=186
num_leaves=2
num_cat=0
split_feature=9
split_gain=1.84618
threshold=0.40300075491649395
decision_type=2
left_child=-1
right_child=-2
leaf_value=-0.00014888140839278041 0.00023401382314041259
leaf_weight=34 20
leaf_count=34 20
internal_value=0
internal_weight=0
internal_count=54
is_linear=0
shrinkage=0.001


Tree=187
num_leaves=2
num_cat=0
split_feature=9
split_gain=1.84249
threshold=0.40300075491649395
decision_type=2
left_child=-1
right_child=-2
leaf_value=-0.00014873252551906796 0.00023377981027588248
leaf_weight=34 20
leaf_count=34 20
internal_value=0
internal_weight=0
internal_count=54
is_linear=0
shrinkage=0.001


Tree=188
num_leaves=2
num_cat=0
split_feature=9
split_gain=1.83881
threshold=0.40300075491649395
decision_type=2
left_child=-1
right_child=-2
leaf_value=-0.00014858379426604026 0.00023354602679610253
leaf_weight=34 20
leaf_count=34 20
internal_value=0
internal_weight=0
internal_count=54
is_linear=0
shrinkage=0.001


Tree=189
num_leaves=2
num_cat=0
split_feature=9
split_gain=1.83513
threshold=0.40300075491649395
decision_type=2
left_child=-1
right_child=-2
leaf_value=-0.00014843521141515606 0.00023331248164176941
leaf_weight=34 20
leaf_count=34 20
internal_value=0
internal_weight=0
internal_count=54
is_linear=0
shrinkage=0.001


Tree=190
num_leaves=2
num_cat=0
split_feature=9
split_gain=1.71906
threshold=0.262726813285248
decision_type=2
left_child=-1
right_child=-2
leaf_value=-0.00016504105541790867 0.00021064222025285876
leaf_weight=29 21
leaf_count=29 21
internal_value=0
internal_weight=0
internal_count=50
is_linear=0
shrinkage=0.001


Tree=191
num_leaves=2
num_cat=0
split_feature=9
split_gain=1.71562
threshold=0.262726813285248
decision_type=2
left_child=-1
right_child=-2
leaf_value=-0.00016487601890774638 0.00021043157764333523
leaf_weight=29 21
leaf_count=29 21
internal_value=0
internal_weight=0
internal_count=50
is_linear=0
shrinkage=0.001


Tree=192
num_leaves=2
num_cat=0
split_feature=9
split_gain=1.71219
threshold=0.262726813285248
decision_type=2
left_child=-1
right_child=-2
leaf_value=-0.00016471114160557246 0.00021022115088444913
leaf_weight=29 21
leaf_count=29 21
internal_value=0
internal_weight=0
internal_count=50
is_linear=0
shrinkage=0.001


Tree=193
num_leaves=2
num_cat=0
split_feature=9
split_gain=1.70877
threshold=0.262726813285248
decision_type=2
left_child=-1
right_child=-2
leaf_value=-0.00016454643245529513 0.00021001092795216078
leaf_weight=29 21
leaf_count=29 21
internal_value=0
internal_weight=0
internal_count=50
is_linear=0
shrinkage=0.001


Tree=194
num_leaves=2
num_cat=0
split_feature=9
split_gain=1.70536
threshold=0.262726813285248
decision_type=2
left_child=-1
right_child=-2
leaf_value=-0.00016438188432747947 0.0002098009158868254
leaf_weight=29 21
leaf_count=29 21
internal_value=0
internal_weight=0
internal_count=50
is_linear=0
shrinkage=0.001


Tree=195
num_leaves=2
num_cat=0
split_feature=9
split_gain=2.05294
threshold=0.262726813285248
decision_type=2
left_child=-1
right_child=-2
leaf_value=-0.0001671143919550653 0.00023798665709645403
leaf_weight=29 22
leaf_count=29 22
internal_value=0
internal_weight=0
internal_count=51
is_linear=0
shrinkage=0.001


Tree=196
num_leaves=2
num_cat=0
split_feature=9
split_gain=2.04884
threshold=0.262726813285248
decision_type=2
left_child=-1
right_child=-2
leaf_value=-0.00016694727424403717 0.00023774867191175212
leaf_weight=29 22
leaf_count=29 22
internal_value=0
internal_weight=0
internal_count=51
is_linear=0
shrinkage=0.001


Tree=197
num_leaves=2
num_cat=0
split_feature=9
split_gain=2.04475
threshold=0.262726813285248
decision_type=2
left_child=-1
right_child=-2
leaf_value=-0.00016678032718984217 0.00023751092643744249
leaf_weight=29 22
leaf_count=29 22
internal_value=0
internal_weight=0
internal_count=51
is_linear=0
shrinkage=0.001


Tree=198
num_leaves=2
num_cat=0
split_feature=9
split_gain=2.04066
threshold=0.262726813285248
decision_type=2
left_child=-1
right_child=-2
leaf_value=-0.00016661354738833575 0.00023727340851440782
leaf_weight=29 22
leaf_count=29 22
internal_value=0
internal_weight=0
internal_count=51
is_linear=0
shrinkage=0.001


Tree=199
num_leaves=2
num_cat=0
split_feature=9
split_gain=2.03658
threshold=0.262726813285248
decision_type=2
left_child=-1
right_child=-2
leaf_value=-0.00016644693198132105 0.00023703613942515486
leaf_weight=29 22
leaf_count=29 22
internal_value=0
internal_weight=0
internal_count=51
is_linear=0
shrinkage=0.001


Tree=200
num_leaves=2
num_cat=0
split_feature=9
split_gain=1.45913
threshold=1.0000000180025095e-35
decision_type=2
left_child=-1
right_child=-2
leaf_value=-0.00016435767402467522 0.00019587107768165879
leaf_weight=23 22
leaf_count=23 22
internal_value=0
internal_weight=0
internal_count=45
is_linear=0
shrinkage=0.001


Tree=201
num_leaves=2
num_cat=0
split_feature=9
split_gain=1.45622
threshold=1.0000000180025095e-35
decision_type=2
left_child=-1
right_child=-2
leaf_value=-0.0001641933143786762 0.00019567520272208971
leaf_weight=23 22
leaf_count=23 22
internal_value=0
internal_weight=0
internal_count=45
is_linear=0
shrinkage=0.001


Tree=202
num_leaves=2
num_cat=0
split_feature=9
split_gain=1.4533
threshold=1.0000000180025095e-35
decision_type=2
left_child=-1
right_child=-2
leaf_value=-0.00016402912431437037 0.00019547953258469616
leaf_weight=23 22
leaf_count=23 22
internal_value=0
internal_weight=0
internal_count=45
is_linear=0
shrinkage=0.001


Tree=203
num_leaves=2
num_cat=0
split_feature=9
split_gain=1.4504
threshold=1.0000000180025095e-35
decision_type=2
left_child=-1
right_child=-2
leaf_value=-0.00016386509573330048 0.00019528405146609822
leaf_weight=23 22
leaf_count=23 22
internal_value=0
internal_weight=0
internal_count=45
is_linear=0
shrinkage=0.001


Tree=204
num_leaves=2
num_cat=0
split_feature=9
split_gain=1.4475
threshold=1.0000000180025095e-35
decision_type=2
left_child=-1
right_child=-2
leaf_value=-0.00016370122912137406 0.00019508876702324909
leaf_weight=23 22
leaf_count=23 22
internal_value=0
internal_weight=0
internal_count=45
is_linear=0
shrinkage=0.001


Tree=205
num_leaves=2
num_cat=0
split_feature=9
split_gain=1.52844
threshold=1.0000000180025095e-35
decision_type=2
left_child=-1
right_child=-2
leaf_value=-0.00017494470869692472 0.00017135547772049903
leaf_weight=26 25
leaf_count=26 25
internal_value=0
internal_weight=0
internal_count=51
is_linear=0
shrinkage=0.001


Tree=206
num_leaves=2
num_cat=0
split_feature=9
split_gain=1.52539
threshold=1.0000000180025095e-35
decision_type=2
left_child=-1
right_child=-2
leaf_value=-0.00017476976505265788 0.00017118412099778653
leaf_weight=26 25
leaf_count=26 25
internal_value=0
internal_weight=0
internal_count=51
is_linear=0
shrinkage=0.001


Tree=207
num_leaves=2
num_cat=0
split_feature=9
split_gain=1.52234
threshold=1.0000000180025095e-35
decision_type=2
left_child=-1
right_child=-2
leaf_value=-0.0001745949933448663 0.0001710129365278408
leaf_weight=26 25
leaf_count=26 25
internal_value=0
internal_weight=0
internal_count=51
is_linear=0
shrinkage=0.001


Tree=208
num_leaves=2
num_cat=0
split_feature=9
split_gain=1.51929
threshold=1.0000000180025095e-35
decision_type=2
left_child=-1
right_child=-2
leaf_value=-0.00017442039916148552 0.00017084192517213525
leaf_weight=26 25
leaf_count=26 25
internal_value=0
internal_weight=0
internal_count=51
is_linear=0
shrinkage=0.001


Tree=209
num_leaves=2
num_cat=0
split_feature=0
split_gain=1.43523
threshold=-0.22022987763178914
decision_type=2
left_child=-1
right_child=-2
leaf_value=-0.00017624635711312295 0.00015932848134364648
leaf_weight=25 26
leaf_count=25 26
internal_value=0
internal_weight=0
internal_count=51
is_linear=0
shrinkage=0.001


Tree=210
num_leaves=2
num_cat=0
split_feature=9
split_gain=1.41051
threshold=1.0000000180025095e-35
decision_type=2
left_child=-1
right_child=-2
leaf_value=-0.00017857795953750611 0.00016797269050679777
leaf_weight=24 23
leaf_count=24 23
internal_value=0
internal_weight=0
internal_count=47
is_linear=0
shrinkage=0.001


Tree=211
num_leaves=2
num_cat=0
split_feature=9
split_gain=1.40769
threshold=1.0000000180025095e-35
decision_type=2
left_child=-1
right_child=-2
leaf_value=-0.000178399374242872 0.00016780471888816226
leaf_weight=24 23
leaf_count=24 23
internal_value=0
internal_weight=0
internal_count=47
is_linear=0
shrinkage=0.001


Tree=212
num_leaves=2
num_cat=0
split_feature=9
split_gain=1.40487
threshold=1.0000000180025095e-35
decision_type=2
left_child=-1
right_child=-2
leaf_value=-0.00017822097629929581 0.00016763692012097201
leaf_weight=24 23
leaf_count=24 23
internal_value=0
internal_weight=0
internal_count=47
is_linear=0
shrinkage=0.001


Tree=213
num_leaves=2
num_cat=0
split_feature=9
split_gain=1.40206
threshold=1.0000000180025095e-35
decision_type=2
left_child=-1
right_child=-2
leaf_value=-0.00017804275515178838 0.00016746928116671093
leaf_weight=24 23
leaf_count=24 23
internal_value=0
internal_weight=0
internal_count=47
is_linear=0
shrinkage=0.001


Tree=214
num_leaves=2
num_cat=0
split_feature=9
split_gain=1.39926
threshold=1.0000000180025095e-35
decision_type=2
left_child=-1
right_child=-2
leaf_value=-0.00017786471312865616 0.00016730180945571349
leaf_weight=24 23
leaf_count=24 23
internal_value=0
internal_weight=0
internal_count=47
is_linear=0
shrinkage=0.001


Tree=215
num_leaves=2
num_cat=0
split_feature=9
split_gain=1.55169
threshold=0.40300075491649395
decision_type=2
left_child=-1
right_child=-2
leaf_value=-0.00013150145438680006 0.00022576400619000198
leaf_weight=31 20
leaf_count=31 20
internal_value=0
internal_weight=0
internal_count=51
is_linear=0
shrinkage=0.001


Tree=216
num_leaves=2
num_cat=0
split_feature=9
split_gain=1.54858
threshold=0.40300075491649395
decision_type=2
left_child=-1
right_child=-2
leaf_value=-0.00013136995655123988 0.00022553823364432902
leaf_weight=31 20
leaf_count=31 20
internal_value=0
internal_weight=0
internal_count=51
is_linear=0
shrinkage=0.001


Tree=217
num_leaves=2
num_cat=0
split_feature=9
split_gain=1.54549
threshold=0.40300075491649395
decision_type=2
left_child=-1
right_child=-2
leaf_value=-0.00013123858252149677 0.00022531269537284972
leaf_weight=31 20
leaf_count=31 20
internal_value=0
internal_weight=0
internal_count=51
is_linear=0
shrinkage=0.001


Tree=218
num_leaves=2
num_cat=0
split_feature=9
split_gain=1.5424
threshold=0.40300075491649395
decision_type=2
left_child=-1
right_child=-2
leaf_value=-0.00013110734450240289 0.00022508738385513424
leaf_weight=31 20
leaf_count=31 20
internal_value=0
internal_weight=0
internal_count=51
is_linear=0
shrinkage=0.001


Tree=219
num_leaves=2
num_cat=0
split_feature=9
split_gain=1.53931
threshold=0.40300075491649395
decision_type=2
left_child=-1
right_child=-2
leaf_value=-0.00013097623884377461 0.00022486230509821326
leaf_weight=31 20
leaf_count=31 20
internal_value=0
internal_weight=0
internal_count=51
is_linear=0
shrinkage=0.001


Tree=220
num_leaves=2
num_cat=0
split_feature=0
split_gain=1.34178
threshold=-0.22022987763178914
decision_type=2
left_child=-1
right_child=-2
leaf_value=-0.00017548528203257808 0.00016154547294025266
leaf_weight=27 21
leaf_count=27 21
internal_value=0
internal_weight=0
internal_count=48
is_linear=0
shrinkage=0.001


Tree=221
num_leaves=2
num_cat=0
split_feature=0
split_gain=1.3391
threshold=-0.22022987763178914
decision_type=2
left_child=-1
right_child=-2
leaf_value=-0.000175309793540725 0.00016138393219028199
leaf_weight=27 21
leaf_count=27 21
internal_value=0
internal_weight=0
internal_count=48
is_linear=0
shrinkage=0.001


Tree=222
num_leaves=2
num_cat=0
split_feature=0
split_gain=1.33642
threshold=-0.22022987763178914
decision_type=2
left_child=-1
right_child=-2
leaf_value=-0.00017513448689822797 0.00016122254663856613
leaf_weight=27 21
leaf_count=27 21
internal_value=0
internal_weight=0
internal_count=48
is_linear=0
shrinkage=0.001


Tree=223
num_leaves=2
num_cat=0
split_feature=0
split_gain=1.33375
threshold=-0.22022987763178914
decision_type=2
left_child=-1
right_child=-2
leaf_value=-0.00017495934803176809 0.00016106132293740907
leaf_weight=27 21
leaf_count=27 21
internal_value=0
internal_weight=0
internal_count=48
is_linear=0
shrinkage=0.001


Tree=224
num_leaves=2
num_cat=0
split_feature=0
split_gain=1.33108
threshold=-0.22022987763178914
decision_type=2
left_child=-1
right_child=-2
leaf_value=-0.00017478439129061169 0.00016090026396947601
leaf_weight=27 21
leaf_count=27 21
