tree
version=v4
num_class=1
num_tree_per_iteration=1
label_index=0
max_feature_idx=12
objective=regression
feature_names=Column_0 Column_1 Column_2 Column_3 Column_4 Column_5 Column_6 Column_7 Column_8 Column_9 Column_10 Column_11 Column_12
feature_infos=[-1.2358984815527054:1.3159120100184736] [-0.86260857600378016:2.2924601761379773] [-0.72984239458493172:0.97462069387254679] none [-1.8633920484499338:1.9357172202326804] [-1.0770389518941499:2.5427523421366551] [-1.2838578518309087:2.7905720877757294] none [-1.4694444823361485:1.2683083057185129] [-1.4866096752974631:1.2210965799663152] [-2.3826587529073948:1.857926048029281] [-0.83275822265688304:1.5264160201707442] [-1.4493775248575518:2.7122498420015582]
tree_sizes=320 311 310 311 310 310 391 392 385 387 309 312 311 312 310 311 393 391 311 392 310 311 311 311 311 311 311 312 312 312 394 394 392 391 393 311 310 311 312 310 312 308 311 312 312 392 393 312 390 311 311 312 312 312 312 313 312 312 310 312 311 312 311 310 312 311 312 312 312 312 392 393 393 393 392 313 312 312 311 311 312 312 312 312 310 311 311 311 311 301 311 312 312 312 312 311 312 312 312 310 310 313 313 313 313 394 392 392 392 395 313 313 313 312 313 313 313 313 313 312 313 312 311 393 394 397 396 397 393 396 312 313 313 313 312 312 314 312 312 312 396 396 392 394 313 315 314 315 315 315 313 312 313 313 313 396 396 396 392 395 313 311 312 309 313 313 313 313 309 313 315 314 315 315 313 313 313 313 313 308 314 316 315 315 313 313 313 313 312 312 313 312 313 313 313 313 312 313 313 313 312 310 312 312 307 309 313 311 311 313 313 313 313 313 312 312 312 312 313 312 313 312 313 313 313 312 313 312 312 313 312 312 313 313 311 314 312 313 313 313 313 313 313 314 395 313 314 314 314 314 313 313 312 312 313 313 313 313 313 313 312 313 313 312 312 310 310 311 305 314 395 396 390 393 392 313 312 313 309 313 313 313 312 313 314 311 313 313 310 311 314 311 312 312 311 313 312 313 313 313 312 313 313 313 312 313 315 313 314 313 314 312 312 312 311 310 308 316 310 313 311 312 313 314 312 311 312 312 311 312 312 312 312 312 313 313 312 313 314 313 312 312 312 313 311 313 313 313 312 313 394 395 395 395 391 395 313 394 313 312 314 314 314 313 311 394 312 311 394 313 393 394 394 393 393 315 312 312 395 315 310 313 311 309 313 313 312 312 312 312 313 394 393 393 312 395 393 395 395 395 316 314 315 316 312 311 312 313 313 309 315 313 313 313 313 310 312 312 312 312 313 312 314 313 314 312 313 312 312 313 312 313 312 312 393 313 313 311 396 312 314 314 312 311 314 312 312 312 312 312 313 313 313 397 313 315 311 315 312 315 311 312 311 305 313 312 312 312 312 312 312 312 312 313 312 312 394 392 313 394 396 397 394 397 394 313 308 313 313 313 312 314 314 313 312 313 312 313 313 311 311 311 313 311 311 312 313 313 312 311 313 313 313 313 313 313 308 313 312 313 313 313 313 312 311 312 313 313 313 312 314 313 314 313 314 314 314 313 312 313 397 391 390 393 396 313 312 311 313 313 396 396 392 393 394 313 394 313 394 312 313 313 310 311 310 397 313 313 313 313 311 311 312 312 312 311 311 307 311 311 396 394 394 394 393 313 308 313 312 313 312 311 312 312 313 313 313 312 310 309 312 312 312 312 312 313 314 314 314 313 397 393 396 393 392 397 399 396 394 395 312 312 313 312 313 311 312 312 313 312 314 315 312 315 312 398 399 397 399 394 316 316 316 313 312 313 312 393 392 394 313 312 311 312 312 313 313 313 313 313 394 394 394 393 394 311 312 311 312 312 311 312 312 312 312 314 314 313 313 313 312 310 313 312 313 313 313 313 312 313 313 313 313 313 313 313 313 312 313 312 313 313 313 314 313 313 311 313 312 313 313 312 313 313 312 313 311 313 311 311 393 398 397 398 396 312 311 312 312 309 315 315 313 315 313 397 397 312 397 312 314 314 314 314 314 312 312 312 313 310 314 314 313 314 313 390 313 398 312 314 398 397 396 313 397 313 312 313 313 313 310 311 313 308 310 392 314 394 394 394 313 313 313 313 313 312 311 312 311 311 312 313 312 313 313 312 311 312 312 312 313 312 313 313 311 311 310 313 313 313 312 310 312 312 311 313 312 312 313 313 312 312 312 313 312 313 312 314 313 312 313 312 314 312 314 313 311 311 313 313 314 316 314 315 314 314 313 314 312 314 313 313 313 310 312 393 312 394 394 312 314 314 313 314 313 311 313 313 313 312 313 313 313 313 312 313 314 312 311 394 313 312 313 314 313 311 312 311 311 313 313 313 313 313 308 312 312 312 312 311 313 313 313 315 313 392 392 394 391 397 312 313 313 314 312 312 313 313 313 312 308 311 313 312 312 392 394 394 392 391 393 392 394 394 389 313 312 313 306 313 398 396 400 398 399 311 313 311 311 310 395 396 395 395 395 313 312 312 313 313 313 312 313 313 312 398 393 395 397 397 312 311 311 312 311 311 313 313 313 313 393 388 393 394 393 312 311 313 312 315 391 394 313 393 311 312 313 313 312 313 395 396 316 395 316 312 314 314 313 314 312 313 311 314 314 314 314 315 315 315 312 312 314 314 314 313 313 311 314 313 315 314 315 315 314 315 315 315 315 315 396 398 397 313 398 317 316 314 317 314 394 394 394 396 396 314 316 314 313 314 313 314 313 315 313 396 391 398 396 396 313 313 312 314 312 313 313 313 313 313 396 393 312 396 392 314 314 313 315 308 313 312 312 313 313 395 314 396 314 310 317 314 317 313 317 314 314 314 314 313 395 394 313 395 393 313 313 313 313 312 394 394 390 394 396 314 314 313 314 315 312 314 314 313 314 314 314 313 311 313 313 313 313 314 313 314 312 314 313 314 314 397 396 315 399 313 313 313 313 314 396 395 314 396 396 314 315 314 315 315 313 313 313 395 313 398 399 395 396 396 311 313 314 312 313 314 314 314 395 395 314 313 314 314 313 313 399 314 399 396 395 396 395 396 394 314 314 313 313 314 314 314 310 314 314 315 314 315 313 315 314 314 314 313 314 314 313 314 308 314 314 314 314 314 314 389 396 396 394 396 313 313 312 313 311 399 314 394 313 398 313 312 313 314 312 312 312 313 313 313 313 315 313 316 314 313 312 312 313 314 314 313 314 313 314 398 314 398 314 311 312 314 313 310 312 314 315 314 314 315 314 314 314 314 314 315 314 315 314 315 400 400 397 400 396 395 395 394 394 393 311 313 312 313 313 312 314 396 314 313 314 314 395 314 395 311 313 313 314 313 313 313 313 312 313 314 314 311 314 313 396 396 395 396 396 389 395 395 398 392 314 313 313 313 313 312 314 315 315 314 315 394 315 394 314 313 313 313 313 312 314 314 314 314 313 314 315 307 307 308 314 314 309 312 314 313 314 313 314 313 394 313 399 399 314 314 314 314 314 314 395 394 395 397 395 311 313 313 314 312 312 313 313 313 313 314 314 314 314 314 312 314 312 314 312 312 313 313 313 313 314 314 314 311 313 314 313 313 314 313 314 314 314 314 314 390 395 396 396 395 314 314 315 309 311 312 314 315 315 315 313 314 314 314 314 313 314 314 314 314 395 314 398 313 314 314 313 314 311 395 313 312 312 313 313 313 317 309 317 314 314 314 313 312 314 392 397 313 314 398 312 312 312 311 313 314 311 314 314 314 312 315 315 315 315 314 314 312 314 313 312 313 313 314 314 314 313 313 311 313 314 314 313 314 314 313 314 314 393 313 398 395 396 397 395 315 314 315 391 393 314 313 314 313 315 314 313 313 313 314 314 314 311 314 314 314 314 314 314 312 314 313 314 313 314 314 314 313 311 313 314 314 314 314 314 314 314 313 396 315 313 311 314 314 314 305 315 311 313 397 394 395 394 396 395 308 314 314 315 314 314 314 314 314 313 314 314 313 314 314 394 394 314 314 314 315 313 311 313 314 395 396 396 398 395 316 316 315 389 316 396 396 396 313 394 313 313 314 314 314 312 312 312 312 313 314 314 314 313 314 314 314 314 312 314 314 313 314 313 312 314 314 314 314 313 314 313 314 314 313 394 394 393 395 393 314 314 314 314 314 314 314 312 313 314 313 314 314 314 314 313 313 312 313 313 314 315 312 314 314 314 314 312 314 314 313 313 314 312 313 397 313 398 389 314 314 315 315 312 314 312 309 313 312 313 314 396 314 395 395 313 313 313 313 313 314 313 316 314 314 312 312 314 312 313 313 312 312 312 312 312 313 313 312 313 397 312 397 398 312 314 313 314 314 314 314 314 314 314 314 314 314 314 314 314 398 396 397 395 396 314 313 314 314 314 312 314 313 314 313 311 313 313 314 313 314 311 313 315 314 316 315 314 316 315 310 314 312 313 313 394 394 396 396 396 315 315 314 315 313 313 314 314 314 314 312 313 314 313 314 314 314 395 312 314 313 313 302 314 312 314 314 314 313 394 398 395 396 398 395 313 313 310 313 313 315 314 314 315 315 313 314 314 314 314 312 314 312 313 314 314 313 314 396 313 388 397 397 399 395 315 315 313 318 314 395 313 396 314 314 315 313 315 315 315 398 398 397 389 395 312 314 316 314 316 317 316 314 317 317 400 399 315 393 396 394 389 394 393 394 314 313 310 313 314 314 314 314 312 313 314 314 314 314 314 314 314 314 313 313 390 391 390 397 397 314 314 313 313 313 314 314 314 313 313 313 314 314 314 314 314 398 397 313 396 314 313 396 314 314 396 395 394 394 394 315 313 314 314 315 314 314 314 314 314 314 314 314 313 314 313 312 314 314 313 312 312 312 313 312 312 312 315 315 315 399 394 398 395 393 314 314 314 314 314 315 316 316 315 315 393 314 394 395 396 317 317 316 314 317 314 314 317 313 317 311 314 314 314 315 314 313 314 314 314 315 314 313 315 313 389 392 394 391 392 314 313 314 314 314 398 398 394 394 394 394 392 313 313 314 313 312 392 395 398 313 314 314 313 314 313 314 316 314 315 316 316 315 316 315 314 316 311 316 312 314 313 313 314 312 314 314 314 314 314 313 398 311 399 399 395 314 395 314 314 314 314 313 313 314 314 313 312 314 314 315 311 314 315 315 314 314 397 314 314 311 313 314 312 314 397 314 314 314 314 313 313 314 314 314 314 313 314 311 314 313 313 314 314 313 312 313 313 313 311 314 314 314 314 313 314 313 314 314 313 314 314 314 313 315 313 313 314 312 314 315 397 389 314 313 314 313 314 314 314 391 395 313 313 396 316 314 316 314 313 313 314 314 314 314 313 314 314 314 313 313 312 312 312 313 315 315 314 313 314 313 312 313 311 313 314 314 312 316 312 315 314 314 314 315 313 313 394 313 393 313 313 313 314 314 312 313 313 313 314 314 314 313 312 314 395 395 395 314 396 313 312 312 313 313 313 313 314 313 313 314 314 314 314 314 314 310 313 313 314 400 399 390 397 315 314 314 312 314 314 315 313 315 313 314 307 313 315 313 315 314 314 314 313 315 395 314 314 313 393 313 314 310 315 314 312 314 314 314 313 394 393 394 395 395 315 315 314 315 313 314 315 314 314 314 312 313 314 313 312 395 394 394 395 396 308 313 315 314 315 314 314 314 314 314 311 313 314 313 313 314 314 313 312 313 395 393 395 395 395 314 312 314 312 314 313 314 314 314 314 397 314 397 397 398 313 312 311 312 314 309 310 312 315 315 313 314 314 313 314 393 313 395 314 314 312 315 315 315 314 315 313 314 314 315 317 316 317 316 316 395 393 395 399 397 315 315 313 315 315 313 313 312 313 312 313 314 314 315 315 315 313 313 313 315 312 314 314 314 314 314 314 314 314 316 313 315 314 314 314 313 313 313 314 314 314 314 314 314 313 312 313 311 313 312 312 313 314 317 312 311 313 314 313 314 314 314 314 317 314 314 313 314 314 311 314 314 314 313 313 396 397 313 314 313 314 315 314 315 314 315 312 315 312 315 314 315 314 395 394 314 313 314 315 314 317 314 313 317 314 396 313 394 394 314 313 312 312 313 310 312 311 394 313 395 314 313 314 395 314 313 314 313 313 313 314 314 313 314 313 398 395 396 392 314 394 394 314 394 314 314 314 314 315 314 314 314 314 313 314 314 314 311 315 314 313 312 313 313 314 313 314 314 314 314 396 394 387 393 313 312 314 313 313 314 316 316 314 316 316 313 312 313 313 314 312 313 312 312 314 312 312 312 312 313 314 314 313 313 313 314 315 313 313 313 313 314 315 314 314 314 313 313 313 313 312 314 314 313 313 312 314 314 311 314 313 311 314 312 314 314 313 313 314 313 314 314 314 313 314 315 314 313 314 313 313 313 314 313 314 397 313 398 314 397 314 314 314 314 313 311 313 314 313 313 309 314 314 313 314 311 311 312 316 313 314 313 312 313 314 313 312 312 313 313 314 314 314 314 313 314 314 314 313 313 312 315 315 313 315 393 313 313 394 313 313 314 314 314 314 313 313 313 313 313 314 314 314 313 314 315 317 315 317 313 316 399 401 399 396 312 314 314 314 314 314 314 314 315 312 311 313 312 313 311 314 313 316 315 315 396 311 390 313 394 395 394 396 395 393 315 313 315 314 315 313 314 314 314 314 317 396 317 313 396 313 313 312 313 313 313 313 312 313 312 314 314 314 314 314 314 314 314 313 314 395 399 396 400 394 312 313 313 314 313 315 313 314 314 312 395 396 396 396 395 314 314 314 314 314 315 314 315 314 315 314 314 313 314 312 316 312 316 310 312 314 314 312 313 313 314 316 315 315 315 395 314 313 399 394 315 315 313 315 314 313 314 314 313 314 398 399 398 398 394 314 314 314 314 313 313 313 313 313 313 317 317 316 316 317 394 395 395 395 313 397 313 398 313 398 314 314 315 314 314 395 396 392 396 394 313 312 313 396 314 398 394 395 395 313 314 314 314 314 314 394 395 395 395 314 317 317 317 317 317 313 314 314 313 314 314 314 314 313 313 315 315 315 313 315 314 314 314 314 314 313 314 314 315 314 315 314 314 315 314 314 394 313 395 314 314 314 314 314 313 313 313 314 314 315 312 312 314 313 313 314 312 313 313 314 314 313 315 316 314 314 314 311 314 314 312 312 315 311 312 396 396 396 395 396 312 311 313 313 313 314 314 314 314 314 312 314 314 314 310 394 394 393 314 392 397 396 397 397 397 312 313 314 314 314 314 311 313 314 314 314 315 314 315 314 313 313 314 314 312 313 312 312 309 315 314 316 314 314 313 313 313 313 313 313 314 314 313 395 314 396 394 394 394 313 313 313 314 314 314 314 316 312 313 314 394 395 398 394 399 314 314 312 314 313 313 314 314 314 314 314 315 313 315 315 314 314 314 314 396 393 394 393 393 395 394 393 394 394 395 314 314 397 396 314 314 314 314 314 313 314 396 314 312 314 397 398 397 314 398 395 396 395 314 314 313 312 312 313 313 314 314 314 314 313 313 315 314 314 313 315 314 315 315 314 396 314 397 395 314 314 313 314 314 314 311 313 313 313 313 314 314 314 314 314 312 314 314 313 314 312 313 314 393 313 313 313 314 314 313 314 314 314 314 314 312 312 315 313 314 313 313 399 313 394 314 314 314 314 313 313 313 312 313 314 312 313 312 311 312 394 395 391 394 394 391 395 390 394 393 313 313 313 313 313 313 314 313 313 313 314 314 315 312 313 397 389 396 314 396 394 314 394 313 314 400 400 400 399 398 397 396 396 397 397 313 317 312 317 312 315 313 315 314 314 314 312 314 314 313 314 313 314 314 317 397 398 396 397 398 314 314 314 314 314 315 315 315 314 314 311 314 313 313 312 315 314 315 313 315 314 314 313 314 312 312 394 313 394 313 314 314 314 317 315 397 396 397 397 398 312 313 312 313 314 395 395 314 394 314 313 311 311 312 313 395 395 394 395 317 395 394 399 393 393 314 314 312 312 313 314 314 314 313 314 310 315 314 315 314 315 313 315 312 312 315 394 315 314 315 395 395 397 395 315 314 311 314 314 314 396 397 314 397 314 311 314 315 313 313 399 314 398 398 398 398 397 396 397 394 313 313 314 314 313 315 313 312 312 312 312 312 313 394 313 314 313 313 314 314 308 315 314 315 314 394 397 397 397 391 397 397 397 396 393 397 397 393 396 394 313 315 314 316 314 313 314 315 312 315 316 316 316 315 316 395 395 394 394 395 315 314 316 316 316 312 313 314 313 314 395 395 314 313 395 392 398 395 396 395 314 314 315 315 314 315 315 314 315 314 314 315 314 314 313 313 314 313 315 313 315 315 315 315 315 313 313 317 312 317 313 313 313 396 312 395 397 397 395 395 313 313 314 314 314 314 314 314 313 314 312 312 311 312 312 313 314 314 314 395 313 313 313 315 315 396 397 395 394 394 398 398 395 397 394 314 314 313 314 314 314 314 314 314 314 313 314 314 314 313 393 394 390 392 393 314 314 314 314 313 314 313 314 314 314 314 313 314 314 314 317 314 314 313 317 314 306 313 313 314 314 313 314 309 314 314 313 314 313 314 314 314 314 313 314 313 312 314 311 313 314 315 314 315 314 314 315 315 314 315 314 314 313 314 314 314 315 313 313 314 314 313 314 314 314 315 314 315 314 314 316 317 314 317 316 313 315 313 313 314 314 314 311 314 314 315 315 315 314 315 314 313 314 314 314 314 314 314 314 314 313 314 312 313 313 396 395 313 395 396 314 314 311 314 314 314 314 316 311 314 314 316 393 316 396 312 313 312 313 314 394 314 394 313 394 313 313 314 313 314 397 396 396 393 397 398 397 314 314 399 314 315 314 313 315 314 314 314 314 314 312 312 312 313 313 313 311 313 314 314 311 313 314 313 313 314 314 314 316 314 315 314 314 314 314 392 397 393 398 392 312 314 313 314 312 314 314 314 314 314 312 314 314 314 313 315 314 315 315 313 314 312 313 314 313 392 394 395 395 395 314 314 314 313 313 313 313 314 314 313 314 314 314 314 312 314 314 313 314 310 314 314 315 315 315 317 316 317 316 316 316 313 395 394 315 394 396 314 395 314 314 312 315 316 314 314 313 313 314 313 314 314 314 314 314 315 314 396 315 398 313 314 313 314 313 314 314 314 314 314 396 396 396 397 396 395 394 398 394 397 314 314 314 314 313 314 314 315 314 315 314 313 315 313 315 314 314 314 314 314 393 392 394 314 393 314 313 312 313 314 313 315 314 315 312 313 314 314 310 314 315 312 315 314 314 314 313 313 313 313 395 396 397 398 399 312 314 313 314 314 314 314 314 314 314 314 314 314 312 314 315 315 314 315 313 314 314 314 314 314 313 396 395 313 313 313 314 314 314 313 314 314 314 314 313 314 314 313 311 314 314 314 314 312 314 315 312 315 315 315 399 393 395 395 392 314 314 314 313 314 315 314 315 314 314 315 314 314 314 315 314 314 315 313 314 313 314 313 314 314 312 314 314 313 314 313 313 314 314 314 313 313 396 315 396 399 393 393 395 397 313 314 314 314 313 316 315 312 316 315 395 314 394 314 314 393 393 395 390 398 314 313 314 312 314 314 314 314 313 314 314 314 314 313 314 315 315 315 315 315 314 313 314 311 314 313 312 313 313 313 312 313 313 313 313 313 313 313 314 312 314 313 315 314 314 314 314 314 314 395 314 313 394 312 314 397 396 398 397 396 314 314 314 314 311 313 312 313 314 313 393 394 394 393 394 397 315 395 396 312 312 313 396 313 313 313 313 312 313 313 314 314 314 314 314 315 313 315 315 315 312 313 312 314 313 314 313 313 314 313 314 314 314 314 314 314 314 314 314 314 314 314 314 313 313 314 315 313 314 314 314 313 314 314 314 314 314 314 316 313 314 314 315 315 315 315 393 315 314 393 313 314 313 312 312 312 313 313 314 314 314 314 314 313 314 314 314 314 314 314 313 314 314 313 314 313 314 314 313 313 309 313 313 314 314 314 314 313 312 314 314 314 312 314 313 314 314 314 314 314 314 314 314 314 313 397 397 401 397 401 396 316 394 397 390 314 314 315 314 315 313 313 313 314 314 315 310 310 315 314 313 315 314 314 313 312 310 313 313 313 313 314 314 314 313 314 313 314 314 314 313 313 314 314 314 313 313 314 314 313 314 314 314 313 314 313 312 312 313 313 399 396 398 397 399 394 394 398 395 394 314 314 313 311 317 399 396 397 394 397 314 312 314 308 314 315 314 313 314 314 396 396 392 396 313 314 314 314 310 314 393 390 313 393 314 314 314 314 314 314 314 314 314 315 314 314 314 314 314 314 314 313 314 313 313 314 314 315 314 314 315 315 315 315 314 314 313 314 312 313 314 314 313 314 314 314 314 314 314 314 314 314 314 314 308 396 397 394 395 395 314 313 314 314 312 311 313 312 314 312 314 314 313 314 313 316 317 316 317 317 313 314 314 314 314 314 313 312 314 313 314 312 314 394 314 314 313 395 394 313 314 314 314 314 314 313 314 314 396 313 313 313 311 313 314 396 398 396 396 396 314 314 314 314 314 397 397 397 397 396 314 314 313 313 313 314 314 314 314 314 314 314 313 312 313 314 314 314 315 314 314 313 314 314 314 314 315 314 314 312 314 313 314 314 314 315 314 314 315 315 313 313 314 314 313 314 314 314 314 314 315 315 315 314 315 315 312 315 398 315 314 314 313 313 314 314 314 314 314 314 313 312 313 312 312 315 314 314 315 314 396 395 314 395 314 314 314 313 313 314 314 314 313 313 314 313 312 313 313 313 314 313 314 314 314 313 314 314 313 314 313 309 390 314 311 310 315 313 313 314 314 315 316 313 316 314 313 314 314 313 315 315 315 315 314 315 314 315 315 315 314 314 314 313 314 394 394 394 394 314 315 315 315 393 395 314 314 313 313 313 313 313 313 394 312 395 394 313 394 394 394 394 394 394 392 314 314 314 316 314 314 313 314 314 314 314 314 314 314 313 394 397 393 311 314 315 314 314 315 314 313 314 313 314 314 394 395 394 396 396 395 394 396 397 397 313 314 314 314 314 314 312 313 314 313 317 317 313 316 314 314 314 314 315 314 314 314 314 314 313 314 314 314 309 394 396 395 393 395 395 314 314 313 312 313 394 394 394 313 392 316 315 314 312 314 315 398 315 398 395 314 395 395 315 391 314 314 314 314 313 311 314 314 314 313 314 314 314 314 314 314 314 314 311 314 397 397 397 313 397 311 394 396 396 395 314 314 314 314 313 316 314 316 313 316 314 313 314 314 312 316 314 308 315 315 396 396 395 395 397 313 314 314 313 314 314 314 314 314 314 313 314 314 313 315 312 315 315 315 314 315 312 314 315 396 393 392 394 395 314 313 314 314 313 313 313 313 313 312 314 314 311 314 314 314 313 314 313 314 314 313 313 313 313 313 313 314 314 313 313 315 315 315 315 315 313 313 314 314 313 314 314 314 314 313 313 313 313 314 314 394 314 314 397 314 398 398 398 395 397 314 314 314 314 314 314 314 314 314 314 314 314 314 314 314 314 314 315 315 315 394 393 313 398 392 314 314 314 313 314 313 313 313 312 313 315 313 314 315 313 311 313 312 313 310 313 313 313 308 314 316 315 315 316 315 314 314 314 314 314 314 314 314 314 314 314 312 314 314 314 314 314 314 313 314 313 313 313 312 313 397 398 397 397 398 312 312 315 312 315 314 313 313 311 314 315 315 315 315 315 312 313 313 313 304 313 314 313 313 312 313 313 313 314 313 315 315 315 315 315 314 313 312 314 398 314 314 313 314 314 314 313 314 313 314 313 393 395 394 312 314 314 314 314 314 313 312 313 313 313 314 314 314 314 314 315 397 315 395 315 315 314 312 314 314 313 313 313 313 313 314 314 315 314 315 315 315 315 314 315 394 394 394 395 313 314 313 314 314 314 316 315 316 313 315 313 313 312 312 312 399 394 393 394 395 314 314 314 314 314 312 314 314 314 314 314 314 314 314 314 313 314 314 314 314 313 312 314 313 313 313 313 311 312 314 313 313 312 314 313 314 314 314 314 312 312 313 313 312 313 394 396 395 314 396 315 397 314 395 314 314 315 314 315 315 313 312 311 312 310 315 395 314 395 313 313 314 313 313 313 313 314 314 313 314 314 314 313 313 312 313 316 314 313 313 312 314 314 313 312 315 394 395 395 315 313 315 314 310 315 313 314 313 313 314 314 314 314 314 314 314 314 314 313 313 313 313 314 313 313 312 312 312 313 313 313 314 314 313 316 314 314 313 313 313 314 314 313 314 314 315 395 315 392 315 395 394 394 395 314 314 313 313 314 314 311 314 313 314 314 312 312 313 314 312 315 315 315 309 315 392 314 393 314 396 315 315 315 393 313 313 314 313 314 313 313 312 312 313 313 313 312 313 313 313 314 313 313 314 314 398 397 314 314 314 313 312 314 313 315 314 313 313 314 312 313 314 309 396 396 395 393 397 395 396 396 396 396 392 395 314 314 315 315 314 314 314 312 314 312 314 313 314 313 313 315 312 314 314 315 314 314 314 314 314 311 311 313 313 313 312 312 312 313 313 312 314 314 314 314 313 313 314 314 314 315 315 315 314 313 314 313 313 314 314 313 314 314 314 313 314 313 313 317 313 395 392 399 395 315 314 314 314 313 314 315 315 314 392 396 314 314 314 312 312 315 314 315 315 315 313 314 314 314 313 313 313 312 313 314 398 314 399 398 314 315 315 315 314 314 314 314 312 314 314 314 315 315 314 315 310 314 311 314 314 313 313 313 313 312 315 315 316 314 316 314 314 314 313 314 314 314 313 313 313 314 315 314 314 314 314 314 314 314 314 313 314 313 314 313 314 396 314 393 394 396 400 396 400 398 314 314 314 314 314 311 313 314 314 314 313 312 313 314 313 314 314 314 313 313 313 313 313 313 313 314 314 315 314 315 314 314 313 314 314 313 313 312 313 314 394 317 317 317 317 312 309 314 313 314 314 314 315 312 314 314 315 316 395 315 396 313 396 314 314 314 314 314 313 314 314 313 314 314 314 310 314 312 313 310 313 314 314 314 314 314 314 314 313 313 312 313 311 313 313 398 314 398 394 395 396 394 397 395 396 398 397 397 397 396 313 314 313 314 312 314 313 314 314 314 314 314 314 314 312 312 312 313 313 313 315 315 314 314 313 313 313 312 309 313 315 315 315 314 315 315 313 313 315 314 313 312 313 313 312 313 313 313 312 313 314 314 314 308 314 315 314 314 314 314 396 313 396 396 396 309 314 313 313 312 312 314 312 313 312 312 315 314 312 314 312 313 312 312 313 314 314 314 314 313 312 313 313 311 313 397 397 395 394 395 314 314 314 314 313 314 313 315 313 315 314 314 314 314 313 313 315 315 315 315 313 311 315 394 315 313 313 313 313 310 313 313 311 308 311 314 314 313 314 313 314 315 315 314 314 314 313 313 314 313 313 313 313 313 314 396 396 395 397 394 314 314 312 314 314 314 312 314 315 313 315 315 314 315 314 314 314 313 312 313 314 314 312 314 313 313 314 313 314 314 313 314 314 312 314 315 396 314 315 395 314 314 314 314 314 400 313 400 314 314 387 395 395 393 315 394 392 395 396 394 394 393 393 396 395 314 395 393 396 397 314 314 315 313 314 309 314 314 314 311 314 313 314 314 314 395 397 397 396 397 313 314 314 314 313 393 395 393 396 394 314 312 314 315 313 313 313 395 391 313 396 396 395 316 314 312 312 312 314 312 312 398 396 397 389 312 313 313 313 313 398 397 398 396 398 315 314 314 315 312 313 314 314 314 313 313 314 314 314 314 396 314 396 396 396 315 315 314 396 312 313 313 313 313 313 315 314 315 315 314 315 315 315 315 314 395 394 394 389 391 314 313 312 314 313 313 313 313 312 313 313 313 313 313 398 314 314 311 314 313 395 394 393 394 394 313 313 312 312 313 315 315 314 314 314 313 313 313 313 313 314 314 314 312 313 311 315 312 314 398 392 395 388 392 396 314 315 314 314 315 313 313 313 314 313 313 315 313 315 314 314 314 314 312 313 313 313 313 313 312 392 397 395 314 396 312 394 313 313 313 396 312 394 312 313 395 395 388 395 399 313 313 312 311 313 314 315 314 315 315 314 313 314 313 314 314 314 397 395 314 314 316 315 316 314 394 314 312 314 313 315 314 314 315 314 314 314 314 313 314 396 396 396 395 395 314 314 314 314 313 314 313 314 314 314 314 314 314 314 314 314 314 314 395 314 313 314 312 313 313 314 314 312 313 313 398 398 315 398 393 312 314 316 314 315 314 312 314 313 313 312 313 313 313 313 314 313 315 314 315 313 312 314 313 315 312 314 314 314 315 392 393 389 393 393 313 314 314 314 314 395 395 313 395 394 313 313 314 314 313 314 314 314 309 314 311 309 305 313 309 314 309 314 309 314 314 314 314 314 395 314 312 314 313 311 312 314 315 312 314 313 313 313 312 313 396 398 395 395 396 314 314 314 314 314 314 315 311 314 314 314 314 313 313 314 314 314 314 313 314 314 314 314 314 314 312 399 397 398 314 313 395 390 392 395 400 400 398 400 400 315 312 316 312 316 314 315 314 314 314 313 314 313 314 313 314 314 312 314 314 315 315 316 313 315 314 313 314 313 313 311 314 313 313 315 314 314 314 313 313 313 308 314 314 314 314 315 314 314 314 314 314 314 314 313 312 313 395 313 395 314 314 314 314 314 312 395 313 396 313 312 312 313 313 312 311 313 312 313 312 396 396 396 396 395 395 396 396 313 396 398 397 397 395 398 314 314 314 314 314 317 315 315 311 317 314 314 314 306 314 312 311 314 314 313 314 313 314 315 314 314 313 314 314 314 312 315 315 314 314 313 314 314 314 314 313 314 314 313 314 314 313 318 314 318 393 391 397 392 395 313 312 395 398 395 314 314 313 317 314 313 314 314 314 314 396 398 397 311 394 313 310 312 314 313 312 313 313 313 314 313 314 314 314 314 314 314 313 314 399 397 397 397 396 395 396 391 395 395 396 313 314 314 314 314 315 315 314 314 314 397 315 314 397 313 313 313 317 314 314 314 313 314 314 314 314 314 314 314 307 314 314 314 314 315 313 314 313 314 314 313 312 313 313 313 314 314 312 314 313 315 314 312 312 314 315 315 310 311 315 313 313 313 311 313 400 399 397 396 398 314 314 314 314 314 313 314 313 313 314 312 313 313 314 313 313 314 313 314 313 314 314 313 313 314 314 314 317 314 317 396 397 389 398 396 314 314 313 312 314 310 312 312 313 313 313 313 313 314 314 314 314 313 313 314 313 312 313 313 313 315 315 398 315 310 313 312 314 313 314 313 314 314 314 313 313 312 315 315 314 397 314 397 313 397 396 396 397 312 397 314 313 311 314 314 314 314 397 398 314 314 314 313 314 314 317 317 317 317 314 395 397 394 399 394 312 314 315 315 314 314 314 314 314 314 390 392 392 313 394 315 315 313 312 314 309 310 315 315 310 314 314 313 314 312 303 314 315 313 315 314 314 314 314 313 314 315 314 314 315 314 314 314 314 315 313 314 314 314 314 313 312 315 313 397 313 310 314 314 313 313 313 313 313 314 313 392 397 394 397 395 396 314 396 397 313 314 314 313 395 312 313 313 313 313 315 315 314 315 315 314 314 313 314 314 313 313 313 313 314 314 314 314 314 314 313 314 314 314 314 312 311 313 313 313 314 313 314 314 312 313 313 312 313 313 314 313 314 313 313 314 314 314 313 314 313 313 312 311 313 308 314 313 314 314 314 314 315 315 314 314 314 313 314 315 314 315 313 315 313 314 314 314 314 314 309 314 314 313 315 312 312 312 312 311 313 313 313 313 313 398 397 315 315 314 395 396 396 396 396 312 311 313 313 311 395 394 395 314 395 396 395 396 397 399 313 313 312 394 391 314 313 314 313 314 314 314 314 314 313 314 313 314 313 314 315 313 314 315 315 314 314 314 313 314 314 312 313 312 314 313 312 314 313 314 397 395 395 398 391 314 315 314 313 314 314 314 313 314 313 314 313 311 312 314 313 314 314 313 313 314 313 314 314 313 313 313 313 315 314 313 313 312 314 313 312 314 314 314 314 312 314 312 314 314 314 314 314 314 313 314 314 314 315 314 313 313 314 313 313 397 396 394 313 314 394 393 394 394 392 315 315 314 314 315 393 397 394 396 394 314 314 313 313 312 396 315 396 312 394 309 313 313 314 313 315 313 314 314 314 312 313 396 313 396 314 314 314 313 315 313 313 314 313 312 313 312 314 314 313 313 312 314 313 313 314 313 314 314 314 396 397 394 397 394 313 313 313 313 313 313 312 313 312 313 314 314 315 314 313 314 313 314 314 313 313 315 315 315 314 313 314 314 314 314 313 396 396 396 394 313 313 312 313 311 314 314 314 314 314 313 314 314 314 314 309 309 314 312 314 314 313 311 314 314 313 313 312 313 312 312 313 313 312 313 316 316 315 314 313 314 314 314 313 314 396 396 398 396 398 394 392 391 392 397 313 313 314 314 314 316 314 313 314 314 315 314 314 315 314 314 310 314 314 314 314 314 314 314 314 314 314 314 314 317 312 312 311 312 313 400 398 400 396 399 314 313 314 313 314 313 313 396 392 397 314 314 313 315 314 314 314 314 314 313 314 314 314 314 314 313 313 314 311 313 313 314 314 314 315 313 314 309 312 312 313 313 313 313 315 398 398 398 392 315 314 314 314 311 314 314 314 313 314 310 313 313 314 314 313 313 312 314 314 313 314 313 314 314 314 313 313 313 314 312 311 314 395 313 314 394 395 395 395 395 398 396 398 314 398 313 398 398 313 398 314 313 314 314 314 313 313 313 311 314 314 313 314 315 314 314 315 312 306 315 391 312 394 314 315 313 396 392 315 395 312 309 311 309 312 315 316 315 314 316 313 314 312 314 313 314 314 310 314 314 313 313 313 313 310 314 314 314 314 314 314 314 314 314 314 313 311 395 314 396 314 314 314 313 392 396 396 396 396 393 312 314 314 314 314 314 312 314 314 314 315 315 315 313 314 313 313 313 314 313 314 314 314 314 312 313 312 314 312 312 314 315 313 314 314 314 313 313 313 314 313 313 314 311 314 314 314 313 314 313 314 314 314 314 314 314 314 314 314 314 311 314 314 312 315 313 314 314 314 314 314 313 311 312 313 314 313 314 314 314 397 396 397 396 397 313 312 313 313 314 313 314 314 314 314 399 398 400 400 395 314 314 313 314 314 314 313 314 314 314 313 312 312 314 313 314 313 313 314 313 313 314 314 314 314 400 397 398 394 396 313 314 313 313 313 398 400 314 314 397 314 317 317 316 317 313 313 312 314 392 311 313 312 313 313 314 314 314 312 314 314 314 315 314 314 313 313 313 310 314 313 313 314 314 311 314 315 314 315 315 313 313 313 313 313 393 314 395 394 395 397 395 393 395 396 314 314 314 314 314 313 314 314 314 312 314 314 314 313 314 313 313 313 313 311 313 315 314 311 315 314 314 314 314 313 314 314 314 314 314 314 312 312 314 314 313 315 314 315 314 398 398 398 398 313 314 314 313 314 314 314 315 313 315 313 313 312 314 313 314 308 312 314 313 314 314 313 314 314 315 314 314 314 314 314 313 313 313 313 313 313 312 314 314 314 313 313 313 312 312 312 313 313 316 313 314 314 314 314 314 397 313 398 314 314 313 314 314 313 308 314 310 315 314 314 312 312 313 313 313 314 314 314 314 394 314 314 314 314 314 314 395 395 396 396 315 315 314 315 315 314 314 314 314 312 314 314 309 314 313 314 314 313 313 312 314 310 314 312 313 392 393 314 394 395 314 314 314 314 313 314 314 312 314 314 399 398 395 396 397 314 312 312 313 312 314 314 314 313 314 395 395 395 394 395 312 314 314 314 314 314 313 314 314 314 310 314 314 314 314 313 396 314 314 314 314 313 314 313 313 394 393 395 314 395 312 314 313 314 314 314 314 313 393 313 314 313 314 314 312 313 313 311 313 314 315 315 314 315 314 314 315 314 314 314 314 313 314 313 314 315 314 314 314 314 314 393 313 396 393 314 313 314 314 314 314 314 314 313 312 394 395 394 390 397 314 314 314 314 314 313 313 313 313 313 313 314 314 314 314 314 314 314 314 314 313 309 312 313 314 313 313 393 313 390 314 314 314 314 312 313 313 314 313 314 312 314 314 314 314 313 313 312 313 314 314 313 314 314 314 396 396 313 394 312 313 313 313 391 394 314 314 314 309 314 312 313 312 313 312 314 314 314 313 314 314 314 314 313 314 314 314 313 313 313 303 313 311 307 315 314 313 314 314 395 311 314 313 313 314 314 314 314 313 314 314 314 313 315 314 314 314 311 314 314 313 313 313 313 313 314 313 314 314 314 314 313 314 314 314 314 314 314 313 314 314 314 314 314 314 393 395 397 397 396 314 314 313 314 314 316 395 395 315 317 312 310 313 311 311 312 314 314 314 313 314 315 315 314 314 314 313 314 314 314 313 396 396 396 390 317 317 317 313 317 396 397 394 393 390 313 314 314 314 314 315 315 312 314 312 312 313 313 312 313 313 311 314 315 314 314 314 312 317 313 314 314 314 314 314 313 314 312 313 313 314 314 314 314 314 394 396 396 396 396 313 313 314 314 314 313 314 314 314 314 395 393 394 395 314 314 314 312 314 314 310 313 310 313 313 314 314 313 314 314 314 313 313 314 314 313 312 313 313 313 314 313 314 314 314 314 314 314 314 314 315 314 313 313 314 314 314 313 314 313 313 395 314 394 314 395 396 399 397 397 399 394 399 395 396 313 313 314 314 314 313 313 312 313 312 314 314 314 313 313 314 314 313 313 314 313 312 311 313 312 312 398 397 395 313 391 394 392 395 395 314 314 313 314 314 315 314 315 314 314 314 315 312 315 315 314 312 313 314 313 313 313 314 314 314 315 315 314 314 312 314 314 314 315 314 393 391 314 314 393 314 315 315 314 313 313 312 312 313 311 312 310 313 312 313 314 314 314 314 313 396 393 395 395 396 396 396 397 400 397 314 314 396 395 396 314 314 313 314 314 314 313 313 314 314 314 314 314 313 396 397 398 400 399 400 313 314 314 314 312 390 313 396 396 395 312 313 315 313 315 314 314 394 314 314 398 395 314 313 314 399 399 396 397 398 395 399 313 395 314 314 314 314 397 395 313 312 313 312 313 314 314 313 315 314 314 314 314 313 313 400 397 396 400 394 314 313 314 314 314 314 314 314 314 312 314 314 314 315 313 313 313 313 313 314 314 313 313 314 314 314 314 316 313 316 315 314 395 396 315 314 314 314 314 314 396 399 397 398 397 315 315 315 314 315 313 314 314 312 314 315 314 314 314 312 314 313 314 314 313 314 314 317 314 314 314 395 398 395 313 314 313 314 313 314 314 314 313 314 313 313 314 314 314 314 314 314 313 314 314 314 313 314 313 313 394 314 310 310 393 315 315 315 314 315 313 391 313 391 312 314 313 307 314 314 312 396 313 308 395 315 311 311 316 314 314 315 313 314 314 314 314 314 314 314 313 312 313 314 313 316 313 316 315 314 314 314 314 313 314 314 314 314 313 313 397 395 314 312 311 313 315 315 315 314 313 314 314 313 313 313 313 313 313 313 314 313 314 314 314 313 314 313 313 314 315 304 313 315 306 313 398 313 313 391 314 314 314 313 314 393 393 395 395 394 313 314 314 314 314 315 313 313 314 313 314 314 314 314 313 314 313 314 314 313 394 397 397 395 395 314 314 314 314 312 314 313 314 313 311 314 314 314 313 313 314 312 314 395 314 314 314 314 314 314 309 315 312 315 312 315 314 315 314 315 394 394 391 393 394 314 314 314 313 314 312 313 312 313 313 394 314 396 314 395 313 313 397 313 315 392 395 395 390 397 314 314 314 308 311 394 395 395 393 397 312 313 313 305 312 401 395 399 396 399 397 397 398 397 398 314 313 313 314 314 395 395 394 395 394 315 314 313 313 397 314 311 313 314 314 314 313 313 313 314 314 312 313 314 313 312 398 314 313 314 393 395 397 396 396 313 314 314 313 314 312 313 313 312 314 314 395 313 390 395 312 313 313 313 305 314 313 314 313 313 315 314 315 315 314 314 313 313 313 314 312 314 313 313 313 312 313 313 395 313 314 314 314 314 314 313 312 313 313 313 395 394 393 395 393 314 312 314 314 314 314 314 314 314 313 396 399 399 396 398 314 314 312 313 314 392 313 393 394 394 397 397 391 396 397 314 315 314 315 314 314 314 314 313 313 314 314 312 314 314 314 314 313 313 314 314 398 394 314 389 314 313 312 314 314 315 315 314 315 314 314 314 314 314 314 315 315 315 314 314 312 314 309 314 313 393 392 392 395 392 313 314 314 314 315 395 395 395 395 394 312 313 314 313 313 314 313 314 314 314 312 314 314 314 313 313 394 313 313 392 314 312 314 313 312 314 314 313 313 312 313 314 314 314 314 394 312 390 313 394 313 314 313 314 313 313 314 314 395 395 399 399 396 394 398

Tree=0
num_leaves=2
num_cat=0
split_feature=9
split_gain=2.50454e+15
threshold=1.0000000180025095e-35
decision_type=2
left_child=-1
right_child=-2
leaf_value=20190245.616571367 21485292.433451947
leaf_weight=28 32
leaf_count=28 32
internal_value=2.08626e+07
internal_weight=0
internal_count=60
is_linear=0
shrinkage=1


Tree=1
num_leaves=2
num_cat=0
split_feature=2
split_gain=2.05047e+15
threshold=-0.55587403784082701
decision_type=2
left_child=-1
right_child=-2
leaf_value=-548908.69934475806 620920.82198275859
leaf_weight=31 29
leaf_count=31 29
internal_value=0
internal_weight=0
internal_count=60
is_linear=0
shrinkage=0.1


Tree=2
num_leaves=2
num_cat=0
split_feature=0
split_gain=1.70948e+15
threshold=-0.59909178828311216
decision_type=2
left_child=-1
right_child=-2
leaf_value=-616710.47100000002 465978.3435825893
leaf_weight=25 35
leaf_count=25 35
internal_value=0
internal_weight=0
internal_count=60
is_linear=0
shrinkage=0.1


Tree=3
num_leaves=2
num_cat=0
split_feature=2
split_gain=1.40083e+15
threshold=-0.30174879459726994
decision_type=2
left_child=-1
right_child=-2
leaf_value=-438610.34682617191 529923.69598214282
leaf_weight=32 28
leaf_count=32 28
internal_value=0
internal_weight=0
internal_count=60
is_linear=0
shrinkage=0.1


Tree=4
num_leaves=2
num_cat=0
split_feature=0
split_gain=1.18344e+15
threshold=-0.73587777387608255
decision_type=2
left_child=-1
right_child=-2
leaf_value=-551258.2918478261 362190.27252956084
leaf_weight=23 37
leaf_count=23 37
internal_value=0
internal_weight=0
internal_count=60
is_linear=0
shrinkage=0.1


Tree=5
num_leaves=2
num_cat=0
split_feature=2
split_gain=8.59802e+14
threshold=-0.30174879459726994
decision_type=2
left_child=-1
right_child=-2
leaf_value=-319558.40953962057 439619.4923076923
leaf_weight=35 26
leaf_count=35 26
internal_value=0
internal_weight=0
internal_count=61
is_linear=0
shrinkage=0.1


Tree=6
num_leaves=3
num_cat=0
split_feature=8 0
split_gain=7.51927e+14 2.39043e+14
threshold=0.37359055541585956 -0.83343836654165704
decision_type=2 2
left_child=1 -1
right_child=-2 -3
leaf_value=-495228.77374999999 488178.39523809525 -6308.223774414063
leaf_weight=20 21 20
leaf_count=20 21 20
internal_value=0 -250768
internal_weight=0 40
internal_count=61 40
is_linear=0
shrinkage=0.1


Tree=7
num_leaves=3
num_cat=0
split_feature=8 0
split_gain=6.09061e+14 1.93625e+14
threshold=0.37359055541585956 -0.83343836654165704
decision_type=2 2
left_child=1 -1
right_child=-2 -3
leaf_value=-445705.87625000003 439360.54523809528 -5677.4015844726564
leaf_weight=20 21 20
leaf_count=20 21 20
internal_value=0 -225692
internal_weight=0 40
internal_count=61 40
is_linear=0
shrinkage=0.1


Tree=8
num_leaves=3
num_cat=0
split_feature=8 0
split_gain=4.9334e+14 1.56836e+14
threshold=0.37359055541585956 -0.83343836654165704
decision_type=2 2
left_child=1 -1
right_child=-2 -3
leaf_value=-401135.28625 395424.49523809529 -5109.6613531494149
leaf_weight=20 21 20
leaf_count=20 21 20
internal_value=0 -203122
internal_weight=0 40
internal_count=61 40
is_linear=0
shrinkage=0.1


Tree=9
num_leaves=3
num_cat=0
split_feature=0 0
split_gain=3.93527e+14 1.22042e+14
threshold=-0.83343836654165704 0.21257211152223429
decision_type=2 2
left_child=-1 -2
right_child=1 -3
leaf_value=-361021.77453125 3247.6100878906254 348409.37306547625
leaf_weight=20 20 21
leaf_count=20 20 21
internal_value=0 180038
internal_weight=0 41
internal_count=61 41
is_linear=0
shrinkage=0.1


Tree=10
num_leaves=2
num_cat=0
split_feature=8
split_gain=2.26898e+14
threshold=0.25470008478658174
decision_type=2
left_child=-1
right_child=-2
leaf_value=-152861.15472717286 267229.408203125
leaf_weight=36 20
leaf_count=36 20
internal_value=0
internal_weight=0
internal_count=56
is_linear=0
shrinkage=0.1


Tree=11
num_leaves=2
num_cat=0
split_feature=2
split_gain=1.94152e+14
threshold=-0.64105046699164214
decision_type=2
left_child=-1
right_child=-2
leaf_value=-252358.02423828124 136238.56522894965
leaf_weight=20 36
leaf_count=20 36
internal_value=0
internal_weight=0
internal_count=56
is_linear=0
shrinkage=0.1


Tree=12
num_leaves=2
num_cat=0
split_feature=8
split_gain=1.63398e+14
threshold=0.25470008478658174
decision_type=2
left_child=-1
right_child=-2
leaf_value=-129610.19746941462 226882.61001953125
leaf_weight=36 20
leaf_count=36 20
internal_value=0
internal_weight=0
internal_count=56
is_linear=0
shrinkage=0.1


Tree=13
num_leaves=2
num_cat=0
split_feature=9
split_gain=1.40335e+14
threshold=-0.54048891618197026
decision_type=2
left_child=-1
right_child=-2
leaf_value=-214447.92500000002 115929.86203342016
leaf_weight=20 36
leaf_count=20 36
internal_value=0
internal_weight=0
internal_count=56
is_linear=0
shrinkage=0.1


Tree=14
num_leaves=2
num_cat=0
split_feature=2
split_gain=1.15301e+14
threshold=-0.64105046699164214
decision_type=2
left_child=-1
right_child=-2
leaf_value=-194368.306796875 105095.30285915798
leaf_weight=20 36
leaf_count=20 36
internal_value=0
internal_weight=0
internal_count=56
is_linear=0
shrinkage=0.1


Tree=15
num_leaves=2
num_cat=0
split_feature=8
split_gain=1.92385e+14
threshold=0.25470008478658174
decision_type=2
left_child=-1
right_child=-2
leaf_value=-130246.45045072115 245175.50364583335
leaf_weight=39 21
leaf_count=39 21
internal_value=0
internal_weight=0
internal_count=60
is_linear=0
shrinkage=0.1


Tree=16
num_leaves=3
num_cat=0
split_feature=9 0
split_gain=1.65869e+14 5.10356e+13
threshold=0.49341997505476676 -0.83343836654165704
decision_type=2 2
left_child=1 -1
right_child=-2 -3
leaf_value=-229487.93001708985 236173.52255859377 -3577.2731054687501
leaf_weight=20 20 20
leaf_count=20 20 20
internal_value=0 -116533
internal_weight=0 40
internal_count=60 40
is_linear=0
shrinkage=0.1


Tree=17
num_leaves=3
num_cat=0
split_feature=0 0
split_gain=1.34401e+14 4.13238e+13
threshold=0.21257211152223429 -0.83343836654165704
decision_type=2 2
left_child=1 -1
right_child=-2 -3
leaf_value=-206539.13351562503 212593.197265625 -3256.5790820312504
leaf_weight=20 20 20
leaf_count=20 20 20
internal_value=0 -104898
internal_weight=0 40
internal_count=60 40
is_linear=0
shrinkage=0.1


Tree=18
num_leaves=2
num_cat=0
split_feature=8
split_gain=1.11656e+14
threshold=0.25470008478658174
decision_type=2
left_child=-1
right_child=-2
leaf_value=-99262.623948317312 186742.72154017858
leaf_weight=39 21
leaf_count=39 21
internal_value=0
internal_weight=0
internal_count=60
is_linear=0
shrinkage=0.1


Tree=19
num_leaves=3
num_cat=0
split_feature=9 0
split_gain=9.84741e+13 2.9671e+13
threshold=0.49341997505476676 -0.83343836654165704
decision_type=2 2
left_child=1 -1
right_child=-2 -3
leaf_value=-175958.95843750003 181931.2071484375 -3706.2838085937506
leaf_weight=20 20 20
leaf_count=20 20 20
internal_value=0 -89832.6
internal_weight=0 40
internal_count=60 40
is_linear=0
shrinkage=0.1


Tree=20
num_leaves=2
num_cat=0
split_feature=8
split_gain=9.3069e+13
threshold=0.37359055541585956
decision_type=2
left_child=-1
right_child=-2
leaf_value=-78047.425993303579 192370.12867187499
leaf_weight=35 20
leaf_count=35 20
internal_value=0
internal_weight=0
internal_count=55
is_linear=0
shrinkage=0.1


Tree=21
num_leaves=2
num_cat=0
split_feature=9
split_gain=7.84603e+13
threshold=0.49341997505476676
decision_type=2
left_child=-1
right_child=-2
leaf_value=-72029.291010044646 176259.67953125003
leaf_weight=35 20
leaf_count=35 20
internal_value=0
internal_weight=0
internal_count=55
is_linear=0
shrinkage=0.1


Tree=22
num_leaves=2
num_cat=0
split_feature=8
split_gain=6.52075e+13
threshold=0.37359055541585956
decision_type=2
left_child=-1
right_child=-2
leaf_value=-65877.341618303573 160472.93109375003
leaf_weight=35 20
leaf_count=35 20
internal_value=0
internal_weight=0
internal_count=55
is_linear=0
shrinkage=0.1


Tree=23
num_leaves=2
num_cat=0
split_feature=9
split_gain=5.61536e+13
threshold=0.35962353174605233
decision_type=2
left_child=-1
right_child=-2
leaf_value=-67712.841679243604 138540.91654829547
leaf_weight=33 22
leaf_count=33 22
internal_value=0
internal_weight=0
internal_count=55
is_linear=0
shrinkage=0.1


Tree=24
num_leaves=2
num_cat=0
split_feature=8
split_gain=4.78745e+13
threshold=0.15385203994883354
decision_type=2
left_child=-1
right_child=-2
leaf_value=-71858.934140625002 115512.27160937501
leaf_weight=30 25
leaf_count=30 25
internal_value=0
internal_weight=0
internal_count=55
is_linear=0
shrinkage=0.1


Tree=25
num_leaves=2
num_cat=0
split_feature=0
split_gain=2.64543e+13
threshold=-0.83343836654165704
decision_type=2
left_child=-1
right_child=-2
leaf_value=-103093.7066796875 38993.567064144736
leaf_weight=20 38
leaf_count=20 38
internal_value=0
internal_weight=0
internal_count=58
is_linear=0
shrinkage=0.1


Tree=26
num_leaves=2
num_cat=0
split_feature=0
split_gain=2.1428e+13
threshold=-0.83343836654165704
decision_type=2
left_child=-1
right_child=-2
leaf_value=-92784.338144531255 35094.211615953951
leaf_weight=20 38
leaf_count=20 38
internal_value=0
internal_weight=0
internal_count=58
is_linear=0
shrinkage=0.1


Tree=27
num_leaves=2
num_cat=0
split_feature=0
split_gain=1.73567e+13
threshold=-0.83343836654165704
decision_type=2
left_child=-1
right_child=-2
leaf_value=-83505.898867187498 31584.789967105266
leaf_weight=20 38
leaf_count=20 38
internal_value=0
internal_weight=0
internal_count=58
is_linear=0
shrinkage=0.1


Tree=28
num_leaves=2
num_cat=0
split_feature=0
split_gain=1.40589e+13
threshold=-0.83343836654165704
decision_type=2
left_child=-1
right_child=-2
leaf_value=-75155.313125000001 28426.311569695725
leaf_weight=20 38
leaf_count=20 38
internal_value=0
internal_weight=0
internal_count=58
is_linear=0
shrinkage=0.1


Tree=29
num_leaves=2
num_cat=0
split_feature=2
split_gain=1.13877e+13
threshold=-0.65281602197247235
decision_type=2
left_child=-1
right_child=-2
leaf_value=-67639.780937499992 25583.680540707239
leaf_weight=20 38
leaf_count=20 38
internal_value=0
internal_weight=0
internal_count=58
is_linear=0
shrinkage=0.1


Tree=30
num_leaves=3
num_cat=0
split_feature=9 0
split_gain=1.99708e+13 1.65429e+12
threshold=0.49341997505476676 -0.83343836654165704
decision_type=2 2
left_child=1 -1
right_child=-2 -3
leaf_value=-50537.303681640624 89965.684188988103 -10351.462992931549
leaf_weight=20 21 21
leaf_count=20 21 21
internal_value=0 -29954.3
internal_weight=0 41
internal_count=62 41
is_linear=0
shrinkage=0.1


Tree=31
num_leaves=3
num_cat=0
split_feature=9 0
split_gain=1.61763e+13 1.33997e+12
threshold=0.49341997505476676 -0.83343836654165704
decision_type=2 2
left_child=1 -1
right_child=-2 -3
leaf_value=-45483.571835937502 80969.112779017858 -9316.3156250000011
leaf_weight=20 21 21
leaf_count=20 21 21
internal_value=0 -26958.9
internal_weight=0 41
internal_count=62 41
is_linear=0
shrinkage=0.1


Tree=32
num_leaves=3
num_cat=0
split_feature=9 2
split_gain=1.31028e+13 1.08538e+12
threshold=0.49341997505476676 -0.65281602197247235
decision_type=2 2
left_child=1 -1
right_child=-2 -3
leaf_value=-40935.219843750005 72872.206659226198 -8384.6837134951638
leaf_weight=20 21 21
leaf_count=20 21 21
internal_value=0 -24263
internal_weight=0 41
internal_count=62 41
is_linear=0
shrinkage=0.1


Tree=33
num_leaves=3
num_cat=0
split_feature=8 4
split_gain=1.12552e+13 4.01408e+12
threshold=0.37359055541585956 -0.14930892297888718
decision_type=2 2
left_child=1 -1
right_child=-2 -3
leaf_value=9343.4309692382812 67307.496279761908 -53254.562202380948
leaf_weight=20 21 21
leaf_count=20 21 21
internal_value=0 -22719
internal_weight=0 41
internal_count=62 41
is_linear=0
shrinkage=0.1


Tree=34
num_leaves=3
num_cat=0
split_feature=8 4
split_gain=9.11668e+12 3.25141e+12
threshold=0.37359055541585956 -0.14930892297888718
decision_type=2 2
left_child=1 -1
right_child=-2 -3
leaf_value=8409.0866604614257 60576.746391369059 -47929.109226190478
leaf_weight=20 21 21
leaf_count=20 21 21
internal_value=0 -20447.1
internal_weight=0 41
internal_count=62 41
is_linear=0
shrinkage=0.1


Tree=35
num_leaves=2
num_cat=0
split_feature=2
split_gain=5.4984e+12
threshold=-0.65281602197247235
decision_type=2
left_child=-1
right_child=-2
leaf_value=-35415.124218750003 29075.518840770234
leaf_weight=20 39
leaf_count=20 39
internal_value=0
internal_weight=0
internal_count=59
is_linear=0
shrinkage=0.1


Tree=36
num_leaves=2
num_cat=0
split_feature=0
split_gain=4.4537e+12
threshold=-0.83343836654165704
decision_type=2
left_child=-1
right_child=-2
leaf_value=-31873.615783691406 26167.96749549279
leaf_weight=20 39
leaf_count=20 39
internal_value=0
internal_weight=0
internal_count=59
is_linear=0
shrinkage=0.1


Tree=37
num_leaves=2
num_cat=0
split_feature=0
split_gain=3.63261e+12
threshold=0.17535827720649971
decision_type=2
left_child=-1
right_child=-2
leaf_value=-11925.556958633815 40493.366611328129
leaf_weight=39 20
leaf_count=39 20
internal_value=0
internal_weight=0
internal_count=59
is_linear=0
shrinkage=0.1


Tree=38
num_leaves=2
num_cat=0
split_feature=0
split_gain=3.24577e+12
threshold=-0.83343836654165704
decision_type=2
left_child=-1
right_child=-2
leaf_value=-27493.693281250002 22055.577083333337
leaf_weight=20 39
leaf_count=20 39
internal_value=0
internal_weight=0
internal_count=59
is_linear=0
shrinkage=0.1


Tree=39
num_leaves=2
num_cat=0
split_feature=0
split_gain=2.63399e+12
threshold=0.17535827720649971
decision_type=2
left_child=-1
right_child=-2
leaf_value=-10397.57150315505 34238.472499999996
leaf_weight=39 20
leaf_count=39 20
internal_value=0
internal_weight=0
internal_count=59
is_linear=0
shrinkage=0.1


Tree=40
num_leaves=2
num_cat=0
split_feature=5
split_gain=3.47253e+12
threshold=-0.32061547390366663
decision_type=2
left_child=-1
right_child=-2
leaf_value=26218.353640624999 -23873.419981728832
leaf_weight=25 31
leaf_count=25 31
internal_value=0
internal_weight=0
internal_count=56
is_linear=0
shrinkage=0.1


Tree=41
num_leaves=2
num_cat=0
split_feature=5
split_gain=2.81275e+12
threshold=-0.32061547390366663
decision_type=2
left_child=-1
right_child=-2
leaf_value=23596.51815625 -21486.077419354842
leaf_weight=25 31
leaf_count=25 31
internal_value=0
internal_weight=0
internal_count=56
is_linear=0
shrinkage=0.1


Tree=42
num_leaves=2
num_cat=0
split_feature=5
split_gain=2.27833e+12
threshold=-0.32061547390366663
decision_type=2
left_child=-1
right_child=-2
leaf_value=21236.86696484375 -19337.470205393147
leaf_weight=25 31
leaf_count=25 31
internal_value=0
internal_weight=0
internal_count=56
is_linear=0
shrinkage=0.1


Tree=43
num_leaves=2
num_cat=0
split_feature=5
split_gain=1.84545e+12
threshold=-0.32061547390366663
decision_type=2
left_child=-1
right_child=-2
leaf_value=19113.179339843751 -17403.724424300653
leaf_weight=25 31
leaf_count=25 31
internal_value=0
internal_weight=0
internal_count=56
is_linear=0
shrinkage=0.1


Tree=44
num_leaves=2
num_cat=0
split_feature=5
split_gain=1.49481e+12
threshold=-0.32061547390366663
decision_type=2
left_child=-1
right_child=-2
leaf_value=17201.859500000002 -15663.351197076612
leaf_weight=25 31
leaf_count=25 31
internal_value=0
internal_weight=0
internal_count=56
is_linear=0
shrinkage=0.1


Tree=45
num_leaves=3
num_cat=0
split_feature=8 4
split_gain=4.51196e+12 3.76811e+12
threshold=0.37359055541585956 -0.16846884883363633
decision_type=2 2
left_child=1 -1
right_child=-2 -3
leaf_value=5870.995827414773 33890.603750000002 -52657.237464488637
leaf_weight=22 20 22
leaf_count=22 20 22
internal_value=0 -23393.1
internal_weight=0 44
internal_count=64 44
is_linear=0
shrinkage=0.1


Tree=46
num_leaves=3
num_cat=0
split_feature=8 4
split_gain=3.65469e+12 3.05217e+12
threshold=0.37359055541585956 -0.16846884883363633
decision_type=2 2
left_child=1 -1
right_child=-2 -3
leaf_value=5283.8961825284096 30501.539335937501 -47391.513494318184
leaf_weight=22 20 22
leaf_count=22 20 22
internal_value=0 -21053.8
internal_weight=0 44
internal_count=64 44
is_linear=0
shrinkage=0.1


Tree=47
num_leaves=2
num_cat=0
split_feature=4
split_gain=2.19072e+12
threshold=-0.14930892297888718
decision_type=2
left_child=-1
right_child=-2
leaf_value=-25427.024783761164 11868.153945583768
leaf_weight=28 36
leaf_count=28 36
internal_value=0
internal_weight=0
internal_count=64
is_linear=0
shrinkage=0.1


Tree=48
num_leaves=3
num_cat=0
split_feature=8 12
split_gain=2.79818e+12 2.60092e+12
threshold=0.37359055541585956 -0.32749354970279609
decision_type=2 2
left_child=1 -1
right_child=-2 -3
leaf_value=8532.5013867187499 27010.47267578125 -40295.51198323568
leaf_weight=20 20 24
leaf_count=20 20 24
internal_value=0 -18101
internal_weight=0 44
internal_count=64 44
is_linear=0
shrinkage=0.1


Tree=49
num_leaves=2
num_cat=0
split_feature=8
split_gain=2.45712e+12
threshold=0.15385203994883354
decision_type=2
left_child=-1
right_child=-2
leaf_value=-19810.848303865132 20084.717608173079
leaf_weight=38 26
leaf_count=38 26
internal_value=0
internal_weight=0
internal_count=64
is_linear=0
shrinkage=0.1


Tree=50
num_leaves=2
num_cat=0
split_feature=4
split_gain=7.05088e+12
threshold=-0.14930892297888718
decision_type=2
left_child=-1
right_child=-2
leaf_value=-21335.964460358795 48053.03759765625
leaf_weight=27 32
leaf_count=27 32
internal_value=0
internal_weight=0
internal_count=59
is_linear=0
shrinkage=0.1


Tree=51
num_leaves=2
num_cat=0
split_feature=4
split_gain=5.71121e+12
threshold=-0.14930892297888718
decision_type=2
left_child=-1
right_child=-2
leaf_value=-19202.368120659721 43247.729814147955
leaf_weight=27 32
leaf_count=27 32
internal_value=0
internal_weight=0
internal_count=59
is_linear=0
shrinkage=0.1


Tree=52
num_leaves=2
num_cat=0
split_feature=4
split_gain=4.62608e+12
threshold=-0.14930892297888718
decision_type=2
left_child=-1
right_child=-2
leaf_value=-17282.132009548612 38922.961376953128
leaf_weight=27 32
leaf_count=27 32
internal_value=0
internal_weight=0
internal_count=59
is_linear=0
shrinkage=0.1


Tree=53
num_leaves=2
num_cat=0
split_feature=4
split_gain=3.74712e+12
threshold=-0.14930892297888718
decision_type=2
left_child=-1
right_child=-2
leaf_value=-15553.918113425927 35030.665036010745
leaf_weight=27 32
leaf_count=27 32
internal_value=0
internal_weight=0
internal_count=59
is_linear=0
shrinkage=0.1


Tree=54
num_leaves=2
num_cat=0
split_feature=1
split_gain=4.32409e+12
threshold=-0.65658138950709277
decision_type=2
left_child=-1
right_child=-2
leaf_value=42264.789609375002 -12520.496283318016
leaf_weight=25 34
leaf_count=25 34
internal_value=0
internal_weight=0
internal_count=59
is_linear=0
shrinkage=0.1


Tree=55
num_leaves=2
num_cat=0
split_feature=10
split_gain=7.38832e+11
threshold=0.060511286233412467
decision_type=2
left_child=-1
right_child=-2
leaf_value=-18745.702476917617 4640.7844029017861
leaf_weight=22 35
leaf_count=22 35
internal_value=0
internal_weight=0
internal_count=57
is_linear=0
shrinkage=0.1


Tree=56
num_leaves=2
num_cat=0
split_feature=1
split_gain=4.03871e+12
threshold=-0.65658138950709277
decision_type=2
left_child=-1
right_child=-2
leaf_value=25118.486005108174 -28324.544282384071
leaf_weight=26 31
leaf_count=26 31
internal_value=0
internal_weight=0
internal_count=57
is_linear=0
shrinkage=0.1


Tree=57
num_leaves=2
num_cat=0
split_feature=1
split_gain=3.27135e+12
threshold=-0.65658138950709277
decision_type=2
left_child=-1
right_child=-2
leaf_value=22606.636746920074 -25492.088344254036
leaf_weight=26 31
leaf_count=26 31
internal_value=0
internal_weight=0
internal_count=57
is_linear=0
shrinkage=0.1


Tree=58
num_leaves=2
num_cat=0
split_feature=1
split_gain=2.6498e+12
threshold=-0.65658138950709277
decision_type=2
left_child=-1
right_child=-2
leaf_value=20345.975552133415 -22942.88185483871
leaf_weight=26 31
leaf_count=26 31
internal_value=0
internal_weight=0
internal_count=57
is_linear=0
shrinkage=0.1


Tree=59
num_leaves=2
num_cat=0
split_feature=1
split_gain=2.14633e+12
threshold=-0.65658138950709277
decision_type=2
left_child=-1
right_child=-2
leaf_value=18311.377418870194 -20648.592452116936
leaf_weight=26 31
leaf_count=26 31
internal_value=0
internal_weight=0
internal_count=57
is_linear=0
shrinkage=0.1


Tree=60
num_leaves=2
num_cat=0
split_feature=8
split_gain=2.16792e+12
threshold=0.15385203994883354
decision_type=2
left_child=-1
right_child=-2
leaf_value=-25702.842051373107 14291.120720108695
leaf_weight=33 23
leaf_count=33 23
internal_value=0
internal_weight=0
internal_count=56
is_linear=0
shrinkage=0.1


Tree=61
num_leaves=2
num_cat=0
split_feature=1
split_gain=1.95338e+12
threshold=-0.65658138950709277
decision_type=2
left_child=-1
right_child=-2
leaf_value=14022.281776494565 -23941.230918560606
leaf_weight=23 33
leaf_count=23 33
internal_value=0
internal_weight=0
internal_count=56
is_linear=0
shrinkage=0.1


Tree=62
num_leaves=2
num_cat=0
split_feature=8
split_gain=2.02367e+12
threshold=0.15385203994883354
decision_type=2
left_child=-1
right_child=-2
leaf_value=-23384.376621685606 15256.132880434785
leaf_weight=33 23
leaf_count=33 23
internal_value=0
internal_weight=0
internal_count=56
is_linear=0
shrinkage=0.1


Tree=63
num_leaves=2
num_cat=0
split_feature=4
split_gain=1.90272e+12
threshold=-0.14930892297888718
decision_type=2
left_child=-1
right_child=-2
leaf_value=-28047.243806966144 9200.61962890625
leaf_weight=24 32
leaf_count=24 32
internal_value=0
internal_weight=0
internal_count=56
is_linear=0
shrinkage=0.1


Tree=64
num_leaves=2
num_cat=0
split_feature=1
split_gain=2.01404e+12
threshold=-0.65658138950709277
decision_type=2
left_child=-1
right_child=-2
leaf_value=16629.584727411686 -21918.879450757577
leaf_weight=23 33
leaf_count=23 33
internal_value=0
internal_weight=0
internal_count=56
is_linear=0
shrinkage=0.1


Tree=65
num_leaves=2
num_cat=0
split_feature=1
split_gain=4.8774e+12
threshold=-0.65658138950709277
decision_type=2
left_child=-1
right_child=-2
leaf_value=25321.364521059786 -35050.765429687504
leaf_weight=23 32
leaf_count=23 32
internal_value=0
internal_weight=0
internal_count=55
is_linear=0
shrinkage=0.1


Tree=66
num_leaves=2
num_cat=0
split_feature=1
split_gain=3.95069e+12
threshold=-0.65658138950709277
decision_type=2
left_child=-1
right_child=-2
leaf_value=22789.227895720109 -31545.689880371094
leaf_weight=23 32
leaf_count=23 32
internal_value=0
internal_weight=0
internal_count=55
is_linear=0
shrinkage=0.1


Tree=67
num_leaves=2
num_cat=0
split_feature=1
split_gain=3.20006e+12
threshold=-0.65658138950709277
decision_type=2
left_child=-1
right_child=-2
leaf_value=20510.305324388588 -28391.121716308597
leaf_weight=23 32
leaf_count=23 32
internal_value=0
internal_weight=0
internal_count=55
is_linear=0
shrinkage=0.1


Tree=68
num_leaves=2
num_cat=0
split_feature=1
split_gain=2.59205e+12
threshold=-0.65658138950709277
decision_type=2
left_child=-1
right_child=-2
leaf_value=18459.273547628654 -25552.007662963868
leaf_weight=23 32
leaf_count=23 32
internal_value=0
internal_weight=0
internal_count=55
is_linear=0
shrinkage=0.1


Tree=69
num_leaves=2
num_cat=0
split_feature=1
split_gain=2.09956e+12
threshold=-0.65658138950709277
decision_type=2
left_child=-1
right_child=-2
leaf_value=16613.345694633153 -22996.805590820313
leaf_weight=23 32
leaf_count=23 32
internal_value=0
internal_weight=0
internal_count=55
is_linear=0
shrinkage=0.1


Tree=70
num_leaves=3
num_cat=0
split_feature=0 4
split_gain=1.0725e+13 5.51664e+12
threshold=-1.0429853438784045 -0.16846884883363633
decision_type=2 2
left_child=-1 -2
right_child=1 -3
leaf_value=-63184.668750000004 -9417.6573029891315 60625.902805397731
leaf_weight=20 23 22
leaf_count=20 23 22
internal_value=0 24825.9
internal_weight=0 45
internal_count=65 45
is_linear=0
shrinkage=0.1


Tree=71
num_leaves=3
num_cat=0
split_feature=0 10
split_gain=8.68727e+12 5.50545e+12
threshold=-1.0429853438784045 0.060511286233412467
decision_type=2 2
left_child=-1 -2
right_child=1 -3
leaf_value=-56866.201562500006 -8941.6645390624999 61449.44825195313
leaf_weight=20 25 20
leaf_count=20 25 20
internal_value=0 22343.3
internal_weight=0 45
internal_count=65 45
is_linear=0
shrinkage=0.1


Tree=72
num_leaves=3
num_cat=0
split_feature=0 1
split_gain=7.03669e+12 4.59388e+12
threshold=-1.0429853438784045 -0.25938641765310105
decision_type=2 2
left_child=-1 -2
right_child=1 -3
leaf_value=-51179.581953125002 48686.744410156251 -15613.300322265626
leaf_weight=20 25 20
leaf_count=20 25 20
internal_value=0 20108.9
internal_weight=0 45
internal_count=65 45
is_linear=0
shrinkage=0.1


Tree=73
num_leaves=3
num_cat=0
split_feature=0 10
split_gain=5.69972e+12 4.5504e+12
threshold=-1.0429853438784045 0.060511286233412467
decision_type=2 2
left_child=-1 -2
right_child=1 -3
leaf_value=-46061.622187500005 -10344.171244140627 53650.832246093756
leaf_weight=20 25 20
leaf_count=20 25 20
internal_value=0 18098.1
internal_weight=0 45
internal_count=65 45
is_linear=0
shrinkage=0.1


Tree=74
num_leaves=3
num_cat=0
split_feature=0 1
split_gain=4.61677e+12 3.8038e+12
threshold=-1.0429853438784045 -0.25938641765310105
decision_type=2 2
left_child=-1 -2
right_child=1 -3
leaf_value=-41455.460625000007 42292.687253906253 -16217.301718750001
leaf_weight=20 25 20
leaf_count=20 25 20
internal_value=0 16288.2
internal_weight=0 45
internal_count=65 45
is_linear=0
shrinkage=0.1


Tree=75
num_leaves=2
num_cat=0
split_feature=10
split_gain=4.23039e+12
threshold=0.060511286233412467
decision_type=2
left_child=-1
right_child=-2
leaf_value=-17920.341648065478 37505.915878906257
leaf_weight=21 40
leaf_count=21 40
internal_value=0
internal_weight=0
internal_count=61
is_linear=0
shrinkage=0.1


Tree=76
num_leaves=2
num_cat=0
split_feature=4
split_gain=5.38996e+12
threshold=-0.14930892297888718
decision_type=2
left_child=-1
right_child=-2
leaf_value=-21625.869955842394 39708.253680098685
leaf_weight=23 38
leaf_count=23 38
internal_value=0
internal_weight=0
internal_count=61
is_linear=0
shrinkage=0.1


Tree=77
num_leaves=2
num_cat=0
split_feature=4
split_gain=4.36587e+12
threshold=-0.14930892297888718
decision_type=2
left_child=-1
right_child=-2
leaf_value=-19463.282031250001 35737.428495065797
leaf_weight=23 38
leaf_count=23 38
internal_value=0
internal_weight=0
internal_count=61
is_linear=0
shrinkage=0.1


Tree=78
num_leaves=2
num_cat=0
split_feature=4
split_gain=3.53636e+12
threshold=-0.14930892297888718
decision_type=2
left_child=-1
right_child=-2
leaf_value=-17516.953736413045 32163.68252467105
leaf_weight=23 38
leaf_count=23 38
internal_value=0
internal_weight=0
internal_count=61
is_linear=0
shrinkage=0.1


Tree=79
num_leaves=2
num_cat=0
split_feature=8
split_gain=3.03738e+12
threshold=0.15385203994883354
decision_type=2
left_child=-1
right_child=-2
leaf_value=-6506.8193142361115 38865.700750000004
leaf_weight=36 25
leaf_count=36 25
internal_value=0
internal_weight=0
internal_count=61
is_linear=0
shrinkage=0.1


Tree=80
num_leaves=2
num_cat=0
split_feature=4
split_gain=9.95341e+11
threshold=-0.14930892297888718
decision_type=2
left_child=-1
right_child=-2
leaf_value=-9318.4889945652176 18537.895366379311
leaf_weight=23 29
leaf_count=23 29
internal_value=0
internal_weight=0
internal_count=52
is_linear=0
shrinkage=0.1


Tree=81
num_leaves=2
num_cat=0
split_feature=4
split_gain=8.06226e+11
threshold=-0.14930892297888718
decision_type=2
left_child=-1
right_child=-2
leaf_value=-8386.6395189368213 16684.104040948278
leaf_weight=23 29
leaf_count=23 29
internal_value=0
internal_weight=0
internal_count=52
is_linear=0
shrinkage=0.1


Tree=82
num_leaves=2
num_cat=0
split_feature=11
split_gain=7.50986e+11
threshold=-0.11308553568416517
decision_type=2
left_child=-1
right_child=-2
leaf_value=-4465.058070373535 20236.677968750002
leaf_weight=32 20
leaf_count=32 20
internal_value=0
internal_weight=0
internal_count=52
is_linear=0
shrinkage=0.1


Tree=83
num_leaves=2
num_cat=0
split_feature=4
split_gain=6.43645e+11
threshold=-0.14930892297888718
decision_type=2
left_child=-1
right_child=-2
leaf_value=-7960.6599906589681 14440.057920258621
leaf_weight=23 29
leaf_count=23 29
internal_value=0
internal_weight=0
internal_count=52
is_linear=0
shrinkage=0.1


Tree=84
num_leaves=2
num_cat=0
split_feature=2
split_gain=5.999e+11
threshold=-0.10810726781530004
decision_type=2
left_child=-1
right_child=-2
leaf_value=-4412.5240020751953 17665.032109375003
leaf_weight=32 20
leaf_count=32 20
internal_value=0
internal_weight=0
internal_count=52
is_linear=0
shrinkage=0.1


Tree=85
num_leaves=2
num_cat=0
split_feature=0
split_gain=8.94859e+12
threshold=-1.0429853438784045
decision_type=2
left_child=-1
right_child=-2
leaf_value=-44557.440625000003 38465.661834881757
leaf_weight=20 37
leaf_count=20 37
internal_value=0
internal_weight=0
internal_count=57
is_linear=0
shrinkage=0.1


Tree=86
num_leaves=2
num_cat=0
split_feature=0
split_gain=7.24836e+12
threshold=-1.0429853438784045
decision_type=2
left_child=-1
right_child=-2
leaf_value=-40101.696406250005 34619.097476773655
leaf_weight=20 37
leaf_count=20 37
internal_value=0
internal_weight=0
internal_count=57
is_linear=0
shrinkage=0.1


Tree=87
num_leaves=2
num_cat=0
split_feature=0
split_gain=5.87117e+12
threshold=-1.0429853438784045
decision_type=2
left_child=-1
right_child=-2
leaf_value=-36091.524218750004 31157.185602301524
leaf_weight=20 37
leaf_count=20 37
internal_value=0
internal_weight=0
internal_count=57
is_linear=0
shrinkage=0.1


Tree=88
num_leaves=2
num_cat=0
split_feature=0
split_gain=4.75565e+12
threshold=-1.0429853438784045
decision_type=2
left_child=-1
right_child=-2
leaf_value=-32482.373749999999 28041.468612753379
leaf_weight=20 37
leaf_count=20 37
internal_value=0
internal_weight=0
internal_count=57
is_linear=0
shrinkage=0.1


Tree=89
num_leaves=2
num_cat=0
split_feature=0
split_gain=3.85208e+12
threshold=-1.0429853438784045
decision_type=2
left_child=-1
right_child=-2
leaf_value=-29234.13625 25237.322265625
leaf_weight=20 37
leaf_count=20 37
internal_value=0
internal_weight=0
internal_count=57
is_linear=0
shrinkage=0.1


Tree=90
num_leaves=2
num_cat=0
split_feature=6
split_gain=2.09502e+12
threshold=-0.41878459704078741
decision_type=2
left_child=-1
right_child=-2
leaf_value=-36222.833035714284 2953.894871794872
leaf_weight=21 39
leaf_count=21 39
internal_value=0
internal_weight=0
internal_count=60
is_linear=0
shrinkage=0.1


Tree=91
num_leaves=2
num_cat=0
split_feature=6
split_gain=1.69697e+12
threshold=-0.41878459704078741
decision_type=2
left_child=-1
right_child=-2
leaf_value=-32600.548883928575 2658.5048477564105
leaf_weight=21 39
leaf_count=21 39
internal_value=0
internal_weight=0
internal_count=60
is_linear=0
shrinkage=0.1


Tree=92
num_leaves=2
num_cat=0
split_feature=1
split_gain=1.56292e+12
threshold=-0.65658138950709277
decision_type=2
left_child=-1
right_child=-2
leaf_value=11052.974414062501 -21891.895203993059
leaf_weight=24 36
leaf_count=24 36
internal_value=0
internal_weight=0
internal_count=60
is_linear=0
shrinkage=0.1


Tree=93
num_leaves=2
num_cat=0
split_feature=6
split_gain=1.51601e+12
threshold=-0.41878459704078741
decision_type=2
left_child=-1
right_child=-2
leaf_value=-29504.510007440476 3821.5781850961539
leaf_weight=21 39
leaf_count=21 39
internal_value=0
internal_weight=0
internal_count=60
is_linear=0
shrinkage=0.1


Tree=94
num_leaves=2
num_cat=0
split_feature=1
split_gain=1.39976e+12
threshold=-0.65658138950709277
decision_type=2
left_child=-1
right_child=-2
leaf_value=11648.398616536459 -19529.430360243055
leaf_weight=24 36
leaf_count=24 36
internal_value=0
internal_weight=0
internal_count=60
is_linear=0
shrinkage=0.1


Tree=95
num_leaves=2
num_cat=0
split_feature=4
split_gain=2.80082e+12
threshold=-0.18133804465390141
decision_type=2
left_child=-1
right_child=-2
leaf_value=-21875.56747622283 22798.273654513891
leaf_weight=23 36
leaf_count=23 36
internal_value=0
internal_weight=0
internal_count=59
is_linear=0
shrinkage=0.1


Tree=96
num_leaves=2
num_cat=0
split_feature=4
split_gain=2.26866e+12
threshold=-0.18133804465390141
decision_type=2
left_child=-1
right_child=-2
leaf_value=-19688.008678668481 20518.446766493056
leaf_weight=23 36
leaf_count=23 36
internal_value=0
internal_weight=0
internal_count=59
is_linear=0
shrinkage=0.1


Tree=97
num_leaves=2
num_cat=0
split_feature=4
split_gain=1.83762e+12
threshold=-0.18133804465390141
decision_type=2
left_child=-1
right_child=-2
leaf_value=-17719.207489809785 18466.601041666665
leaf_weight=23 36
leaf_count=23 36
internal_value=0
internal_weight=0
internal_count=59
is_linear=0
shrinkage=0.1


Tree=98
num_leaves=2
num_cat=0
split_feature=4
split_gain=1.48847e+12
threshold=-0.18133804465390141
decision_type=2
left_child=-1
right_child=-2
leaf_value=-15947.287093983527 16619.941623263887
leaf_weight=23 36
leaf_count=23 36
internal_value=0
internal_weight=0
internal_count=59
is_linear=0
shrinkage=0.1


Tree=99
num_leaves=2
num_cat=0
split_feature=4
split_gain=1.20566e+12
threshold=-0.18133804465390141
decision_type=2
left_child=-1
right_child=-2
leaf_value=-14352.5576171875 14957.948057725695
leaf_weight=23 36
leaf_count=23 36
internal_value=0
internal_weight=0
internal_count=59
is_linear=0
shrinkage=0.1


Tree=100
num_leaves=2
num_cat=0
split_feature=0
split_gain=4.87835e+12
threshold=0.077797684540925213
decision_type=2
left_child=-1
right_child=-2
leaf_value=14090.650390625 -48332.794940476189
leaf_weight=31 21
leaf_count=31 21
internal_value=0
internal_weight=0
internal_count=52
is_linear=0
shrinkage=0.1


Tree=101
num_leaves=2
num_cat=0
split_feature=1
split_gain=4.15997e+12
threshold=-0.65658138950709277
decision_type=2
left_child=-1
right_child=-2
leaf_value=21752.933623471468 -35195.799090786641
leaf_weight=23 29
leaf_count=23 29
internal_value=0
internal_weight=0
internal_count=52
is_linear=0
shrinkage=0.1


Tree=102
num_leaves=2
num_cat=0
split_feature=0
split_gain=3.43889e+12
threshold=0.077797684540925213
decision_type=2
left_child=-1
right_child=-2
leaf_value=12159.641666141633 -40251.121056547621
leaf_weight=31 21
leaf_count=31 21
internal_value=0
internal_weight=0
internal_count=52
is_linear=0
shrinkage=0.1


Tree=103
num_leaves=2
num_cat=0
split_feature=1
split_gain=2.93899e+12
threshold=-0.65658138950709277
decision_type=2
left_child=-1
right_child=-2
leaf_value=18589.550110394022 -29277.647575431034
leaf_weight=23 29
leaf_count=23 29
internal_value=0
internal_weight=0
internal_count=52
is_linear=0
shrinkage=0.1


Tree=104
num_leaves=2
num_cat=0
split_feature=0
split_gain=2.42379e+12
threshold=0.077797684540925213
decision_type=2
left_child=-1
right_child=-2
leaf_value=10474.415700604841 -33526.180578031999
leaf_weight=31 21
leaf_count=31 21
internal_value=0
internal_weight=0
internal_count=52
is_linear=0
shrinkage=0.1


Tree=105
num_leaves=3
num_cat=0
split_feature=8 0
split_gain=1.25243e+12 4.45226e+09
threshold=0.37359055541585956 -0.83343836654165704
decision_type=2 2
left_child=1 -1
right_child=-2 -3
leaf_value=-7723.9006250000011 21731.833710937499 -9808.667717633929
leaf_weight=20 20 21
leaf_count=20 20 21
internal_value=0 -8791.71
internal_weight=0 41
internal_count=61 41
is_linear=0
shrinkage=0.1


Tree=106
num_leaves=3
num_cat=0
split_feature=9 0
split_gain=2.50506e+12 1.7622e+11
threshold=0.35962353174605233 -0.83343836654165704
decision_type=2 2
left_child=1 -1
right_child=-2 -3
leaf_value=-6951.5085937500007 29062.634779575892 -20226.3077734375
leaf_weight=20 21 20
leaf_count=20 21 20
internal_value=0 -13588.9
internal_weight=0 40
internal_count=61 40
is_linear=0
shrinkage=0.1


Tree=107
num_leaves=3
num_cat=0
split_feature=9 0
split_gain=2.0291e+12 1.42738e+11
threshold=0.35962353174605233 -0.83343836654165704
decision_type=2 2
left_child=1 -1
right_child=-2 -3
leaf_value=-6256.3582812499999 26156.369507998515 -18203.677207031251
leaf_weight=20 21 20
leaf_count=20 21 20
internal_value=0 -12230
internal_weight=0 40
internal_count=61 40
is_linear=0
shrinkage=0.1


Tree=108
num_leaves=3
num_cat=0
split_feature=9 0
split_gain=1.64357e+12 1.15618e+11
threshold=0.35962353174605233 -0.83343836654165704
decision_type=2 2
left_child=1 -1
right_child=-2 -3
leaf_value=-5630.7251562500005 23540.734747023813 -16383.30855041504
leaf_weight=20 21 20
leaf_count=20 21 20
internal_value=0 -11007
internal_weight=0 40
internal_count=61 40
is_linear=0
shrinkage=0.1


Tree=109
num_leaves=3
num_cat=0
split_feature=9 0
split_gain=1.33129e+12 9.36507e+10
threshold=0.35962353174605233 -0.83343836654165704
decision_type=2 2
left_child=1 -1
right_child=-2 -3
leaf_value=-5067.6506250000002 21186.660937500001 -14744.978061523438
leaf_weight=20 21 20
leaf_count=20 21 20
internal_value=0 -9906.31
internal_weight=0 40
internal_count=61 40
is_linear=0
shrinkage=0.1


Tree=110
num_leaves=2
num_cat=0
split_feature=1
split_gain=1.50657e+12
threshold=-0.66802736233101079
decision_type=2
left_child=-1
right_child=-2
leaf_value=-19627.443984375001 14280.531568667764
leaf_weight=20 38
leaf_count=20 38
internal_value=0
internal_weight=0
internal_count=58
is_linear=0
shrinkage=0.1


Tree=111
num_leaves=2
num_cat=0
split_feature=0
split_gain=1.38093e+12
threshold=0.077797684540925213
decision_type=2
left_child=-1
right_child=-2
leaf_value=15293.305951286766 -16036.341959635416
leaf_weight=34 24
leaf_count=34 24
internal_value=0
internal_weight=0
internal_count=58
is_linear=0
shrinkage=0.1


Tree=112
num_leaves=2
num_cat=0
split_feature=1
split_gain=1.34328e+12
threshold=-0.66802736233101079
decision_type=2
left_child=-1
right_child=-2
leaf_value=-18880.733984375001 13136.970723684211
leaf_weight=20 38
leaf_count=20 38
internal_value=0
internal_weight=0
internal_count=58
is_linear=0
shrinkage=0.1


Tree=113
num_leaves=2
num_cat=0
split_feature=0
split_gain=1.23474e+12
threshold=0.077797684540925213
decision_type=2
left_child=-1
right_child=-2
leaf_value=14145.333542049633 -15479.58935546875
leaf_weight=34 24
leaf_count=34 24
internal_value=0
internal_weight=0
internal_count=58
is_linear=0
shrinkage=0.1


Tree=114
num_leaves=2
num_cat=0
split_feature=1
split_gain=1.19784e+12
threshold=-0.66802736233101079
decision_type=2
left_child=-1
right_child=-2
leaf_value=-18110.943398437503 12123.866663240133
leaf_weight=20 38
leaf_count=20 38
internal_value=0
internal_weight=0
internal_count=58
is_linear=0
shrinkage=0.1


Tree=115
num_leaves=2
num_cat=0
split_feature=0
split_gain=1.92537e+12
threshold=0.077797684540925213
decision_type=2
left_child=-1
right_child=-2
leaf_value=2983.2010475852276 -35208.618359375003
leaf_weight=33 22
leaf_count=33 22
internal_value=0
internal_weight=0
internal_count=55
is_linear=0
shrinkage=0.1


Tree=116
num_leaves=2
num_cat=0
split_feature=0
split_gain=1.55955e+12
threshold=0.077797684540925213
decision_type=2
left_child=-1
right_child=-2
leaf_value=2684.8813091856064 -31687.757439630685
leaf_weight=33 22
leaf_count=33 22
internal_value=0
internal_weight=0
internal_count=55
is_linear=0
shrinkage=0.1


Tree=117
num_leaves=2
num_cat=0
split_feature=4
split_gain=1.32312e+12
threshold=-0.14930892297888718
decision_type=2
left_child=-1
right_child=-2
leaf_value=-28252.639954144026 3191.6908691406252
leaf_weight=23 32
leaf_count=23 32
internal_value=0
internal_weight=0
internal_count=55
is_linear=0
shrinkage=0.1


Tree=118
num_leaves=2
num_cat=0
split_feature=2
split_gain=1.11145e+12
threshold=-0.55587403784082701
decision_type=2
left_child=-1
right_child=-2
leaf_value=4997.3818699428011 -23438.358579282409
leaf_weight=28 27
leaf_count=28 27
internal_value=0
internal_weight=0
internal_count=55
is_linear=0
shrinkage=0.1


Tree=119
num_leaves=2
num_cat=0
split_feature=0
split_gain=1.05957e+12
threshold=0.077797684540925213
decision_type=2
left_child=-1
right_child=-2
leaf_value=3267.047048857718 -25065.027077414776
leaf_weight=33 22
leaf_count=33 22
internal_value=0
internal_weight=0
internal_count=55
is_linear=0
shrinkage=0.1


Tree=120
num_leaves=2
num_cat=0
split_feature=2
split_gain=1.58665e+12
threshold=-0.55587403784082701
decision_type=2
left_child=-1
right_child=-2
leaf_value=20451.302180480958 -11843.418017578126
leaf_weight=32 29
leaf_count=32 29
internal_value=0
internal_weight=0
internal_count=61
is_linear=0
shrinkage=0.1


Tree=121
num_leaves=2
num_cat=0
split_feature=2
split_gain=1.28519e+12
threshold=-0.55587403784082701
decision_type=2
left_child=-1
right_child=-2
leaf_value=18406.172930908204 -10659.07508755388
leaf_weight=32 29
leaf_count=32 29
internal_value=0
internal_weight=0
internal_count=61
is_linear=0
shrinkage=0.1


Tree=122
num_leaves=2
num_cat=0
split_feature=2
split_gain=1.041e+12
threshold=-0.55587403784082701
decision_type=2
left_child=-1
right_child=-2
leaf_value=16565.555627441408 -9593.1684199892243
leaf_weight=32 29
leaf_count=32 29
internal_value=0
internal_weight=0
internal_count=61
is_linear=0
shrinkage=0.1


Tree=123
num_leaves=3
num_cat=0
split_feature=1 1
split_gain=1.147e+12 1.96751e+12
threshold=-0.66802736233101079 -0.25938641765310105
decision_type=2 2
left_child=-1 -2
right_child=1 -3
leaf_value=-15208.544698660713 35830.430273437501 -8526.1433203124998
leaf_weight=21 20 20
leaf_count=21 20 20
internal_value=0 13652.1
internal_weight=0 40
internal_count=61 40
is_linear=0
shrinkage=0.1


Tree=124
num_leaves=3
num_cat=0
split_feature=1 1
split_gain=9.29069e+11 1.59368e+12
threshold=-0.66802736233101079 -0.25938641765310105
decision_type=2 2
left_child=-1 -2
right_child=1 -3
leaf_value=-13687.689295014883 32247.38671081543 -7673.5294531250001
leaf_weight=21 20 20
leaf_count=21 20 20
internal_value=0 12286.9
internal_weight=0 40
internal_count=61 40
is_linear=0
shrinkage=0.1


Tree=125
num_leaves=3
num_cat=0
split_feature=2 2
split_gain=3.06396e+12 8.69296e+10
threshold=-0.047638586201861045 -0.65281602197247235
decision_type=2 2
left_child=1 -1
right_child=-2 -3
leaf_value=-16459.661718750001 36000.529257812501 -7247.7208798363099
leaf_weight=20 20 21
leaf_count=20 20 21
internal_value=0 -11741.4
internal_weight=0 41
internal_count=61 41
is_linear=0
shrinkage=0.1


Tree=126
num_leaves=3
num_cat=0
split_feature=2 0
split_gain=2.48181e+12 7.0413e+10
threshold=-0.047638586201861045 -0.83343836654165704
decision_type=2 2
left_child=1 -1
right_child=-2 -3
leaf_value=-14813.697109375002 32400.477773437498 -6522.9485491071428
leaf_weight=20 20 21
leaf_count=20 20 21
internal_value=0 -10567.2
internal_weight=0 41
internal_count=61 41
is_linear=0
shrinkage=0.1


Tree=127
num_leaves=3
num_cat=0
split_feature=2 1
split_gain=2.01026e+12 6.13337e+10
threshold=-0.047638586201861045 -0.66802736233101079
decision_type=2 2
left_child=1 -1
right_child=-2 -3
leaf_value=-5735.9625000000005 29160.428847656251 -13473.753281249999
leaf_weight=21 20 20
leaf_count=21 20 20
internal_value=0 -9510.49
internal_weight=0 41
internal_count=61 41
is_linear=0
shrinkage=0.1


Tree=128
num_leaves=3
num_cat=0
split_feature=2 0
split_gain=1.62831e+12 5.44728e+10
threshold=-0.047638586201861045 -0.83343836654165704
decision_type=2 2
left_child=1 -1
right_child=-2 -3
leaf_value=-12294.463046875 26244.38477539063 -5002.2846121651783
leaf_weight=20 20 21
leaf_count=20 20 21
internal_value=0 -8559.44
internal_weight=0 41
internal_count=61 41
is_linear=0
shrinkage=0.1


Tree=129
num_leaves=3
num_cat=0
split_feature=2 1
split_gain=1.31893e+12 4.74274e+10
threshold=-0.047638586201861045 -0.66802736233101079
decision_type=2 2
left_child=1 -1
right_child=-2 -3
leaf_value=-4384.3419782366072 23619.948204345706 -11188.618092651368
leaf_weight=21 20 20
leaf_count=21 20 20
internal_value=0 -7703.5
internal_weight=0 41
internal_count=61 41
is_linear=0
shrinkage=0.1


Tree=130
num_leaves=2
num_cat=0
split_feature=1
split_gain=2.26431e+12
threshold=-0.65658138950709277
decision_type=2
left_child=-1
right_child=-2
leaf_value=7349.4881436861488 -31378.61238471137
leaf_weight=26 36
leaf_count=26 36
internal_value=0
internal_weight=0
internal_count=62
is_linear=0
shrinkage=0.1


Tree=131
num_leaves=2
num_cat=0
split_feature=1
split_gain=1.83409e+12
threshold=-0.65658138950709277
decision_type=2
left_child=-1
right_child=-2
leaf_value=6614.5388221153844 -28240.750638834637
leaf_weight=26 36
leaf_count=26 36
internal_value=0
internal_weight=0
internal_count=62
is_linear=0
shrinkage=0.1


Tree=132
num_leaves=2
num_cat=0
split_feature=1
split_gain=1.48562e+12
threshold=-0.65658138950709277
decision_type=2
left_child=-1
right_child=-2
leaf_value=5953.0858774038461 -25416.675694444446
leaf_weight=26 36
leaf_count=26 36
internal_value=0
internal_weight=0
internal_count=62
is_linear=0
shrinkage=0.1


Tree=133
num_leaves=2
num_cat=0
split_feature=1
split_gain=1.20335e+12
threshold=-0.65658138950709277
decision_type=2
left_child=-1
right_child=-2
leaf_value=5357.7768329326927 -22875.007769097225
leaf_weight=26 36
leaf_count=26 36
internal_value=0
internal_weight=0
internal_count=62
is_linear=0
shrinkage=0.1


Tree=134
num_leaves=2
num_cat=0
split_feature=1
split_gain=9.74713e+11
threshold=-0.65658138950709277
decision_type=2
left_child=-1
right_child=-2
leaf_value=4821.9980018028846 -20587.50766059028
leaf_weight=26 36
leaf_count=26 36
internal_value=0
internal_weight=0
internal_count=62
is_linear=0
shrinkage=0.1


Tree=135
num_leaves=2
num_cat=0
split_feature=9
split_gain=2.43899e+12
threshold=0.35962353174605233
decision_type=2
left_child=-1
right_child=-2
leaf_value=-11947.108624588816 31196.064531250002
leaf_weight=38 20
leaf_count=38 20
internal_value=0
internal_weight=0
internal_count=58
is_linear=0
shrinkage=0.1


Tree=136
num_leaves=2
num_cat=0
split_feature=2
split_gain=1.10613e+12
threshold=-0.047638586201861045
decision_type=2
left_child=-1
right_child=-2
leaf_value=-7767.0822529560819 20967.625744047618
leaf_weight=37 21
leaf_count=37 21
internal_value=0
internal_weight=0
internal_count=58
is_linear=0
shrinkage=0.1


Tree=137
num_leaves=2
num_cat=0
split_feature=9
split_gain=1.82764e+12
threshold=0.35962353174605233
decision_type=2
left_child=-1
right_child=-2
leaf_value=-10505.013445723685 26841.740097656253
leaf_weight=38 20
leaf_count=38 20
internal_value=0
internal_weight=0
internal_count=58
is_linear=0
shrinkage=0.1


Tree=138
num_leaves=2
num_cat=0
split_feature=9
split_gain=1.48039e+12
threshold=0.35962353174605233
decision_type=2
left_child=-1
right_child=-2
leaf_value=-9454.5126644736847 24157.565507812502
leaf_weight=38 20
leaf_count=38 20
internal_value=0
internal_weight=0
internal_count=58
is_linear=0
shrinkage=0.1


Tree=139
num_leaves=2
num_cat=0
split_feature=9
split_gain=1.19912e+12
threshold=0.35962353174605233
decision_type=2
left_child=-1
right_child=-2
leaf_value=-8509.0609991776328 21741.806430664063
leaf_weight=38 20
leaf_count=38 20
internal_value=0
internal_weight=0
internal_count=58
is_linear=0
shrinkage=0.1


Tree=140
num_leaves=3
num_cat=0
split_feature=2 6
split_gain=1.29938e+12 3.08776e+12
threshold=-0.047638586201861045 -0.20006306308830243
decision_type=2 2
left_child=1 -1
right_child=-2 -3
leaf_value=23898.499467773439 26429.620371093755 -30391.499893465912
leaf_weight=20 20 22
leaf_count=20 20 22
internal_value=0 -4539.12
internal_weight=0 42
internal_count=62 42
is_linear=0
shrinkage=0.1


Tree=141
num_leaves=3
num_cat=0
split_feature=2 6
split_gain=1.05249e+12 2.50108e+12
threshold=-0.047638586201861045 -0.20006306308830243
decision_type=2 2
left_child=1 -1
right_child=-2 -3
leaf_value=21508.649470214845 23786.659960937501 -27352.349893465915
leaf_weight=20 20 22
leaf_count=20 20 22
internal_value=0 -4085.21
internal_weight=0 42
internal_count=62 42
is_linear=0
shrinkage=0.1


Tree=142
num_leaves=3
num_cat=0
split_feature=2 6
split_gain=8.5252e+11 2.02588e+12
threshold=-0.047638586201861045 -0.20006306308830243
decision_type=2 2
left_child=1 -1
right_child=-2 -3
leaf_value=19357.784775390624 21407.993671875 -24617.113778409093
leaf_weight=20 20 22
leaf_count=20 20 22
internal_value=0 -3676.69
internal_weight=0 42
internal_count=62 42
is_linear=0
shrinkage=0.1


Tree=143
num_leaves=3
num_cat=0
split_feature=2 12
split_gain=6.90541e+11 1.64096e+12
threshold=-0.047638586201861045 -0.24537381465322974
decision_type=2 2
left_child=1 -1
right_child=-2 -3
leaf_value=17422.005761718752 19267.1941796875 -22155.40252130682
leaf_weight=20 20 22
leaf_count=20 20 22
internal_value=0 -3309.02
internal_weight=0 42
internal_count=62 42
is_linear=0
shrinkage=0.1


Tree=144
num_leaves=2
num_cat=0
split_feature=4
split_gain=6.18011e+11
threshold=-0.14930892297888718
decision_type=2
left_child=-1
right_child=-2
leaf_value=-7790.9542607060184 12345.267410714287
leaf_weight=27 35
leaf_count=27 35
internal_value=0
internal_weight=0
internal_count=62
is_linear=0
shrinkage=0.1


Tree=145
num_leaves=2
num_cat=0
split_feature=10
split_gain=1.01143e+12
threshold=0.060511286233412467
decision_type=2
left_child=-1
right_child=-2
leaf_value=-32530.374414062502 -5714.6794070512824
leaf_weight=22 39
leaf_count=22 39
internal_value=0
internal_weight=0
internal_count=61
is_linear=0
shrinkage=0.1


Tree=146
num_leaves=2
num_cat=0
split_feature=10
split_gain=8.19258e+11
threshold=0.060511286233412467
decision_type=2
left_child=-1
right_child=-2
leaf_value=-29277.33692294034 -5143.2126702724363
leaf_weight=22 39
leaf_count=22 39
internal_value=0
internal_weight=0
internal_count=61
is_linear=0
shrinkage=0.1


Tree=147
num_leaves=2
num_cat=0
split_feature=10
split_gain=6.63599e+11
threshold=0.060511286233412467
decision_type=2
left_child=-1
right_child=-2
leaf_value=-26349.604408957741 -4628.8895032051287
leaf_weight=22 39
leaf_count=22 39
internal_value=0
internal_weight=0
internal_count=61
is_linear=0
shrinkage=0.1


Tree=148
num_leaves=2
num_cat=0
split_feature=10
split_gain=5.37515e+11
threshold=0.060511286233412467
decision_type=2
left_child=-1
right_child=-2
leaf_value=-23714.643794389209 -4166.0020432692309
leaf_weight=22 39
leaf_count=22 39
internal_value=0
internal_weight=0
internal_count=61
is_linear=0
shrinkage=0.1


Tree=149
num_leaves=2
num_cat=0
split_feature=10
split_gain=4.35387e+11
threshold=0.060511286233412467
decision_type=2
left_child=-1
right_child=-2
leaf_value=-21343.179512162646 -3749.4017628205129
leaf_weight=22 39
leaf_count=22 39
internal_value=0
internal_weight=0
internal_count=61
is_linear=0
shrinkage=0.1


Tree=150
num_leaves=2
num_cat=0
split_feature=4
split_gain=1.72775e+12
threshold=-0.14930892297888718
decision_type=2
left_child=-1
right_child=-2
leaf_value=-7549.4309218750004 26870.706685267854
leaf_weight=25 35
leaf_count=25 35
internal_value=0
internal_weight=0
internal_count=60
is_linear=0
shrinkage=0.1


Tree=151
num_leaves=2
num_cat=0
split_feature=4
split_gain=1.39948e+12
threshold=-0.14930892297888718
decision_type=2
left_child=-1
right_child=-2
leaf_value=-6794.4875312499998 24183.63689732143
leaf_weight=25 35
leaf_count=25 35
internal_value=0
internal_weight=0
internal_count=60
is_linear=0
shrinkage=0.1


Tree=152
num_leaves=2
num_cat=0
split_feature=4
split_gain=1.13358e+12
threshold=-0.14930892297888718
decision_type=2
left_child=-1
right_child=-2
leaf_value=-6115.0398046875007 21765.273984375002
leaf_weight=25 35
leaf_count=25 35
internal_value=0
internal_weight=0
internal_count=60
is_linear=0
shrinkage=0.1


Tree=153
num_leaves=2
num_cat=0
split_feature=4
split_gain=9.18199e+11
threshold=-0.14930892297888718
decision_type=2
left_child=-1
right_child=-2
leaf_value=-5503.5341171875007 19588.744698660714
leaf_weight=25 35
leaf_count=25 35
internal_value=0
internal_weight=0
internal_count=60
is_linear=0
shrinkage=0.1


Tree=154
num_leaves=2
num_cat=0
split_feature=1
split_gain=8.53628e+11
threshold=-0.65658138950709277
decision_type=2
left_child=-1
right_child=-2
leaf_value=22828.723527018228 -1518.7065483940974
leaf_weight=24 36
leaf_count=24 36
internal_value=0
internal_weight=0
internal_count=60
is_linear=0
shrinkage=0.1


Tree=155
num_leaves=3
num_cat=0
split_feature=4 1
split_gain=1.83504e+12 9.02995e+11
threshold=-0.14856638004072739 -0.66099904805303356
decision_type=2 2
left_child=1 -1
right_child=-2 -3
leaf_value=-343.01292317708339 23111.305371093753 -29113.572460937503
leaf_weight=24 20 20
leaf_count=24 20 20
internal_value=0 -13420.5
internal_weight=0 44
internal_count=64 44
is_linear=0
shrinkage=0.1


Tree=156
num_leaves=3
num_cat=0
split_feature=4 1
split_gain=1.48638e+12 7.31426e+11
threshold=-0.14856638004072739 -0.66099904805303356
decision_type=2 2
left_child=1 -1
right_child=-2 -3
leaf_value=-308.71228841145836 20800.174238281252 -26202.214687500003
leaf_weight=24 20 20
leaf_count=24 20 20
internal_value=0 -12078.5
internal_weight=0 44
internal_count=64 44
is_linear=0
shrinkage=0.1


Tree=157
num_leaves=3
num_cat=0
split_feature=4 1
split_gain=1.20397e+12 5.92455e+11
threshold=-0.14856638004072739 -0.66099904805303356
decision_type=2 2
left_child=1 -1
right_child=-2 -3
leaf_value=-277.84085286458338 18720.156279296876 -23581.993281250001
leaf_weight=24 20 20
leaf_count=24 20 20
internal_value=0 -10870.6
internal_weight=0 44
internal_count=64 44
is_linear=0
shrinkage=0.1


Tree=158
num_leaves=3
num_cat=0
split_feature=5 0
split_gain=9.92954e+11 1.89478e+12
threshold=-0.40836643878938189 -0.73587777387608255
decision_type=2 2
left_child=-1 -2
right_child=1 -3
leaf_value=-18091.554014521062 -14160.250390625 28847.446726190476
leaf_weight=23 20 21
leaf_count=23 20 21
internal_value=0 7868.08
internal_weight=0 41
internal_count=64 41
is_linear=0
shrinkage=0.1


Tree=159
num_leaves=3
num_cat=0
split_feature=4 1
split_gain=8.56228e+11 4.79598e+11
threshold=-0.14856638004072739 -0.66099904805303356
decision_type=2 2
left_child=1 -1
right_child=-2 -3
leaf_value=417.39786783854174 15840.956279296877 -20549.983593750003
leaf_weight=24 20 20
leaf_count=24 20 20
internal_value=0 -9113.23
internal_weight=0 44
internal_count=64 44
is_linear=0
shrinkage=0.1


Tree=160
num_leaves=2
num_cat=0
split_feature=1
split_gain=9.47275e+11
threshold=-0.65658138950709277
decision_type=2
left_child=-1
right_child=-2
leaf_value=12066.636702473959 -14043.726017992427
leaf_weight=24 33
leaf_count=24 33
internal_value=0
internal_weight=0
internal_count=57
is_linear=0
shrinkage=0.1


Tree=161
num_leaves=2
num_cat=0
split_feature=1
split_gain=1.04757e+12
threshold=-0.66802736233101079
decision_type=2
left_child=-1
right_child=-2
leaf_value=-21183.9737890625 7222.1683277027032
leaf_weight=20 37
leaf_count=20 37
internal_value=0
internal_weight=0
internal_count=57
is_linear=0
shrinkage=0.1


Tree=162
num_leaves=2
num_cat=0
split_feature=1
split_gain=9.29664e+11
threshold=-0.65658138950709277
decision_type=2
left_child=-1
right_child=-2
leaf_value=12504.93485107422 -13361.569649621213
leaf_weight=24 33
leaf_count=24 33
internal_value=0
internal_weight=0
internal_count=57
is_linear=0
shrinkage=0.1


Tree=163
num_leaves=2
num_cat=0
split_feature=1
split_gain=1.00858e+12
threshold=-0.66802736233101079
decision_type=2
left_child=-1
right_child=-2
leaf_value=-20316.07046875 7556.4702069256764
leaf_weight=20 37
leaf_count=20 37
internal_value=0
internal_weight=0
internal_count=57
is_linear=0
shrinkage=0.1


Tree=164
num_leaves=2
num_cat=0
split_feature=1
split_gain=9.10788e+11
threshold=-0.65658138950709277
decision_type=2
left_child=-1
right_child=-2
leaf_value=12821.506412760418 -12781.058759469699
leaf_weight=24 33
leaf_count=24 33
internal_value=0
internal_weight=0
internal_count=57
is_linear=0
shrinkage=0.1


Tree=165
num_leaves=2
num_cat=0
split_feature=2
split_gain=3.81645e+12
threshold=-0.55587403784082701
decision_type=2
left_child=-1
right_child=-2
leaf_value=22451.366033380684 -28243.776620370372
leaf_weight=33 27
leaf_count=33 27
internal_value=0
internal_weight=0
internal_count=60
is_linear=0
shrinkage=0.1


Tree=166
num_leaves=2
num_cat=0
split_feature=1
split_gain=3.29755e+12
threshold=-0.65658138950709277
decision_type=2
left_child=-1
right_child=-2
leaf_value=27413.267984375005 -20138.569341517858
leaf_weight=25 35
leaf_count=25 35
internal_value=0
internal_weight=0
internal_count=60
is_linear=0
shrinkage=0.1


Tree=167
num_leaves=2
num_cat=0
split_feature=2
split_gain=2.70298e+12
threshold=-0.55587403784082701
decision_type=2
left_child=-1
right_child=-2
leaf_value=18905.866927083334 -23757.779050925928
leaf_weight=33 27
leaf_count=33 27
internal_value=0
internal_weight=0
internal_count=60
is_linear=0
shrinkage=0.1


Tree=168
num_leaves=2
num_cat=0
split_feature=1
split_gain=2.34391e+12
threshold=-0.65658138950709277
decision_type=2
left_child=-1
right_child=-2
leaf_value=23122.66353125 -16967.894441964287
leaf_weight=25 35
leaf_count=25 35
internal_value=0
internal_weight=0
internal_count=60
is_linear=0
shrinkage=0.1


Tree=169
num_leaves=2
num_cat=0
split_feature=2
split_gain=1.91389e+12
threshold=-0.55587403784082701
decision_type=2
left_child=-1
right_child=-2
leaf_value=15917.880018939395 -19982.178240740745
leaf_weight=33 27
leaf_count=33 27
internal_value=0
internal_weight=0
internal_count=60
is_linear=0
shrinkage=0.1


Tree=170
num_leaves=2
num_cat=0
split_feature=0
split_gain=1.35465e+12
threshold=1.0000000180025095e-35
decision_type=2
left_child=-1
right_child=-2
leaf_value=29458.383752893518 -1934.6952069963729
leaf_weight=27 28
leaf_count=27 28
internal_value=0
internal_weight=0
internal_count=55
is_linear=0
shrinkage=0.1


Tree=171
num_leaves=2
num_cat=0
split_feature=0
split_gain=1.09727e+12
threshold=1.0000000180025095e-35
decision_type=2
left_child=-1
right_child=-2
leaf_value=26512.544569227433 -1741.225452532087
leaf_weight=27 28
leaf_count=27 28
internal_value=0
internal_weight=0
internal_count=55
is_linear=0
shrinkage=0.1


Tree=172
num_leaves=2
num_cat=0
split_feature=0
split_gain=8.88785e+11
threshold=1.0000000180025095e-35
decision_type=2
left_child=-1
right_child=-2
leaf_value=23861.288729745371 -1567.1048721313477
leaf_weight=27 28
leaf_count=27 28
internal_value=0
internal_weight=0
internal_count=55
is_linear=0
shrinkage=0.1


Tree=173
num_leaves=2
num_cat=0
split_feature=0
split_gain=7.19916e+11
threshold=1.0000000180025095e-35
decision_type=2
left_child=-1
right_child=-2
leaf_value=21475.161791087965 -1410.3927368164063
leaf_weight=27 28
leaf_count=27 28
internal_value=0
internal_weight=0
internal_count=55
is_linear=0
shrinkage=0.1


Tree=174
num_leaves=2
num_cat=0
split_feature=4
split_gain=8.45957e+11
threshold=-0.14930892297888718
decision_type=2
left_child=-1
right_child=-2
leaf_value=-6938.6675316220244 18588.720199764477
leaf_weight=21 34
leaf_count=21 34
internal_value=0
internal_weight=0
internal_count=55
is_linear=0
shrinkage=0.1


Tree=175
num_leaves=2
num_cat=0
split_feature=1
split_gain=6.37033e+12
threshold=-0.66802736233101079
decision_type=2
left_child=-1
right_child=-2
leaf_value=-36485.252157738098 33969.627086292618
leaf_weight=21 33
leaf_count=21 33
internal_value=0
internal_weight=0
internal_count=54
is_linear=0
shrinkage=0.1


Tree=176
num_leaves=2
num_cat=0
split_feature=1
split_gain=5.15996e+12
threshold=-0.66802736233101079
decision_type=2
left_child=-1
right_child=-2
leaf_value=-32836.727027529763 30572.664047703602
leaf_weight=21 33
leaf_count=21 33
internal_value=0
internal_weight=0
internal_count=54
is_linear=0
shrinkage=0.1


Tree=177
num_leaves=2
num_cat=0
split_feature=1
split_gain=4.17957e+12
threshold=-0.66802736233101079
decision_type=2
left_child=-1
right_child=-2
leaf_value=-29553.054017857143 27515.397182765151
leaf_weight=21 33
leaf_count=21 33
internal_value=0
internal_weight=0
internal_count=54
is_linear=0
shrinkage=0.1


Tree=178
num_leaves=2
num_cat=0
split_feature=1
split_gain=3.38545e+12
threshold=-0.66802736233101079
decision_type=2
left_child=-1
right_child=-2
leaf_value=-26597.749855840779 24763.857812500002
leaf_weight=21 33
leaf_count=21 33
internal_value=0
internal_weight=0
internal_count=54
is_linear=0
shrinkage=0.1


Tree=179
num_leaves=2
num_cat=0
split_feature=2
split_gain=9.97136e+11
threshold=-0.30174879459726994
decision_type=2
left_child=-1
right_child=-2
leaf_value=-6111.2052504595595 22028.5040625
leaf_weight=34 20
leaf_count=34 20
internal_value=0
internal_weight=0
internal_count=54
is_linear=0
shrinkage=0.1


Tree=180
num_leaves=2
num_cat=0
split_feature=10
split_gain=2.69872e+12
threshold=1.0000000180025095e-35
decision_type=2
left_child=-1
right_child=-2
leaf_value=13952.841347656251 -32340.7587890625
leaf_weight=20 34
leaf_count=20 34
internal_value=0
internal_weight=0
internal_count=54
is_linear=0
shrinkage=0.1


Tree=181
num_leaves=2
num_cat=0
split_feature=10
split_gain=2.18596e+12
threshold=1.0000000180025095e-35
decision_type=2
left_child=-1
right_child=-2
leaf_value=12557.557915039062 -29106.683111213235
leaf_weight=20 34
leaf_count=20 34
internal_value=0
internal_weight=0
internal_count=54
is_linear=0
shrinkage=0.1


Tree=182
num_leaves=2
num_cat=0
split_feature=10
split_gain=1.77063e+12
threshold=1.0000000180025095e-35
decision_type=2
left_child=-1
right_child=-2
leaf_value=11301.800596923829 -26196.01461397059
leaf_weight=20 34
leaf_count=20 34
internal_value=0
internal_weight=0
internal_count=54
is_linear=0
shrinkage=0.1


Tree=183
num_leaves=2
num_cat=0
split_feature=10
split_gain=1.43421e+12
threshold=1.0000000180025095e-35
decision_type=2
left_child=-1
right_child=-2
leaf_value=10171.620510253908 -23576.41323529412
leaf_weight=20 34
leaf_count=20 34
internal_value=0
internal_weight=0
internal_count=54
is_linear=0
shrinkage=0.1


Tree=184
num_leaves=2
num_cat=0
split_feature=1
split_gain=1.31496e+12
threshold=-0.59573682475861178
decision_type=2
left_child=-1
right_child=-2
leaf_value=3987.9889095052081 -27416.195833333331
leaf_weight=30 24
leaf_count=30 24
internal_value=0
internal_weight=0
internal_count=54
is_linear=0
shrinkage=0.1


Tree=185
num_leaves=2
num_cat=0
split_feature=1
split_gain=1.70357e+12
threshold=-0.66802736233101079
decision_type=2
left_child=-1
right_child=-2
leaf_value=-5619.9173711867561 30407.293412388397
leaf_weight=21 35
leaf_count=21 35
internal_value=0
internal_weight=0
internal_count=56
is_linear=0
shrinkage=0.1


Tree=186
num_leaves=2
num_cat=0
split_feature=1
split_gain=1.37989e+12
threshold=-0.66802736233101079
decision_type=2
left_child=-1
right_child=-2
leaf_value=-5057.9263392857147 27366.562801339285
leaf_weight=21 35
leaf_count=21 35
internal_value=0
internal_weight=0
internal_count=56
is_linear=0
shrinkage=0.1


Tree=187
num_leaves=2
num_cat=0
split_feature=10
split_gain=2.09692e+11
threshold=0.060511286233412467
decision_type=2
left_child=-1
right_child=-2
leaf_value=5786.7427455357147 18426.580223214285
leaf_weight=21 35
leaf_count=21 35
internal_value=0
internal_weight=0
internal_count=56
is_linear=0
shrinkage=0.1


Tree=188
num_leaves=2
num_cat=0
split_feature=5
split_gain=1.78832e+11
threshold=-0.32061547390366663
decision_type=2
left_child=-1
right_child=-2
leaf_value=19613.442066592263 7940.7004296875011
leaf_weight=21 35
leaf_count=21 35
internal_value=0
internal_weight=0
internal_count=56
is_linear=0
shrinkage=0.1


Tree=189
num_leaves=2
num_cat=0
split_feature=1
split_gain=1.10859e+12
threshold=-0.66802736233101079
decision_type=2
left_child=-1
right_child=-2
leaf_value=-7078.015455264137 21984.696986607145
leaf_weight=21 35
leaf_count=21 35
internal_value=0
internal_weight=0
internal_count=56
is_linear=0
shrinkage=0.1


Tree=190
num_leaves=2
num_cat=0
split_feature=4
split_gain=1.07169e+12
threshold=-0.14930892297888718
decision_type=2
left_child=-1
right_child=-2
leaf_value=-26218.599869791669 1735.6729248046877
leaf_weight=24 32
leaf_count=24 32
internal_value=0
internal_weight=0
internal_count=56
is_linear=0
shrinkage=0.1


Tree=191
num_leaves=2
num_cat=0
split_feature=4
split_gain=8.6807e+11
threshold=-0.14930892297888718
decision_type=2
left_child=-1
right_child=-2
leaf_value=-23596.739651489261 1562.1061340332033
leaf_weight=24 32
leaf_count=24 32
internal_value=0
internal_weight=0
internal_count=56
is_linear=0
shrinkage=0.1


Tree=192
num_leaves=2
num_cat=0
