tree
version=v4
num_class=1
num_tree_per_iteration=1
label_index=0
max_feature_idx=12
objective=regression
feature_names=Column_0 Column_1 Column_2 Column_3 Column_4 Column_5 Column_6 Column_7 Column_8 Column_9 Column_10 Column_11 Column_12
feature_infos=[-1.4872431003927016:2.9697557115471982] [-0.86260857600378016:2.2924601761379773] [-1.0559880720676216:3.3072452564910848] none [-2.0747991516463355:1.2325706303835022] [-1.0770389518941499:2.5427523421366551] [-1.3918119115570582:2.3646363133309021] none [-1.725960118406872:1.2225889958977305] [-1.5694281551100584:2.8616321205333195] [-2.0778768397768812:1.4793961910736462] [-1.1069502861116653:3.3169510549069243] [-1.4082126118916201:2.6293383779811745]
tree_sizes=313 316 316 316 316 319 316 318 318 319 320 320 320 320 320 319 319 319 317 320 319 320 320 320 320 319 320 319 319 319 319 320 404 319 404 320 319 320 319 319 317 317 316 317 316 407 407 408 407 407 317 318 318 316 318 320 321 321 318 321 320 319 319 320 320 318 318 317 318 316 402 403 405 405 408 320 320 320 319 319 320 319 320 319 319 319 318 319 317 319 318 318 319 318 316 317 318 318 318 318 320 319 320 320 320 321 320 321 321 321 320 320 319 318 319 323 323 322 323 323 409 406 408 410 411 407 408 409 408 407 408 409 408 409 407 320 320 319 321 321 319 320 409 320 320 405 406 406 408 408 317 319 319 318 319 321 321 411 321 412 322 321 321 321 322 409 410 410 410 410 320 320 320 320 320 321 321 321 321 321 318 320 320 320 320 319 319 317 318 320 322 323 323 323 323 321 320 321 321 321 323 323 319 323 319 318 319 319 320 321 319 319 319 318 317 319 319 319 319 318 322 320 323 321 323 319 320 319 320 320 321 321 321 320 320 319 320 320 322 320 403 407 407 406 407 406 408 407 409 321 320 321 319 321 321 321 320 320 322 321 321 321 321 321 320 323 322 323 323 323 320 408 405 409 409 412 413 413 412 413 320 320 320 321 320 321 321 321 320 321 320 319 319 320 318 320 320 320 320 320 322 321 321 322 321 320 320 320 319 321 323 324 324 324 324 319 319 318 319 319 324 320 320 324 320 320 320 320 320 319 322 322 320 320 321 320 320 320 319 320 321 321 320 321 320 320 320 320 320 320 407 407 409 409 408 409 409 409 409 408 321 322 321 322 322 409 409 408 408 320 413 411 412 413 413 410 408 409 408 409 319 321 321 319 320 319 317 319 320 319 320 319 320 320 320 412 413 320 413 412 320 319 408 320 318 412 412 413 413 413 322 322 322 320 322 322 322 322 322 321 320 320 321 320 320 323 324 324 324 324 321 414 415 324 415 409 408 408 408 408 320 320 320 321 320 320 321 321 321 321 409 409 408 409 411 321 321 321 321 321 320 320 320 320 320 320 319 320 317 320 321 321 321 321 320 410 411 409 406 410 410 411 409 408 411 411 407 410 321 410 321 321 320 320 320 321 320 321 321 321 319 320 320 319 320 322 322 322 322 322 321 322 322 322 321 320 320 320 320 319 320 321 320 320 321 320 320 320 322 320 321 321 321 321 320 320 321 321 321 321 410 408 410 408 410 320 319 320 319 319 407 409 409 408 410 320 320 320 320 320 320 320 322 320 322 408 407 407 408 408 320 320 320 320 320 324 323 323 324 324 320 408 409 408 408 409 411 411 411 409 320 322 320 320 320 322 322 321 321 322 321 323 323 321 322 321 409 406 409 407 409 409 322 407 407 410 409 410 408 411 321 321 321 321 321 321 321 321 321 321 322 322 322 322 323 411 409 411 411 411 320 320 320 320 320 321 321 322 322 320 320 318 320 319 320 321 321 322 321 321 414 409 410 410 414 320 320 320 320 320 410 411 409 410 411 321 320 321 321 321 320 320 321 321 322 320 321 320 321 320 320 320 320 320 320 321 319 321 321 321 320 319 318 321 321 322 323 323 323 322 321 321 321 321 321 322 322 322 322 322 411 411 405 410 410 321 321 321 320 321 322 322 322 322 322 323 323 322 323 323 321 321 321 321 321 320 320 321 320 320 318 321 321 321 321 322 322 322 411 321 409 408 408 409 409 322 322 322 321 322 320 320 320 320 319 322 322 323 322 323 408 410 410 408 408 322 323 323 323 323 321 321 321 321 320 320 321 320 320 319 321 320 321 322 322 322 320 322 320 320 321 321 321 321 321 323 321 321 321 320 322 322 322 323 322 320 321 321 320 320 320 322 322 322 321 320 321 321 320 322 320 321 320 321 321 322 322 322 322 322 321 320 321 321 320 321 321 321 320 321 321 321 321 318 321 321 321 321 321 321 320 321 320 321 320 408 409 409 409 409 324 323 323 325 321 411 411 410 323 411 321 321 321 321 320 323 323 324 324 322 321 321 322 321 322 409 409 410 409 410 322 321 322 322 321 319 320 320 319 320 321 321 322 321 321 321 319 321 411 412 410 321 409 409 410 321 321 321 321 409 409 408 410 409 410 318 321 322 322 322 410 411 411 322 411 319 321 321 321 319 321 321 322 321 321 407 410 409 409 409 321 322 321 320 321 322 322 321 322 322 408 408 410 408 410 321 322 322 323 322 412 412 413 320 413 320 320 322 320 320 412 414 414 411 414 322 321 322 322 321 322 322 322 320 322 321 323 412 323 413 323 322 323 323 324 321 319 322 321 322 320 322 321 320 320 322 320 322 322 321 413 413 413 414 414 323 325 322 323 321 321 320 409 323 322 410 324 324 324 323 323 323 323 323 322 410 410 410 408 409 322 322 320 322 322 323 323 322 323 411 413 409 409 410 411 324 324 324 324 323 321 321 321 320 320 412 412 411 412 412 323 322 323 323 322 323 323 323 320 323 411 410 412 412 412 323 323 322 323 323 322 322 322 323 323 320 321 321 321 319 324 321 324 324 324 322 323 322 323 323 320 322 322 322 321 323 323 322 323 323 411 411 411 409 411 322 322 322 322 321 321 320 320 321 320 413 411 411 412 412 322 324 324 324 324 323 411 411 322 412 322 324 325 322 325 322 322 409 321 410 321 320 321 321 322 322 323 322 323 324 321 320 409 321 408 323 323 323 322 323 323 323 323 323 323 324 323 324 323 323 323 323 323 322 323 322 322 322 322 322 323 323 323 322 324 410 409 410 409 323 322 323 321 322 323 323 323 323 322 322 326 326 326 325 326 322 322 322 323 322 323 411 412 413 412 323 324 324 324 323 321 322 322 322 321 410 413 409 410 412 323 324 324 323 323 323 323 322 322 322 323 322 321 323 323 323 323 323 323 323 323 323 323 323 323 411 321 322 322 322 322 321 324 322 323 323 323 322 322 323 323 323 322 321 323 323 323 323 323 322 321 321 321 320 323 322 321 320 322 322 324 324 323 324 323 413 413 412 411 412 322 323 322 323 322 322 321 322 322 322 412 411 322 411 411 323 323 323 323 323 324 324 324 324 322 321 320 321 322 321 322 323 323 323 323 321 320 321 320 323 407 411 412 411 410 324 324 324 324 324 411 411 411 411 410 323 324 324 324 324 323 322 323 323 322 322 322 320 322 322 322 321 321 322 321 323 324 324 324 324 323 324 323 324 323 323 323 323 323 323 322 321 322 322 322 411 410 410 411 409 325 325 325 325 322 416 416 417 411 417 323 323 322 324 323 323 322 323 323 321 324 412 410 411 324 413 413 411 413 413 322 323 322 322 322 320 322 322 324 322 324 323 324 324 324 322 323 323 323 323 322 322 322 322 321 321 321 321 321 321 322 322 322 321 322 323 323 323 323 324 322 322 322 322 322 326 326 325 325 326 324 323 324 324 324 322 323 320 322 323 410 412 412 410 411 323 323 323 323 322 323 321 323 323 322 320 321 321 321 321 322 322 322 321 322 323 323 322 323 320 322 323 323 323 323 324 322 324 322 323 322 323 323 323 323 413 319 321 321 321 322 322 321 322 322 410 409 411 414 413 322 322 413 323 323 322 321 322 323 323 322 323 322 323 322 322 322 321 322 321 412 412 413 412 413 323 323 323 322 322 413 413 411 413 322 323 323 323 414 323 415 414 415 415 411 323 323 323 321 322 323 323 323 323 323 322 322 322 323 323 323 322 323 320 323 322 323 323 323 323 323 322 323 323 323 323 324 324 323 324 323 323 322 321 323 322 322 322 323 322 322 322 322 322 322 323 322 323 322 323 323 323 323 323 322 323 323 411 323 323 323 322 324 326 324 324 324 324 323 323 411 411 411 411 411 322 322 322 321 322 323 323 323 322 323 411 411 409 321 410 413 412 412 413 413 323 323 321 323 322 415 415 415 414 414 321 322 320 321 321 322 321 323 323 322 323 323 322 322 322 322 322 322 322 323 323 322 322 322 323 320 323 323 323 322 410 410 412 410 411 321 323 323 322 322 321 322 322 322 321 321 321 321 322 322 324 324 324 324 324 319 320 322 322 322 322 323 321 321 322 413 414 415 414 414 324 323 324 324 324 323 323 321 323 322 323 322 323 322 323 321 321 321 321 321 322 323 322 323 323 413 323 412 323 413 412 412 413 409 413 322 322 322 321 322 322 322 321 322 321 322 321 322 322 323 323 323 323 323 323 323 324 323 323 324 324 324 324 324 323 322 322 322 322 322 411 412 411 412 412 323 323 323 322 323 411 411 410 411 411 324 321 324 324 324 322 322 322 322 322 411 414 412 412 413 322 413 412 413 412 323 322 322 323 322 322 323 323 323 323 323 323 323 323 323 322 321 322 322 322 412 412 410 412 412 412 410 412 411 410 323 323 321 323 323 323 323 323 323 323 323 323 323 323 323 324 414 412 414 414 323 323 323 322 323 322 323 322 323 323 322 322 322 322 322 324 324 324 324 324 323 323 323 323 323 323 323 324 323 324 322 322 322 321 321 415 412 410 411 411 412 413 324 412 413 323 323 323 323 322 414 413 414 413 414 323 321 323 323 322 321 320 321 320 321 322 323 322 323 322 323 323 322 321 322 324 324 324 324 323 323 324 322 323 323 324 326 326 323 325 323 321 322 413 323 323 411 323 323 323 416 416 416 416 416 321 323 323 323 321 322 323 322 321 322 322 322 322 321 322 323 325 325 325 325 323 323 322 323 323 323 323 323 323 323 413 412 414 412 414 323 323 323 321 323 324 324 324 324 324 321 323 323 322 322 324 324 323 323 324 413 412 412 412 411 322 323 322 323 323 324 323 324 322 323 324 322 323 323 323 322 322 323 323 323 322 322 322 322 323 325 325 325 325 325 322 320 322 321 322 322 322 321 321 326 324 324 324 323 324 321 322 322 322 322 322 323 323 322 323 324 324 323 324 324 323 323 410 410 411 322 324 324 324 324 323 324 324 324 324 323 323 323 323 323 323 323 323 322 322 323 323 323 323 323 322 323 323 323 323 323 323 323 322 323 321 321 321 321 320 414 413 413 413 412 323 323 323 323 323 322 322 320 323 322 323 322 323 323 322 409 411 411 410 410 325 326 326 326 326 323 323 322 323 322 322 322 322 322 322 322 323 411 409 411 323 322 323 321 323 322 322 322 322 322 324 322 324 324 323 323 322 323 322 322 410 411 408 413 411 409 412 412 412 411 321 323 323 322 323 324 325 325 325 324 323 415 323 323 323 324 324 324 323 324 323 322 322 320 323 321 323 322 321 322 414 414 413 414 413 413 412 413 323 412 324 323 323 324 324 323 323 323 323 323 322 323 322 323 322 410 323 323 323 321 323 323 323 323 323 323 323 323 323 322 411 412 412 414 414 413 413 414 414 414 321 321 322 321 322 323 323 322 321 322 323 323 322 322 323 322 322 322 323 321 322 322 322 322 322 323 323 322 323 321 324 323 324 323 322 323 323 323 323 323 412 412 412 322 410 324 324 324 324 324 322 322 322 323 323 323 323 323 323 323 323 322 322 323 322 322 321 322 322 322 320 323 322 323 324 413 412 412 412 412 322 322 322 322 322 322 323 323 323 322 322 322 321 322 322 325 325 325 325 325 321 322 321 322 321 323 323 323 323 322 413 416 411 413 413 414 416 417 415 416 323 322 323 323 323 323 323 324 324 323 324 324 323 324 324 322 322 323 320 322 411 413 414 413 412 323 323 323 322 323 413 413 413 413 412 412 322 410 413 413 326 325 326 325 323 323 323 323 323 322 413 414 412 413 414 322 322 322 322 323 322 322 322 322 322 322 323 324 323 323 322 322 322 322 322 414 323 414 322 412 323 323 323 323 323 410 412 413 413 412 324 323 323 322 320 324 324 324 323 323 323 324 324 323 324 324 324 324 324 324 322 322 324 322 322 320 321 322 322 322 323 323 323 323 321 322 322 320 322 320 322 323 323 323 323 412 412 413 412 413 323 322 323 323 322 322 322 322 320 322 321 323 321 323 323 323 323 322 323 322 323 323 323 324 324 324 324 323 324 324 413 413 414 412 414 322 322 323 322 323 322 321 322 321 322 324 322 321 324 323 322 322 322 322 325 322 322 322 322 321 322 320 323 322 322 323 323 324 324 324 411 409 410 410 409 322 324 321 322 322 412 411 411 412 412 321 323 323 323 323 322 322 321 321 322 324 323 323 324 324 323 323 323 323 323 414 412 324 415 411 322 322 322 322 322 323 323 323 323 323 323 322 323 321 323 323 323 323 323 321 323 323 322 323 323 412 413 322 412 413 322 322 321 321 322 323 323 321 323 322 415 415 414 415 414 324 324 323 324 321 322 324 324 324 323 323 324 322 323 322 323 323 323 323 323 323 413 413 323 413 323 323 323 322 323 322 323 322 323 323 411 413 411 413 413 325 324 324 325 325 323 322 323 321 323 323 324 324 324 324 323 323 324 322 323 323 323 323 321 323 324 324 323 324 324 412 412 411 323 412 323 322 322 323 322 322 322 322 322 322 414 415 322 414 414 321 322 322 322 321 323 323 324 323 320 323 323 320 323 321 414 414 415 413 412 414 321 322 322 322 322 322 322 322 322 323 323 323 323 322 413 413 411 322 412 412 411 410 322 412 321 321 322 322 322 322 323 323 319 323 322 322 322 322 322 323 323 323 323 323 324 321 324 324 324 322 323 321 323 324 323 324 323 323 324 413 412 413 414 322 323 322 323 321 323 323 323 323 323 323 324 322 324 323 323 322 321 321 322 322 321 322 321 323 323 325 325 325 325 325 320 322 321 321 322 321 322 322 321 322 323 322 322 323 323 412 413 413 411 411 323 325 325 324 322 321 322 323 323 323 414 414 413 324 413 414 413 414 413 414 411 413 413 413 412 322 323 322 323 323 324 323 323 324 324 326 326 325 326 326 324 323 323 324 323 323 323 322 323 323 323 323 323 323 323 323 324 324 324 324 416 416 416 411 416 412 413 411 411 412 322 322 322 321 322 321 322 322 321 322 412 323 322 413 413 323 323 323 322 323 319 323 323 322 323 320 322 322 322 322 323 324 324 324 323 410 411 411 412 410 411 411 411 412 324 412 411 414 413 411 320 321 321 320 320 412 412 412 322 412 412 413 414 413 413 413 413 414 413 414 322 322 322 322 322 322 320 322 322 322 321 323 322 322 322 322 322 322 322 322 323 412 323 323 411 321 323 322 323 323 323 323 322 323 321 320 321 321 321 323 413 412 413 413 413 411 410 411 411 323 323 323 322 323 323 322 322 324 322 322 322 324 324 324 323 324 324 324 322 323 322 322 322 322 322 323 323 323 323 322 322 324 323 322 322 416 416 415 414 416 413 413 414 412 414 412 411 412 412 411 325 323 325 323 324 323 323 323 323 322 412 412 412 323 412 413 411 413 410 412 413 413 412 413 413 323 323 324 414 323 322 323 323 322 323 324 324 324 324 324 323 322 323 322 322 322 322 322 322 321 412 413 412 413 413 323 324 323 323 323 323 324 324 324 323 323 323 321 323 323 322 323 323 323 323 323 323 321 323 323 324 410 324 410 325 322 323 323 323 322 412 412 413 323 411 323 323 323 323 322 410 322 411 323 410 322 323 322 323 322 323 323 323 323 323 414 411 414 414 415 321 320 321 321 320 323 322 322 323 323 324 324 323 324 324 322 323 322 323 322 323 411 323 322 323 322 321 320 322 321 322 324 324 324 325 322 321 322 321 322 324 325 325 323 323 413 414 412 413 414 411 412 411 411 410 413 413 411 413 411 320 322 322 321 322 411 412 412 412 411 323 323 323 323 323 323 322 322 323 323 323 322 322 322 321 412 412 412 411 409 323 323 323 322 323 324 324 323 324 324 324 324 324 324 324 323 324 322 323 324 413 413 413 413 413 322 322 321 323 322 324 324 324 323 323 415 412 413 416 412 412 413 413 412 413 322 322 321 322 322 322 322 322 322 322 322 321 324 321 322 323 323 323 323 321 322 322 322 323 322 323 323 323 323 322 324 324 322 412 321 412 412 411 411 410 322 322 322 322 322 325 325 325 325 325 324 324 323 323 324 323 322 323 322 323 322 320 321 322 322 411 413 413 413 413 415 414 415 415 414 323 324 323 323 324 323 323 323 323 323 324 323 322 322 322 412 413 413 411 412 410 409 410 322 410 326 411 325 326 326 322 321 321 322 322 325 325 325 325 325 323 323 323 322 323 324 324 323 324 322 323 323 322 323 323 325 325 324 325 325 323 323 322 323 321 323 322 321 321 322 322 323 322 322 322 323 324 323 323 322 323 323 323 323 321 324 325 325 323 325 320 322 322 322 414 323 323 321 323 323 412 412 411 410 412 322 321 323 322 322 325 325 325 324 325 323 324 323 322 322 323 323 323 322 323 322 321 322 322 321 323 322 413 322 323 325 322 325 321 325 324 324 323 324 323 325 325 325 325 325 322 321 322 321 322 411 411 409 412 412 323 323 323 323 323 413 412 412 412 412 322 322 322 322 322 413 411 414 412 413 323 323 322 323 322 322 322 323 322 323 321 322 324 322 322 323 322 323 323 323 321 322 322 321 322 322 322 322 321 320 414 413 414 414 413 324 324 324 323 322 411 411 411 412 412 322 321 322 322 321 324 324 323 322 324 322 321 322 321 321 415 412 412 413 414 325 324 325 324 325 410 411 412 411 411 322 323 323 323 321 322 322 322 322 322 321 324 324 324 324 324 323 324 322 324 411 413 413 413 413 323 413 413 412 412 323 323 323 323 322 323 323 323 323 321 413 413 413 412 324 412 412 414 412 412 322 322 323 323 322 324 324 324 324 323 410 409 410 411 413 410 412 411 412 411 322 323 322 322 322 322 322 322 322 322 322 322 321 323 322 324 324 324 413 323 322 323 323 323 323 322 322 321 322 321 324 324 323 324 324 324 324 323 324 323 323 321 322 323 321 322 322 322 322 322 410 413 413 412 410 321 325 321 321 321 325 325 325 325 325 323 322 323 323 319 322 321 321 321 322 323 323 323 322 322 414 415 415 415 415 321 323 323 323 321 322 321 322 322 321 321 322 322 322 320 323 322 324 321 323 325 325 325 324 320 412 413 414 324 324 323 322 323 324 323 323 323 323 322 323 323 323 321 321 323 323 322 323 323 321 320 322 323 323 323 322 322 323 322 322 413 414 413 414 414 411 322 412 412 322 412 413 413 413 412 322 321 322 321 322 322 321 322 323 322 413 414 413 413 414 322 322 322 322 414 321 321 320 321 321 323 323 322 320 323 323 323 323 322 323 322 322 322 322 323 323 323 322 323 323 321 321 322 321 322 324 324 324 324 324 323 323 322 323 323 322 321 322 322 322 410 412 412 412 412 412 413 413 413 413 413 414 414 411 411 322 322 321 324 323 322 322 322 322 322 412 412 412 411 412 412 323 412 411 412 411 411 412 412 409 323 323 323 323 323 322 322 322 322 323 322 321 322 322 322 322 321 321 321 322 322 323 323 322 323 412 413 413 413 411 320 321 320 322 321 321 321 322 322 322 322 322 322 321 322 323 323 323 326 322 322 323 323 323 323 321 323 324 323 323 416 412 413 411 412 322 321 322 322 321 322 323 323 323 323 322 322 322 322 322 321 322 322 322 322 321 323 322 323 323 324 324 324 321 324 321 321 321 321 321 324 322 323 322 323 323 323 323 323 323 323 323 323 321 322 322 322 322 321 322 415 412 415 412 412 413 412 414 413 412 322 322 322 322 322 321 324 322 323 321 322 319 322 325 319 322 322 321 322 322 322 323 322 322 323 323 322 323 324 323 325 325 325 325 325 321 321 321 321 319 324 324 324 324 324 323 323 322 322 323 322 322 322 322 321 413 409 412 410 413 415 414 411 414 413 411 415 415 415 411 322 321 322 322 322 324 323 323 324 324 324 323 324 324 324 414 415 415 416 416 321 321 321 321 321 323 323 323 322 323 324 324 324 324 324 322 323 323 323 323 323 323 324 323 323 322 321 321 320 322 323 323 323 323 323 322 320 322 322 321 325 324 322 325 325 322 323 322 323 322 323 323 322 323 323 323 322 323 323 322 322 322 323 323 322 323 321 322 322 323 322 321 322 323 323 322 322 322 322 322 323 322 322 322 322 322 322 323 323 323 322 321 322 322 321 413 413 413 411 412 413 411 410 413 412 321 320 321 321 321 412 412 413 410 411 320 322 322 322 322 325 324 324 325 325 323 322 323 323 322 414 412 413 412 411 323 323 323 323 323 323 323 322 323 322 321 321 321 319 321 323 323 323 323 323 323 412 412 413 413 322 322 322 322 322 323 323 323 323 323 322 322 323 323 325 323 323 323 322 323 322 321 322 322 322 322 323 323 322 323 323 323 322 323 323 413 413 412 412 412 322 322 321 322 321 325 325 325 325 325 324 324 324 324 324 412 413 413 412 411 323 324 324 324 324 322 322 322 322 322 323 323 323 323 322 412 412 322 322 412 322 323 322 319 322 322 412 322 322 322 323 323 323 324 323 323 323 323 323 321 321 323 321 323 323 322 321 320 322 322 323 323 323 323 322 322 323 323 321 323 322 323 321 322 322 322 322 322 321 322 323 324 324 324 324 411 411 411 411 410 413 411 413 412 411 406 323 411 323 411 323 323 321 323 323 411 413 413 412 411 412 414 412 413 413 415 415 415 414 415 322 322 322 323 322 321 321 320 322 322 415 415 413 323 413 411 411 411 408 410 325 322 325 322 325 322 321 322 321 326 322 322 321 322 322 323 324 324 324 324 322 322 322 322 322 415 414 416 416 416 413 413 413 413 413 321 322 323 322 322 413 413 413 413 411 323 323 323 323 321 412 412 412 412 412 324 322 412 415 415 323 322 323 322 322 322 322 322 321 321 324 324 323 323 324 323 323 323 323 322 321 321 322 320 322 411 413 413 412 410 319 323 323 323 323 322 322 321 323 323 323 323 323 323 323 325 325 325 325 325 412 411 323 323 412 324 324 323 324 323 323 323 322 412 322 323 324 324 324 323 324 325 322 325 325 323 323 323 323 322 411 412 411 412 412 322 323 322 323 323 322 320 322 322 322 321 322 323 322 322 322 322 322 321 322 323 322 323 323 322 323 321 323 321 321 323 323 322 322 323 320 320 414 320 415 323 323 323 322 323 323 323 323 323 322 412 412 412 412 410 412 412 411 411 412 323 322 414 323 325 412 414 414 414 414 410 412 413 412 413 323 323 323 324 324 322 323 323 323 323 323 323 323 323 323 323 323 323 323 321 324 322 322 322 322 323 322 322 324 323 323 323 323 323 323 321 323 323 323 323 323 323 322 323 323 413 412 413 412 411 321 322 323 321 323 323 320 323 322 321 411 412 411 412 412 412 410 412 410 411 322 323 322 322 322 325 321 325 321 325 322 323 323 323 323 321 322 321 322 322 323 323 322 322 319 325 324 324 326 325 323 323 323 321 320 324 322 324 323 323 322 322 322 322 320 413 414 415 415 412 410 409 410 411 411 323 323 323 323 322 411 409 411 410 410 322 323 323 322 322 415 415 323 415 415 322 322 322 322 322 322 322 322 322 322 324 323 323 323 324 323 323 322 323 322 411 410 411 410 409 325 325 325 324 324 323 323 322 323 323 323 323 323 323 322 323 321 323 323 323 325 325 325 325 325 322 323 323 323 322 323 323 323 323 322 322 320 320 320 322 322 322 322 322 321 321 322 322 322 322 323 322 322 322 322 322 321 321 322 322 322 321 322 321 322 412 411 412 411 411 412 323 410 412 412 325 325 325 325 324 322 321 322 322 322 323 323 323 323 323 409 412 323 323 323 322 323 323 323 323 320 323 322 323 323 324 324 325 324 324 322 321 322 322 322 323 321 323 322 323 322 322 322 322 323 323 323 323 321 323 322 321 323 323 323 319 321 319 322 322 322 322 322 322 323 319 321 321 321 321 320 320 322 320 321 322 323 322 323 323 323 323 323 323 323 412 413 410 413 412 415 415 414 415 415 322 322 322 322 321 323 323 324 323 324 324 323 324 323 324 322 323 323 323 323 412 322 322 412 413 413 414 413 414 414 323 320 323 322 323 325 325 325 324 326 413 411 412 408 412 323 323 323 323 320 414 416 413 323 414 323 323 323 323 323 326 326 326 322 326 408 410 409 410 409 412 412 411 412 412 410 411 414 415 411 322 322 322 322 322 322 322 323 324 322 321 320 322 322 322 323 322 322 323 323 324 325 324 325 325 323 323 323 323 322 323 322 322 323 323 322 322 323 323 322 323 323 322 323 322 323 323 323 323 322 321 321 322 322 322 322 322 321 321 321 321 323 323 322 323 323 323 323 323 323 322 322 322 321 322 411 412 412 410 410 323 322 322 322 323 321 323 322 323 322 322 322 322 322 322 411 410 411 410 411 323 323 322 322 322 323 320 322 322 323 411 411 412 412 411 324 325 325 324 325 322 321 324 322 324 323 323 320 323 322 323 323 323 321 321 321 322 321 321 321 324 324 324 324 322 322 322 321 322 321 413 412 412 412 413 325 322 325 325 325 322 412 413 322 321 414 412 414 414 414 323 323 322 323 323 322 322 322 322 321 321 322 323 323 323 323 324 324 323 324 322 321 322 323 323 323 321 323 323 322 323 323 324 324 323 411 411 409 409 411 414 413 414 413 414 323 321 323 322 322 322 322 320 322 322 321 412 321 321 320 413 414 416 413 414 322 321 321 321 322 323 322 323 323 323 413 411 411 411 412 322 322 322 322 322 322 323 323 323 323 324 324 324 324 324 414 323 414 413 414 412 411 411 412 412 413 414 412 414 414 323 323 323 323 323 322 322 323 322 322 322 322 321 320 322 322 323 323 323 323 322 323 322 321 322 323 323 322 322 322 321 322 322 322 322 324 323 323 324 324 323 323 322 323 323 323 321 323 323 322 322 322 322 322 322 322 321 321 322 323 412 413 412 413 412 324 324 323 324 324 325 325 325 325 322 319 322 322 322 322 322 323 324 323 323 323 323 323 323 323 323 323 323 325 323 413 413 412 412 413 325 325 324 325 322 322 322 321 322 322 322 322 322 323 321 322 321 320 321 321 412 412 413 413 411 325 325 324 323 323 321 322 323 322 323 322 322 322 322 320 411 411 411 412 410 322 321 322 322 322 322 320 322 321 322 322 322 321 321 321 322 322 322 322 322 324 324 324 324 321 322 322 321 322 321 323 323 323 323 322 412 411 412 412 411 414 414 413 414 413 322 322 321 321 322 323 323 323 415 323 413 413 322 411 413 323 322 322 414 322 411 410 410 411 411 323 322 323 415 323 324 324 324 417 416 322 323 322 323 323 320 322 321 320 322 323 323 322 322 323 322 320 322 322 321 412 325 412 410 410 322 322 322 322 323 411 411 411 413 410 321 320 321 321 321 322 322 322 322 322 322 322 415 322 321 322 324 324 324 321 412 412 414 414 410 322 323 323 323 323 413 411 412 412 413 322 322 323 321 322 323 323 323 322 323 324 324 324 322 324 324 324 322 323 323 410 411 412 412 415 322 324 323 324 323 323 324 324 324 323 323 323 323 324 323 412 412 413 412 413 324 324 322 323 323 322 321 322 322 322 413 413 413 413 413 323 322 323 322 322 412 413 412 413 412 323 322 324 323 323 323 322 321 322 323 323 323 323 323 323 323 323 321 322 323 412 412 323 323 323 411 321 412 416 411 322 322 322 322 324 323 323 322 322 321 323 323 323 323 323 322 322 322 321 321 323 323 323 322 323 322 320 321 321 321 413 412 412 413 412 412 323 412 411 324 411 411 410 411 411 321 322 322 322 322 322 322 322 321 322 323 323 323 323 323 324 412 413 412 413 323 323 323 321 323 411 413 413 411 413 323 323 323 321 323 323 323 323 323 323 413 411 412 323 409 321 322 322 321 322 323 322 322 323 323 323 323 321 323 413 412 412 411 412 322 323 321 323 322 323 321 322 322 322 322 414 415 415 415 410 324 324 323 320 324 411 322 412 411 411 414 414 414 415 415 324 324 324 324 324 322 322 321 324 322 324 324 324 322 323 323 323 323 322 323 322 321 321 321 322 413 413 412 412 413 322 321 322 322 322 323 323 323 322 323 322 323 323 323 322 321 323 323 322 325 410 409 409 411 411 321 323 321 321 320 325 325 323 325 325 323 323 323 323 323 412 410 411 412 411 324 324 324 321 324 323 323 322 323 323 321 322 321 321 321 320 322 321 322 322 321 322 321 322 322 321 321 414 414 322 411 412 412 411 413 411 412 411 409 412 322 323 323 323 323 321 322 322 321 322 322 325 325 325 325 414 413 413 413 411 322 322 323 323 322 323 322 319 321 321 322 321 322 322 321 323 321 323 322 322 323 323 323 323 323 323 323 323 323 323 321 321 320 322 321 413 413 321 411 414 320 321 322 322 322 411 411 411 411 411 322 321 321 322 322 415 416 416 415 416 324 324 324 324 324 411 413 413 412 413 412 323 323 323 414 324 324 321 324 323 323 323 322 324 323 322 323 323 322 323 322 322 322 322 322 320 323 323 322 323 322 323 323 322 323 322 321 322 322 322 321 323 321 322 322 323 321 323 323 323 326 324 326 326 326 409 411 409 409 411 413 411 413 412 413 412 409 412 322 321 322 321 323 321 323 322 322 322 320 322 323 323 323 323 323 322 322 323 323 323 323 410 411 410 411 322 410 322 322 410 413 411 413 413 413 413 411 415 411 413 322 324 323 323 322 321 321 321 321 321 412 411 411 323 412 322 322 321 321 323 322 323 323 323 323 322 322 321 322 322 322 326 322 325 322 322 322 323 323 323 323 323 324 323 324 322 321 322 322 322 320 322 322 321 322 324 323 322 323 322 323 324 321 323 323 413 413 412 412 413 322 322 322 322 322 323 323 323 322 323 321 323 323 323 323 322 322 321 322 321 322 322 322 322 322 323 322 323 322 323 323 324 324 324 324 325 325 324 324 325 322 324 322 323 322 323 325 323 325 322 322 322 323 323 323 323 323 323 323 323 409 413 414 412 413 321 321 322 322 321 321 322 323 321 322 323 324 320 320 322 325 417 416 414 416 413 410 413 415 412 322 325 324 325 324 411 413 412 412 413 323 323 323 323 323 322 323 323 322 323 323 322 323 322 323 325 325 325 325 325 322 322 322 320 321 413 413 413 413 412 322 322 322 321 322 323 323 323 319 322 322 323 323 323 323 323 320 321 321 323 324 323 324 323 324 320 322 323 322 323 324 324 324 322 324 322 323 323 323 323 412 410 413 412 411 323 324 324 324 322 322 322 322 322 322 412 412 412 408 412 412 413 412 413 413 322 321 323 322 323 323 323 323 322 323 324 322 324 324 322 323 323 324 324 322 323 325 325 325 325 321 320 321 318 321 322 323 323 323 321 322 322 321 322 322 322 321 319 322 322 324 325 323 325 325 322 322 322 322 322 325 324 325 325 325 323 322 321 323 321 322 322 321 321 323 322 323 324 323 324 324 323 324 324 323 324 322 324 324 323 322 322 322 322 322 323 323 323 323 323 323 323 323 323 323 322 322 321 321 322 413 415 414 415 414 412 413 411 412 412 322 322 322 322 322 325 325 325 324 325 411 411 413 412 412 411 412 412 411 412 322 322 323 323 323 324 324 324 324 324 321 322 322 321 322 323 322 322 323 322 319 322 322 321 322 323 323 323 321 324 322 323 322 321 321 409 406 408 409 409 323 323 321 322 322 321 321 320 321 321

Tree=0
num_leaves=2
num_cat=0
split_feature=9
split_gain=0.301483
threshold=0.25297735490053086
decision_type=2
left_child=-1
right_child=-2
leaf_value=0.10763747721170618 0.10909542519873666
leaf_weight=37 23
leaf_count=37 23
internal_value=0.108239
internal_weight=0
internal_count=60
is_linear=0
shrinkage=1


Tree=1
num_leaves=2
num_cat=0
split_feature=9
split_gain=0.295827
threshold=0.38525920834404509
decision_type=2
left_child=-1
right_child=-2
leaf_value=-0.00055789511387000596 0.00091425637404123951
leaf_weight=39 21
leaf_count=39 21
internal_value=0
internal_weight=0
internal_count=60
is_linear=0
shrinkage=0.01


Tree=2
num_leaves=2
num_cat=0
split_feature=0
split_gain=0.279836
threshold=0.11353036095576556
decision_type=2
left_child=-1
right_child=-2
leaf_value=-0.00058065779949223776 0.00082397383374526443
leaf_weight=37 23
leaf_count=37 23
internal_value=0
internal_weight=0
internal_count=60
is_linear=0
shrinkage=0.01


Tree=3
num_leaves=2
num_cat=0
split_feature=9
split_gain=0.284734
threshold=0.25297735490053086
decision_type=2
left_child=-1
right_child=-2
leaf_value=-0.00058492745587451235 0.00083194368855481085
leaf_weight=37 23
leaf_count=37 23
internal_value=0
internal_weight=0
internal_count=60
is_linear=0
shrinkage=0.01


Tree=4
num_leaves=2
num_cat=0
split_feature=9
split_gain=0.279387
threshold=0.38525920834404509
decision_type=2
left_child=-1
right_child=-2
leaf_value=-0.00054210722822552692 0.00088855461350509108
leaf_weight=39 21
leaf_count=39 21
internal_value=0
internal_weight=0
internal_count=60
is_linear=0
shrinkage=0.01


Tree=5
num_leaves=2
num_cat=0
split_feature=9
split_gain=0.272319
threshold=1.0000000180025095e-35
decision_type=2
left_child=-1
right_child=-2
leaf_value=-0.00057792483335078666 0.00076288778394103119
leaf_weight=33 28
leaf_count=33 28
internal_value=0
internal_weight=0
internal_count=61
is_linear=0
shrinkage=0.01


Tree=6
num_leaves=2
num_cat=0
split_feature=9
split_gain=0.2669
threshold=1.0000000180025095e-35
decision_type=2
left_child=-1
right_child=-2
leaf_value=-0.0005721455816334734 0.00075525889929849654
leaf_weight=33 28
leaf_count=33 28
internal_value=0
internal_weight=0
internal_count=61
is_linear=0
shrinkage=0.01


Tree=7
num_leaves=2
num_cat=0
split_feature=0
split_gain=0.245842
threshold=-0.086012672418080041
decision_type=2
left_child=-1
right_child=-2
leaf_value=-0.00060854904850323995 0.00066129846415752844
leaf_weight=30 31
leaf_count=30 31
internal_value=0
internal_weight=0
internal_count=61
is_linear=0
shrinkage=0.01


Tree=8
num_leaves=2
num_cat=0
split_feature=9
split_gain=0.257344
threshold=1.0000000180025095e-35
decision_type=2
left_child=-1
right_child=-2
leaf_value=-0.00056187784662611331 0.0007415468591664519
leaf_weight=33 28
leaf_count=33 28
internal_value=0
internal_weight=0
internal_count=61
is_linear=0
shrinkage=0.01


Tree=9
num_leaves=2
num_cat=0
split_feature=9
split_gain=0.252223
threshold=1.0000000180025095e-35
decision_type=2
left_child=-1
right_child=-2
leaf_value=-0.00055625906625099365 0.00073413137288298464
leaf_weight=33 28
leaf_count=33 28
internal_value=0
internal_weight=0
internal_count=61
is_linear=0
shrinkage=0.01


Tree=10
num_leaves=2
num_cat=0
split_feature=9
split_gain=0.195294
threshold=1.0000000180025095e-35
decision_type=2
left_child=-1
right_child=-2
leaf_value=-0.00047448185697673281 0.00070962466021928078
leaf_weight=30 26
leaf_count=30 26
internal_value=0
internal_weight=0
internal_count=56
is_linear=0
shrinkage=0.01


Tree=11
num_leaves=2
num_cat=0
split_feature=9
split_gain=0.191407
threshold=1.0000000180025095e-35
decision_type=2
left_child=-1
right_child=-2
leaf_value=-0.00046973703310747322 0.00070252841965367022
leaf_weight=30 26
leaf_count=30 26
internal_value=0
internal_weight=0
internal_count=56
is_linear=0
shrinkage=0.01


Tree=12
num_leaves=2
num_cat=0
split_feature=9
split_gain=0.187598
threshold=1.0000000180025095e-35
decision_type=2
left_child=-1
right_child=-2
leaf_value=-0.00046503966453019535 0.00069550313068947821
leaf_weight=30 26
leaf_count=30 26
internal_value=0
internal_weight=0
internal_count=56
is_linear=0
shrinkage=0.01


Tree=13
num_leaves=2
num_cat=0
split_feature=9
split_gain=0.183865
threshold=1.0000000180025095e-35
decision_type=2
left_child=-1
right_child=-2
leaf_value=-0.00046038925954295946 0.00068854809795224211
leaf_weight=30 26
leaf_count=30 26
internal_value=0
internal_weight=0
internal_count=56
is_linear=0
shrinkage=0.01


Tree=14
num_leaves=2
num_cat=0
split_feature=9
split_gain=0.180206
threshold=1.0000000180025095e-35
decision_type=2
left_child=-1
right_child=-2
leaf_value=-0.00045578537407952051 0.00068166261993330693
leaf_weight=30 26
leaf_count=30 26
internal_value=0
internal_weight=0
internal_count=56
is_linear=0
shrinkage=0.01


Tree=15
num_leaves=2
num_cat=0
split_feature=9
split_gain=0.220981
threshold=-0.099139237932011917
decision_type=2
left_child=-1
right_child=-2
leaf_value=-0.00060292171671115339 0.00061150986211502866
leaf_weight=31 29
leaf_count=31 29
internal_value=0
internal_weight=0
internal_count=60
is_linear=0
shrinkage=0.01


Tree=16
num_leaves=2
num_cat=0
split_feature=9
split_gain=0.216583
threshold=-0.099139237932011917
decision_type=2
left_child=-1
right_child=-2
leaf_value=-0.00059689249643856931 0.00060539476501209478
leaf_weight=31 29
leaf_count=31 29
internal_value=0
internal_weight=0
internal_count=60
is_linear=0
shrinkage=0.01


Tree=17
num_leaves=2
num_cat=0
split_feature=9
split_gain=0.212273
threshold=-0.099139237932011917
decision_type=2
left_child=-1
right_child=-2
leaf_value=-0.00059092355201080928 0.00059934082071714362
leaf_weight=31 29
leaf_count=31 29
internal_value=0
internal_weight=0
internal_count=60
is_linear=0
shrinkage=0.01


Tree=18
num_leaves=2
num_cat=0
split_feature=9
split_gain=0.208049
threshold=-0.099139237932011917
decision_type=2
left_child=-1
right_child=-2
leaf_value=-0.000585014334083685 0.00059334741287126109
leaf_weight=31 29
leaf_count=31 29
internal_value=0
internal_weight=0
internal_count=60
is_linear=0
shrinkage=0.01


Tree=19
num_leaves=2
num_cat=0
split_feature=9
split_gain=0.204079
threshold=1.0000000180025095e-35
decision_type=2
left_child=-1
right_child=-2
leaf_value=-0.00054285003012299773 0.00062944314899612917
leaf_weight=33 27
leaf_count=33 27
internal_value=0
internal_weight=0
internal_count=60
is_linear=0
shrinkage=0.01


Tree=20
num_leaves=2
num_cat=0
split_feature=9
split_gain=0.162102
threshold=1.0000000180025095e-35
decision_type=2
left_child=-1
right_child=-2
leaf_value=-0.0005162980418554657 0.00057838552699346715
leaf_weight=31 24
leaf_count=31 24
internal_value=0
internal_weight=0
internal_count=55
is_linear=0
shrinkage=0.01


Tree=21
num_leaves=2
num_cat=0
split_feature=9
split_gain=0.158876
threshold=1.0000000180025095e-35
decision_type=2
left_child=-1
right_child=-2
leaf_value=-0.00051113506579103193 0.00057260167610365901
leaf_weight=31 24
leaf_count=31 24
internal_value=0
internal_weight=0
internal_count=55
is_linear=0
shrinkage=0.01


Tree=22
num_leaves=2
num_cat=0
split_feature=9
split_gain=0.155714
threshold=1.0000000180025095e-35
decision_type=2
left_child=-1
right_child=-2
leaf_value=-0.00050602372382737453 0.00056687565467048752
leaf_weight=31 24
leaf_count=31 24
internal_value=0
internal_weight=0
internal_count=55
is_linear=0
shrinkage=0.01


Tree=23
num_leaves=2
num_cat=0
split_feature=9
split_gain=0.152615
threshold=1.0000000180025095e-35
decision_type=2
left_child=-1
right_child=-2
leaf_value=-0.00050096347591944881 0.00056120690365787592
leaf_weight=31 24
leaf_count=31 24
internal_value=0
internal_weight=0
internal_count=55
is_linear=0
shrinkage=0.01


Tree=24
num_leaves=2
num_cat=0
split_feature=9
split_gain=0.149578
threshold=1.0000000180025095e-35
decision_type=2
left_child=-1
right_child=-2
leaf_value=-0.00049595384156301376 0.00055559483286439591
leaf_weight=31 24
leaf_count=31 24
internal_value=0
internal_weight=0
internal_count=55
is_linear=0
shrinkage=0.01


Tree=25
num_leaves=2
num_cat=0
split_feature=9
split_gain=0.179843
threshold=1.0000000180025095e-35
decision_type=2
left_child=-1
right_child=-2
leaf_value=-0.00044953091453697367 0.0006749035687331344
leaf_weight=33 25
leaf_count=33 25
internal_value=0
internal_weight=0
internal_count=58
is_linear=0
shrinkage=0.01


Tree=26
num_leaves=2
num_cat=0
split_feature=9
split_gain=0.176264
threshold=1.0000000180025095e-35
decision_type=2
left_child=-1
right_child=-2
leaf_value=-0.00044503560651333612 0.00066815453474409884
leaf_weight=33 25
leaf_count=33 25
internal_value=0
internal_weight=0
internal_count=58
is_linear=0
shrinkage=0.01


Tree=27
num_leaves=2
num_cat=0
split_feature=0
split_gain=0.167232
threshold=-0.086012672418080041
decision_type=2
left_child=-1
right_child=-2
leaf_value=-0.00048431730083151097 0.00059025108656247276
leaf_weight=30 28
leaf_count=30 28
internal_value=0
internal_weight=0
internal_count=58
is_linear=0
shrinkage=0.01


Tree=28
num_leaves=2
num_cat=0
split_feature=9
split_gain=0.169708
threshold=1.0000000180025095e-35
decision_type=2
left_child=-1
right_child=-2
leaf_value=-0.00043671896472612082 0.0006555704815778882
leaf_weight=33 25
leaf_count=33 25
internal_value=0
internal_weight=0
internal_count=58
is_linear=0
shrinkage=0.01


Tree=29
num_leaves=2
num_cat=0
split_feature=9
split_gain=0.16633
threshold=1.0000000180025095e-35
decision_type=2
left_child=-1
right_child=-2
leaf_value=-0.00043235177133641573 0.00064901478616520764
leaf_weight=33 25
leaf_count=33 25
internal_value=0
internal_weight=0
internal_count=58
is_linear=0
shrinkage=0.01


Tree=30
num_leaves=2
num_cat=0
split_feature=9
split_gain=0.167054
threshold=-0.099139237932011917
decision_type=2
left_child=-1
right_child=-2
leaf_value=-0.00050724495724294215 0.00053091094407136557
leaf_weight=31 31
leaf_count=31 31
internal_value=0
internal_weight=0
internal_count=62
is_linear=0
shrinkage=0.01


Tree=31
num_leaves=2
num_cat=0
split_feature=9
split_gain=0.163789
threshold=1.0000000180025095e-35
decision_type=2
left_child=-1
right_child=-2
leaf_value=-0.00045471501011086409 0.00057809353296761406
leaf_weight=34 28
leaf_count=34 28
internal_value=0
internal_weight=0
internal_count=62
is_linear=0
shrinkage=0.01


Tree=32
num_leaves=3
num_cat=0
split_feature=9 8
split_gain=0.160866 0.0254049
threshold=0.49813195408974298 -0.7784025826900608
decision_type=2 2
left_child=1 -1
right_child=-2 -3
leaf_value=-0.00060802160633465971 0.00072333381023435373 -0.00011002532653427417
leaf_weight=20 21 21
leaf_count=20 21 21
internal_value=0 -0.00035295
internal_weight=0 41
internal_count=62 41
is_linear=0
shrinkage=0.01


Tree=33
num_leaves=2
num_cat=0
split_feature=9
split_gain=0.157986
threshold=-0.099139237932011917
decision_type=2
left_child=-1
right_child=-2
leaf_value=-0.00049331223282347164 0.00051627531137426325
leaf_weight=31 31
leaf_count=31 31
internal_value=0
internal_weight=0
internal_count=62
is_linear=0
shrinkage=0.01


Tree=34
num_leaves=3
num_cat=0
split_feature=9 8
split_gain=0.155414 0.0244161
threshold=0.49813195408974298 -0.7784025826900608
decision_type=2 2
left_child=1 -1
right_child=-2 -3
leaf_value=-0.00059700824739411474 0.00071093770453617682 -0.00010879951752334213
leaf_weight=20 21 21
leaf_count=20 21 21
internal_value=0 -0.00034695
internal_weight=0 41
internal_count=62 41
is_linear=0
shrinkage=0.01


Tree=35
num_leaves=2
num_cat=0
split_feature=9
split_gain=0.139772
threshold=1.0000000180025095e-35
decision_type=2
left_child=-1
right_child=-2
leaf_value=-0.00042381973755475357 0.00055655452529138603
leaf_weight=33 26
leaf_count=33 26
internal_value=0
internal_weight=0
internal_count=59
is_linear=0
shrinkage=0.01


Tree=36
num_leaves=2
num_cat=0
split_feature=9
split_gain=0.13699
threshold=1.0000000180025095e-35
decision_type=2
left_child=-1
right_child=-2
leaf_value=-0.00041958154492242487 0.00055098896890950317
leaf_weight=33 26
leaf_count=33 26
internal_value=0
internal_weight=0
internal_count=59
is_linear=0
shrinkage=0.01


Tree=37
num_leaves=2
num_cat=0
split_feature=9
split_gain=0.134264
threshold=1.0000000180025095e-35
decision_type=2
left_child=-1
right_child=-2
leaf_value=-0.00041538573119782304 0.00054547908912914306
leaf_weight=33 26
leaf_count=33 26
internal_value=0
internal_weight=0
internal_count=59
is_linear=0
shrinkage=0.01


Tree=38
num_leaves=2
num_cat=0
split_feature=9
split_gain=0.131624
threshold=-0.099139237932011917
decision_type=2
left_child=-1
right_child=-2
leaf_value=-0.00044092413338442003 0.00050495099423902238
leaf_weight=31 28
leaf_count=31 28
internal_value=0
internal_weight=0
internal_count=59
is_linear=0
shrinkage=0.01


Tree=39
num_leaves=2
num_cat=0
split_feature=9
split_gain=0.129145
threshold=1.0000000180025095e-35
decision_type=2
left_child=-1
right_child=-2
leaf_value=-0.0004073958903521116 0.00053497478903199623
leaf_weight=33 26
leaf_count=33 26
internal_value=0
internal_weight=0
internal_count=59
is_linear=0
shrinkage=0.01


Tree=40
num_leaves=2
num_cat=0
split_feature=9
split_gain=0.118808
threshold=0.38525920834404509
decision_type=2
left_child=-1
right_child=-2
leaf_value=-0.00031692916667088865 0.00063449450821194441
leaf_weight=35 21
leaf_count=35 21
internal_value=0
internal_weight=0
internal_count=56
is_linear=0
shrinkage=0.01


Tree=41
num_leaves=2
num_cat=0
split_feature=9
split_gain=0.116444
threshold=0.38525920834404509
decision_type=2
left_child=-1
right_child=-2
leaf_value=-0.00031375987778717123 0.00062814957234964136
leaf_weight=35 21
leaf_count=35 21
internal_value=0
internal_weight=0
internal_count=56
is_linear=0
shrinkage=0.01


Tree=42
num_leaves=2
num_cat=0
split_feature=9
split_gain=0.114127
threshold=0.38525920834404509
decision_type=2
left_child=-1
right_child=-2
leaf_value=-0.0003106222820601293 0.00062186807299786733
leaf_weight=35 21
leaf_count=35 21
internal_value=0
internal_weight=0
internal_count=56
is_linear=0
shrinkage=0.01


Tree=43
num_leaves=2
num_cat=0
split_feature=9
split_gain=0.111856
threshold=0.38525920834404509
decision_type=2
left_child=-1
right_child=-2
leaf_value=-0.00030751606003780451 0.00061564939085482844
leaf_weight=35 21
leaf_count=35 21
internal_value=0
internal_weight=0
internal_count=56
is_linear=0
shrinkage=0.01


Tree=44
num_leaves=2
num_cat=0
split_feature=0
split_gain=0.10219
threshold=0.21715038751988927
decision_type=2
left_child=-1
right_child=-2
leaf_value=-0.00029260724330587047 0.00058977015438445269
leaf_weight=35 21
leaf_count=35 21
internal_value=0
internal_weight=0
internal_count=56
is_linear=0
shrinkage=0.01


Tree=45
num_leaves=3
num_cat=0
split_feature=9 8
split_gain=0.118818 0.0183051
threshold=0.49813195408974298 -0.083362624362131502
decision_type=2 2
left_child=1 -1
right_child=-2 -3
leaf_value=-0.00048039494148854704 0.00064845866279765257 -6.7633587274361744e-05
leaf_weight=21 21 22
leaf_count=21 21 22
internal_value=0 -0.000269215
internal_weight=0 43
internal_count=64 43
is_linear=0
shrinkage=0.01


Tree=46
num_leaves=3
num_cat=0
split_feature=9 8
split_gain=0.116454 0.0179408
threshold=0.49813195408974298 -0.083362624362131502
decision_type=2 2
left_child=1 -1
right_child=-2 -3
leaf_value=-0.00047559101062472021 0.00064197406727111047 -6.6957247697494246e-05
leaf_weight=21 21 22
leaf_count=21 21 22
internal_value=0 -0.000266523
internal_weight=0 43
internal_count=64 43
is_linear=0
shrinkage=0.01


Tree=47
num_leaves=3
num_cat=0
split_feature=9 11
split_gain=0.114137 0.00315268
threshold=0.49813195408974298 -0.38843097692464351
decision_type=2 2
left_child=1 -1
right_child=-2 -3
leaf_value=-0.00017203373272786849 0.00063555434257501651 -0.00034370396200203055
leaf_weight=20 21 23
leaf_count=20 21 23
internal_value=0 -0.000263857
internal_weight=0 43
internal_count=64 43
is_linear=0
shrinkage=0.01


Tree=48
num_leaves=3
num_cat=0
split_feature=9 8
split_gain=0.111865 0.0176009
threshold=0.49813195408974298 -0.083362624362131502
decision_type=2 2
left_child=1 -1
right_child=-2 -3
leaf_value=-0.00046829728481714573 0.00062919879298923274 -6.3552923489954664e-05
leaf_weight=21 21 22
leaf_count=21 21 22
internal_value=0 -0.000261219
internal_weight=0 43
internal_count=64 43
is_linear=0
shrinkage=0.01


Tree=49
num_leaves=3
num_cat=0
split_feature=9 8
split_gain=0.109639 0.0172507
threshold=0.49813195408974298 -0.083362624362131502
decision_type=2 2
left_child=1 -1
right_child=-2 -3
leaf_value=-0.00046361430203043191 0.00062290681226711186 -6.2917394891635255e-05
leaf_weight=21 21 22
leaf_count=21 21 22
internal_value=0 -0.000258607
internal_weight=0 43
internal_count=64 43
is_linear=0
shrinkage=0.01


Tree=50
num_leaves=2
num_cat=0
split_feature=9
split_gain=0.0938298
threshold=0.49813195408974298
decision_type=2
left_child=-1
right_child=-2
leaf_value=-0.00023681612244287793 0.0006056432914920151
leaf_weight=39 20
leaf_count=39 20
internal_value=0
internal_weight=0
internal_count=59
is_linear=0
shrinkage=0.01


Tree=51
num_leaves=2
num_cat=0
split_feature=9
split_gain=0.0919625
threshold=0.49813195408974298
decision_type=2
left_child=-1
right_child=-2
leaf_value=-0.00023444796250446533 0.00059958686213940386
leaf_weight=39 20
leaf_count=39 20
internal_value=0
internal_weight=0
internal_count=59
is_linear=0
shrinkage=0.01


Tree=52
num_leaves=2
num_cat=0
split_feature=9
split_gain=0.0901325
threshold=0.49813195408974298
decision_type=2
left_child=-1
right_child=-2
leaf_value=-0.00023210348422603253 0.00059359099762514229
leaf_weight=39 20
leaf_count=39 20
internal_value=0
internal_weight=0
internal_count=59
is_linear=0
shrinkage=0.01


Tree=53
num_leaves=2
num_cat=0
split_feature=9
split_gain=0.0883389
threshold=0.49813195408974298
decision_type=2
left_child=-1
right_child=-2
leaf_value=-0.000229782437105687 0.00058765509448130621
leaf_weight=39 20
leaf_count=39 20
internal_value=0
internal_weight=0
internal_count=59
is_linear=0
shrinkage=0.01


Tree=54
num_leaves=2
num_cat=0
split_feature=9
split_gain=0.0865809
threshold=0.49813195408974298
decision_type=2
left_child=-1
right_child=-2
leaf_value=-0.00022748462345379477 0.00058177854421137456
leaf_weight=39 20
leaf_count=39 20
internal_value=0
internal_weight=0
internal_count=59
is_linear=0
shrinkage=0.01


Tree=55
num_leaves=2
num_cat=0
split_feature=9
split_gain=0.101751
threshold=1.0000000180025095e-35
decision_type=2
left_child=-1
right_child=-2
leaf_value=-0.00038937206102174617 0.00045890763191542091
leaf_weight=31 26
leaf_count=31 26
internal_value=0
internal_weight=0
internal_count=57
is_linear=0
shrinkage=0.01


Tree=56
num_leaves=2
num_cat=0
split_feature=9
split_gain=0.0997261
threshold=1.0000000180025095e-35
decision_type=2
left_child=-1
right_child=-2
leaf_value=-0.00038547832537592664 0.00045431854740644878
leaf_weight=31 26
leaf_count=31 26
internal_value=0
internal_weight=0
internal_count=57
is_linear=0
shrinkage=0.01


Tree=57
num_leaves=2
num_cat=0
split_feature=0
split_gain=0.0958152
threshold=1.0000000180025095e-35
decision_type=2
left_child=-1
right_child=-2
leaf_value=-0.00036477770234341736 0.00046146865314804019
leaf_weight=32 25
leaf_count=32 25
internal_value=0
internal_weight=0
internal_count=57
is_linear=0
shrinkage=0.01


Tree=58
num_leaves=2
num_cat=0
split_feature=9
split_gain=0.0961222
threshold=0.38525920834404509
decision_type=2
left_child=-1
right_child=-2
leaf_value=-0.00031600605573556902 0.00053530519844831098
leaf_weight=36 21
leaf_count=36 21
internal_value=0
internal_weight=0
internal_count=57
is_linear=0
shrinkage=0.01


Tree=59
num_leaves=2
num_cat=0
split_feature=9
split_gain=0.0942879
threshold=1.0000000180025095e-35
decision_type=2
left_child=-1
right_child=-2
leaf_value=-0.00037481571532665725 0.00044176255363988909
leaf_weight=31 26
leaf_count=31 26
internal_value=0
internal_weight=0
internal_count=57
is_linear=0
shrinkage=0.01


Tree=60
num_leaves=2
num_cat=0
split_feature=9
split_gain=0.0806294
threshold=-0.099139237932011917
decision_type=2
left_child=-1
right_child=-2
leaf_value=-0.00039437821188655032 0.00036646176452632062
leaf_weight=26 30
leaf_count=26 30
internal_value=0
internal_weight=0
internal_count=56
is_linear=0
shrinkage=0.01


Tree=61
num_leaves=2
num_cat=0
split_feature=9
split_gain=0.0790248
threshold=-0.099139237932011917
decision_type=2
left_child=-1
right_child=-2
leaf_value=-0.00039043444638641985 0.0003627971389263015
leaf_weight=26 30
leaf_count=26 30
internal_value=0
internal_weight=0
internal_count=56
is_linear=0
shrinkage=0.01


Tree=62
num_leaves=2
num_cat=0
split_feature=0
split_gain=0.0750956
threshold=-0.086012672418080041
decision_type=2
left_child=-1
right_child=-2
leaf_value=-0.00036656448186409696 0.0003662942761378684
leaf_weight=27 29
leaf_count=27 29
internal_value=0
internal_weight=0
internal_count=56
is_linear=0
shrinkage=0.01


Tree=63
num_leaves=2
num_cat=0
split_feature=9
split_gain=0.0759876
threshold=-0.099139237932011917
decision_type=2
left_child=-1
right_child=-2
leaf_value=-0.00038286444731056691 0.00035575051291380079
leaf_weight=26 30
leaf_count=26 30
internal_value=0
internal_weight=0
internal_count=56
is_linear=0
shrinkage=0.01


Tree=64
num_leaves=2
num_cat=0
split_feature=9
split_gain=0.0744755
threshold=-0.099139237932011917
decision_type=2
left_child=-1
right_child=-2
leaf_value=-0.00037903580868330137 0.00035219300681880365
leaf_weight=26 30
leaf_count=26 30
internal_value=0
internal_weight=0
internal_count=56
is_linear=0
shrinkage=0.01


Tree=65
num_leaves=2
num_cat=0
split_feature=0
split_gain=0.0860936
threshold=0.21715038751988927
decision_type=2
left_child=-1
right_child=-2
leaf_value=-0.00025979155355266166 0.00056267404626123604
leaf_weight=35 20
leaf_count=35 20
internal_value=0
internal_weight=0
internal_count=55
is_linear=0
shrinkage=0.01


Tree=66
num_leaves=2
num_cat=0
split_feature=9
split_gain=0.0844534
threshold=0.25297735490053086
decision_type=2
left_child=-1
right_child=-2
leaf_value=-0.00028105568281854644 0.00051881847373971889
leaf_weight=33 22
leaf_count=33 22
internal_value=0
internal_weight=0
internal_count=55
is_linear=0
shrinkage=0.01


Tree=67
num_leaves=2
num_cat=0
split_feature=0
split_gain=0.0828245
threshold=0.21715038751988927
decision_type=2
left_child=-1
right_child=-2
leaf_value=-0.0002548401394326772 0.00055185911920852958
leaf_weight=35 20
leaf_count=35 20
internal_value=0
internal_weight=0
internal_count=55
is_linear=0
shrinkage=0.01


Tree=68
num_leaves=2
num_cat=0
split_feature=9
split_gain=0.0812468
threshold=0.25297735490053086
decision_type=2
left_child=-1
right_child=-2
leaf_value=-0.00027569671627134088 0.00050884506517005236
leaf_weight=33 22
leaf_count=33 22
internal_value=0
internal_weight=0
internal_count=55
is_linear=0
shrinkage=0.01


Tree=69
num_leaves=2
num_cat=0
split_feature=9
split_gain=0.07963
threshold=0.25297735490053086
decision_type=2
left_child=-1
right_child=-2
leaf_value=-0.00027293975669608425 0.00050375661579892038
leaf_weight=33 22
leaf_count=33 22
internal_value=0
internal_weight=0
internal_count=55
is_linear=0
shrinkage=0.01


Tree=70
num_leaves=3
num_cat=0
split_feature=8 9
split_gain=0.10386 0.028629
threshold=-0.90902905479287865 0.49813195408974298
decision_type=2 2
left_child=-1 -2
right_child=1 -3
leaf_value=-0.00060641660494729877 2.3727079581779739e-05 0.00052931159734725952
leaf_weight=20 24 21
leaf_count=20 24 21
internal_value=0 0.000259667
internal_weight=0 45
internal_count=65 45
is_linear=0
shrinkage=0.01


Tree=71
num_leaves=3
num_cat=0
split_feature=8 0
split_gain=0.101793 0.0224027
threshold=-0.90902905479287865 0.37466207645980071
decision_type=2 2
left_child=-1 -2
right_child=1 -3
leaf_value=-0.00060035247821360832 4.8357744235545395e-05 0.00049559798712531722
leaf_weight=20 24 21
leaf_count=20 24 21
internal_value=0 0.00025707
internal_weight=0 45
internal_count=65 45
is_linear=0
shrinkage=0.01


Tree=72
num_leaves=3
num_cat=0
split_feature=8 0
split_gain=0.0997675 0.0219569
threshold=-0.90902905479287865 0.37466207645980071
decision_type=2 2
left_child=-1 -2
right_child=1 -3
leaf_value=-0.00059434895054437224 4.7874170122668146e-05 0.00049064200948036854
leaf_weight=20 24 21
leaf_count=20 24 21
internal_value=0 0.000254499
internal_weight=0 45
internal_count=65 45
is_linear=0
shrinkage=0.01


Tree=73
num_leaves=3
num_cat=0
split_feature=8 9
split_gain=0.0977821 0.0272456
threshold=-0.90902905479287865 0.49813195408974298
decision_type=2 2
left_child=-1 -2
right_child=1 -3
leaf_value=-0.00058840542432153599 2.1785814897157253e-05 0.00051500371036430198
leaf_weight=20 24 21
leaf_count=20 24 21
internal_value=0 0.000251954
internal_weight=0 45
internal_count=65 45
is_linear=0
shrinkage=0.01


Tree=74
num_leaves=3
num_cat=0
split_feature=9 11
split_gain=0.0827297 0.0053991
threshold=0.49813195408974298 -0.38843097692464351
decision_type=2 2
left_child=1 -1
right_child=-2 -3
leaf_value=-0.00013709001847365428 0.00050985366505171574 -0.00035886550018482887
leaf_weight=21 21 23
leaf_count=21 21 23
internal_value=0 -0.000253018
internal_weight=0 44
internal_count=65 44
is_linear=0
shrinkage=0.01


Tree=75
num_leaves=2
num_cat=0
split_feature=9
split_gain=0.0696995
threshold=-0.099139237932011917
decision_type=2
left_child=-1
right_child=-2
leaf_value=-0.00034177043143084605 0.00033877717365545255
leaf_weight=34 27
leaf_count=34 27
internal_value=0
internal_weight=0
internal_count=61
is_linear=0
shrinkage=0.01


Tree=76
num_leaves=2
num_cat=0
split_feature=9
split_gain=0.0683125
threshold=-0.099139237932011917
decision_type=2
left_child=-1
right_child=-2
leaf_value=-0.00033835271501790403 0.00033538940069438133
leaf_weight=34 27
leaf_count=34 27
internal_value=0
internal_weight=0
internal_count=61
is_linear=0
shrinkage=0.01


Tree=77
num_leaves=2
num_cat=0
split_feature=9
split_gain=0.0669531
threshold=-0.099139237932011917
decision_type=2
left_child=-1
right_child=-2
leaf_value=-0.00033496919395367838 0.00033203550985220961
leaf_weight=34 27
leaf_count=34 27
internal_value=0
internal_weight=0
internal_count=61
is_linear=0
shrinkage=0.01


Tree=78
num_leaves=2
num_cat=0
split_feature=11
split_gain=0.0656215
threshold=-0.3632367398347805
decision_type=2
left_child=-1
right_child=-2
leaf_value=-0.00032203046259798743 0.00034120429790793704
leaf_weight=35 26
leaf_count=35 26
internal_value=0
internal_weight=0
internal_count=61
is_linear=0
shrinkage=0.01


Tree=79
num_leaves=2
num_cat=0
split_feature=9
split_gain=0.0650533
threshold=-0.099139237932011917
decision_type=2
left_child=-1
right_child=-2
leaf_value=-0.0003299597471863415 0.00032751388925438127
leaf_weight=34 27
leaf_count=34 27
internal_value=0
internal_weight=0
internal_count=61
is_linear=0
shrinkage=0.01


Tree=80
num_leaves=2
num_cat=0
split_feature=9
split_gain=0.0379266
threshold=-0.099139237932011917
decision_type=2
left_child=-1
right_child=-2
leaf_value=-0.00027343770739837335 0.00026669494592799592
leaf_weight=26 26
leaf_count=26 26
internal_value=0
internal_weight=0
internal_count=52
is_linear=0
shrinkage=0.01


Tree=81
num_leaves=2
num_cat=0
split_feature=11
split_gain=0.0376272
threshold=-0.3632367398347805
decision_type=2
left_child=-1
right_child=-2
leaf_value=-0.00023369389570628604 0.00031078445852141489
leaf_weight=30 22
leaf_count=30 22
internal_value=0
internal_weight=0
internal_count=52
is_linear=0
shrinkage=0.01


Tree=82
num_leaves=2
num_cat=0
split_feature=9
split_gain=0.0369393
threshold=-0.099139237932011917
decision_type=2
left_child=-1
right_child=-2
leaf_value=-0.00026983229568801245 0.00026322371335341956
leaf_weight=26 26
leaf_count=26 26
internal_value=0
internal_weight=0
internal_count=52
is_linear=0
shrinkage=0.01


Tree=83
num_leaves=2
num_cat=0
split_feature=11
split_gain=0.0366489
threshold=-0.3632367398347805
decision_type=2
left_child=-1
right_child=-2
leaf_value=-0.00023061317515869935 0.00030674046709794892
leaf_weight=30 22
leaf_count=30 22
internal_value=0
internal_weight=0
internal_count=52
is_linear=0
shrinkage=0.01


Tree=84
num_leaves=2
num_cat=0
split_feature=9
split_gain=0.0359777
threshold=-0.099139237932011917
decision_type=2
left_child=-1
right_child=-2
leaf_value=-0.0002662745531863318 0.00025979749482268324
leaf_weight=26 26
leaf_count=26 26
internal_value=0
internal_weight=0
internal_count=52
is_linear=0
shrinkage=0.01


Tree=85
num_leaves=2
num_cat=0
split_feature=8
split_gain=0.0519385
threshold=-0.90902905479287865
decision_type=2
left_child=-1
right_child=-2
leaf_value=-0.00051766289485385638 0.00011484543742561663
leaf_weight=20 37
leaf_count=20 37
internal_value=0
internal_weight=0
internal_count=57
is_linear=0
shrinkage=0.01


Tree=86
num_leaves=2
num_cat=0
split_feature=0
split_gain=0.038361
threshold=-0.086012672418080041
decision_type=2
left_child=-1
right_child=-2
leaf_value=-0.00031169302362416473 0.0002211962976831604
leaf_weight=35 22
leaf_count=35 22
internal_value=0
internal_weight=0
internal_count=57
is_linear=0
shrinkage=0.01


Tree=87
num_leaves=2
num_cat=0
split_feature=8
split_gain=0.0503911
threshold=-0.90902905479287865
decision_type=2
left_child=-1
right_child=-2
leaf_value=-0.00050936934363562611 0.00011364538172209585
leaf_weight=20 37
leaf_count=20 37
internal_value=0
internal_weight=0
internal_count=57
is_linear=0
shrinkage=0.01


Tree=88
num_leaves=2
num_cat=0
split_feature=8
split_gain=0.0493883
threshold=-0.90902905479287865
decision_type=2
left_child=-1
right_child=-2
leaf_value=-0.00050427566608414053 0.000112508928050866
leaf_weight=20 37
leaf_count=20 37
internal_value=0
internal_weight=0
internal_count=57
is_linear=0
shrinkage=0.01


Tree=89
num_leaves=2
num_cat=0
split_feature=8
split_gain=0.0484055
threshold=-0.90902905479287865
decision_type=2
left_child=-1
right_child=-2
leaf_value=-0.00049923290091101078 0.00011138383978726092
leaf_weight=20 37
leaf_count=20 37
internal_value=0
internal_weight=0
internal_count=57
is_linear=0
shrinkage=0.01


Tree=90
num_leaves=2
num_cat=0
split_feature=9
split_gain=0.0681454
threshold=0.38525920834404509
decision_type=2
left_child=-1
right_child=-2
leaf_value=-0.00025284494589775417 0.00045371964241244962
leaf_weight=39 21
leaf_count=39 21
internal_value=0
internal_weight=0
internal_count=60
is_linear=0
shrinkage=0.01


Tree=91
num_leaves=2
num_cat=0
split_feature=9
split_gain=0.0667893
threshold=0.38525920834404509
decision_type=2
left_child=-1
right_child=-2
leaf_value=-0.00025031649782202947 0.00044918244116983955
leaf_weight=39 21
leaf_count=39 21
internal_value=0
internal_weight=0
internal_count=60
is_linear=0
shrinkage=0.01


Tree=92
num_leaves=2
num_cat=0
split_feature=11
split_gain=0.0637123
threshold=-0.3632367398347805
decision_type=2
left_child=-1
right_child=-2
leaf_value=-0.00028084203241659063 0.00038013015259057289
leaf_weight=35 25
leaf_count=35 25
internal_value=0
internal_weight=0
internal_count=60
is_linear=0
shrinkage=0.01


Tree=93
num_leaves=2
num_cat=0
split_feature=9
split_gain=0.0647982
threshold=0.38525920834404509
decision_type=2
left_child=-1
right_child=-2
leaf_value=-0.00024653023502861079 0.00044246305146121553
leaf_weight=39 21
leaf_count=39 21
internal_value=0
internal_weight=0
internal_count=60
is_linear=0
shrinkage=0.01


Tree=94
num_leaves=2
num_cat=0
split_feature=9
split_gain=0.0635087
threshold=0.38525920834404509
decision_type=2
left_child=-1
right_child=-2
leaf_value=-0.00024406492644443346 0.000438038431817577
leaf_weight=39 21
leaf_count=39 21
internal_value=0
internal_weight=0
internal_count=60
is_linear=0
shrinkage=0.01


Tree=95
num_leaves=2
num_cat=0
split_feature=9
split_gain=0.065809
threshold=0.49813195408974298
decision_type=2
left_child=-1
right_child=-2
leaf_value=-0.00023966150250858984 0.00046587801317218695
leaf_weight=39 20
leaf_count=39 20
internal_value=0
internal_weight=0
internal_count=59
is_linear=0
shrinkage=0.01


Tree=96
num_leaves=2
num_cat=0
split_feature=9
split_gain=0.0644994
threshold=0.49813195408974298
decision_type=2
left_child=-1
right_child=-2
leaf_value=-0.00023726490248615544 0.00046121922531165184
leaf_weight=39 20
leaf_count=39 20
internal_value=0
internal_weight=0
internal_count=59
is_linear=0
shrinkage=0.01


Tree=97
num_leaves=2
num_cat=0
split_feature=9
split_gain=0.0632159
threshold=0.49813195408974298
decision_type=2
left_child=-1
right_child=-2
leaf_value=-0.00023489223775238947 0.00045660703268367796
leaf_weight=39 20
leaf_count=39 20
internal_value=0
internal_weight=0
internal_count=59
is_linear=0
shrinkage=0.01


Tree=98
num_leaves=2
num_cat=0
split_feature=9
split_gain=0.0619579
threshold=0.49813195408974298
decision_type=2
left_child=-1
right_child=-2
leaf_value=-0.00023254332932619713 0.00045204097690293562
leaf_weight=39 20
leaf_count=39 20
internal_value=0
internal_weight=0
internal_count=59
is_linear=0
shrinkage=0.01


Tree=99
num_leaves=2
num_cat=0
split_feature=0
split_gain=0.0537779
threshold=0.37466207645980071
decision_type=2
left_child=-1
right_child=-2
leaf_value=-0.00021667740842064794 0.00042111663427203894
leaf_weight=39 20
leaf_count=39 20
internal_value=0
internal_weight=0
internal_count=59
is_linear=0
shrinkage=0.01


Tree=100
num_leaves=2
num_cat=0
split_feature=11
split_gain=0.0445782
threshold=-0.3632367398347805
decision_type=2
left_child=-1
right_child=-2
leaf_value=-0.00023302974117298922 0.00035961058625782078
leaf_weight=30 22
leaf_count=30 22
internal_value=0
internal_weight=0
internal_count=52
is_linear=0
shrinkage=0.01


Tree=101
num_leaves=2
num_cat=0
split_feature=11
split_gain=0.0436911
threshold=-0.3632367398347805
decision_type=2
left_child=-1
right_child=-2
leaf_value=-0.00023069945784906547 0.0003560144839469682
leaf_weight=30 22
leaf_count=30 22
internal_value=0
internal_weight=0
internal_count=52
is_linear=0
shrinkage=0.01


Tree=102
num_leaves=2
num_cat=0
split_feature=11
split_gain=0.0428217
threshold=-0.3632367398347805
decision_type=2
left_child=-1
right_child=-2
leaf_value=-0.00022839246463263408 0.00035245434211736377
leaf_weight=30 22
leaf_count=30 22
internal_value=0
internal_weight=0
internal_count=52
is_linear=0
shrinkage=0.01


Tree=103
num_leaves=2
num_cat=0
split_feature=11
split_gain=0.0419695
threshold=-0.3632367398347805
decision_type=2
left_child=-1
right_child=-2
leaf_value=-0.00022610852498716364 0.00034892979924651705
leaf_weight=30 22
leaf_count=30 22
internal_value=0
internal_weight=0
internal_count=52
is_linear=0
shrinkage=0.01


Tree=104
num_leaves=2
num_cat=0
split_feature=11
split_gain=0.0411343
threshold=-0.3632367398347805
decision_type=2
left_child=-1
right_child=-2
leaf_value=-0.00022384745418094098 0.00034544050312516368
leaf_weight=30 22
leaf_count=30 22
internal_value=0
internal_weight=0
internal_count=52
is_linear=0
shrinkage=0.01


Tree=105
num_leaves=2
num_cat=0
split_feature=0
split_gain=0.0486888
threshold=-0.086012672418080041
decision_type=2
left_child=-1
right_child=-2
leaf_value=-0.00026584520178403183 0.00029988005465289965
leaf_weight=32 29
leaf_count=32 29
internal_value=0
internal_weight=0
internal_count=61
is_linear=0
shrinkage=0.01


Tree=106
num_leaves=2
num_cat=0
split_feature=9
split_gain=0.0487784
threshold=-0.099139237932011917
decision_type=2
left_child=-1
right_child=-2
leaf_value=-0.0002661235671985196 0.00030012188050775501
leaf_weight=32 29
leaf_count=32 29
internal_value=0
internal_weight=0
internal_count=61
is_linear=0
shrinkage=0.01


Tree=107
num_leaves=2
num_cat=0
split_feature=9
split_gain=0.0478077
threshold=-0.099139237932011917
decision_type=2
left_child=-1
right_child=-2
leaf_value=-0.00026346234320953957 0.00029712066158716537
leaf_weight=32 29
leaf_count=32 29
internal_value=0
internal_weight=0
internal_count=61
is_linear=0
shrinkage=0.01


Tree=108
num_leaves=2
num_cat=0
split_feature=9
split_gain=0.0468563
threshold=-0.099139237932011917
decision_type=2
left_child=-1
right_child=-2
leaf_value=-0.00026082770291395717 0.00029414945229855848
leaf_weight=32 29
leaf_count=32 29
internal_value=0
internal_weight=0
internal_count=61
is_linear=0
shrinkage=0.01


Tree=109
num_leaves=2
num_cat=0
split_feature=9
split_gain=0.0459239
threshold=-0.099139237932011917
decision_type=2
left_child=-1
right_child=-2
leaf_value=-0.00025821944145718587 0.00029120795324380543
leaf_weight=32 29
leaf_count=32 29
internal_value=0
internal_weight=0
internal_count=61
is_linear=0
shrinkage=0.01


Tree=110
num_leaves=2
num_cat=0
split_feature=2
split_gain=0.0458137
threshold=-0.42031186524184316
decision_type=2
left_child=-1
right_child=-2
leaf_value=-0.00018663710153001982 0.00039259039013731206
leaf_weight=36 22
leaf_count=36 22
internal_value=0
internal_weight=0
internal_count=58
is_linear=0
shrinkage=0.01


Tree=111
num_leaves=2
num_cat=0
split_feature=11
split_gain=0.0444218
threshold=-0.3632367398347805
decision_type=2
left_child=-1
right_child=-2
leaf_value=-0.00019977555528063987 0.00036213504625872398
leaf_weight=34 24
leaf_count=34 24
internal_value=0
internal_weight=0
internal_count=58
is_linear=0
shrinkage=0.01


Tree=112
num_leaves=2
num_cat=0
split_feature=2
split_gain=0.0440748
threshold=-0.42031186524184316
decision_type=2
left_child=-1
right_child=-2
leaf_value=-0.0001830851530151752 0.00038504313571717248
leaf_weight=36 22
leaf_count=36 22
internal_value=0
internal_weight=0
internal_count=58
is_linear=0
shrinkage=0.01


Tree=113
num_leaves=2
num_cat=0
split_feature=2
split_gain=0.0431977
threshold=-0.42031186524184316
decision_type=2
left_child=-1
right_child=-2
leaf_value=-0.00018125429073633214 0.000381192697360265
leaf_weight=36 22
leaf_count=36 22
internal_value=0
internal_weight=0
internal_count=58
is_linear=0
shrinkage=0.01


Tree=114
num_leaves=2
num_cat=0
split_feature=9
split_gain=0.0423966
threshold=0.25297735490053086
decision_type=2
left_child=-1
right_child=-2
leaf_value=-0.00019538578166462044 0.00035356626695526452
leaf_weight=34 24
leaf_count=34 24
internal_value=0
internal_weight=0
internal_count=58
is_linear=0
shrinkage=0.01


Tree=115
num_leaves=2
num_cat=0
split_feature=11
split_gain=0.0484062
threshold=1.0000000180025095e-35
decision_type=2
left_child=-1
right_child=-2
leaf_value=-0.00018718953902966209 0.00042952287336811426
leaf_weight=35 20
leaf_count=35 20
internal_value=0
internal_weight=0
internal_count=55
is_linear=0
shrinkage=0.01


Tree=116
num_leaves=2
num_cat=0
split_feature=11
split_gain=0.0474429
threshold=1.0000000180025095e-35
decision_type=2
left_child=-1
right_child=-2
leaf_value=-0.00018531764518203481 0.00042522764625027777
leaf_weight=35 20
leaf_count=35 20
internal_value=0
internal_weight=0
internal_count=55
is_linear=0
shrinkage=0.01


Tree=117
num_leaves=2
num_cat=0
split_feature=11
split_gain=0.0464988
threshold=1.0000000180025095e-35
decision_type=2
left_child=-1
right_child=-2
leaf_value=-0.00018346446858985083 0.0004209753747563809
leaf_weight=35 20
leaf_count=35 20
internal_value=0
internal_weight=0
internal_count=55
is_linear=0
shrinkage=0.01


Tree=118
num_leaves=2
num_cat=0
split_feature=11
split_gain=0.0455735
threshold=1.0000000180025095e-35
decision_type=2
left_child=-1
right_child=-2
leaf_value=-0.00018162982551647085 0.00041676561674103144
leaf_weight=35 20
leaf_count=35 20
internal_value=0
internal_weight=0
internal_count=55
is_linear=0
shrinkage=0.01


Tree=119
num_leaves=2
num_cat=0
split_feature=11
split_gain=0.0446665
threshold=1.0000000180025095e-35
decision_type=2
left_child=-1
right_child=-2
leaf_value=-0.00017981352524033614 0.00041259795986115937
leaf_weight=35 20
leaf_count=35 20
internal_value=0
internal_weight=0
internal_count=55
is_linear=0
shrinkage=0.01


Tree=120
num_leaves=3
num_cat=0
split_feature=11 8
split_gain=0.033133 0.0107752
threshold=1.0000000180025095e-35 -0.7784025826900608
decision_type=2 2
left_child=1 -1
right_child=-2 -3
leaf_value=-0.00029859886877238749 0.00035604852223990576 2.9657846782356498e-05
leaf_weight=20 21 20
leaf_count=20 21 20
internal_value=0 -0.000134471
internal_weight=0 40
internal_count=61 40
is_linear=0
shrinkage=0.01


Tree=121
num_leaves=3
num_cat=0
split_feature=8 9
split_gain=0.0323388 0.00928375
threshold=-0.7784025826900608 0.38525920834404509
decision_type=2 2
left_child=-1 -2
right_child=1 -3
leaf_value=-0.00029561288561671972 4.0672326082130901e-05 0.00034171559936588719
leaf_weight=20 20 21
leaf_count=20 20 21
internal_value=0 0.000194865
internal_weight=0 41
internal_count=61 41
is_linear=0
shrinkage=0.01


Tree=122
num_leaves=3
num_cat=0
split_feature=11 8
split_gain=0.0321103 0.0102564
threshold=1.0000000180025095e-35 -0.7784025826900608
decision_type=2 2
left_child=1 -1
right_child=-2 -3
leaf_value=-0.00029265675786882642 0.00035036106821193939 2.75998474098742e-05
leaf_weight=20 21 20
leaf_count=20 21 20
internal_value=0 -0.000132528
internal_weight=0 40
internal_count=61 40
is_linear=0
shrinkage=0.01


Tree=123
num_leaves=3
num_cat=0
split_feature=11 8
split_gain=0.0314714 0.0100523
threshold=1.0000000180025095e-35 -0.7784025826900608
decision_type=2 2
left_child=1 -1
right_child=-2 -3
leaf_value=-0.00028973018215037885 0.00034685745627419757 2.7323852293193339e-05
leaf_weight=20 21 20
leaf_count=20 21 20
internal_value=0 -0.000131203
internal_weight=0 40
internal_count=61 40
is_linear=0
shrinkage=0.01


Tree=124
num_leaves=3
num_cat=0
split_feature=11 8
split_gain=0.0308451 0.00985228
threshold=1.0000000180025095e-35 -0.7784025826900608
decision_type=2 2
left_child=1 -1
right_child=-2 -3
leaf_value=-0.00028683288011234254 0.00034338888065706542 2.7050611097365619e-05
leaf_weight=20 21 20
leaf_count=20 21 20
internal_value=0 -0.000129891
internal_weight=0 40
internal_count=61 40
is_linear=0
shrinkage=0.01


Tree=125
num_leaves=3
num_cat=0
split_feature=9 8
split_gain=0.046006 0.00865032
threshold=0.49813195408974298 -0.7784025826900608
decision_type=2 2
left_child=1 -1
right_child=-2 -3
leaf_value=-0.00034721912711393094 0.00038663343439111487 -5.6627262383699415e-05
leaf_weight=20 20 21
leaf_count=20 20 21
internal_value=0 -0.000198379
internal_weight=0 41
internal_count=61 41
is_linear=0
shrinkage=0.01


Tree=126
num_leaves=3
num_cat=0
split_feature=9 8
split_gain=0.0450905 0.00847818
threshold=0.49813195408974298 -0.7784025826900608
decision_type=2 2
left_child=1 -1
right_child=-2 -3
leaf_value=-0.00034374693559948355 0.00038276709272759037 -5.6060996527473139e-05
leaf_weight=20 20 21
leaf_count=20 20 21
internal_value=0 -0.000196396
internal_weight=0 41
internal_count=61 41
is_linear=0
shrinkage=0.01


Tree=127
num_leaves=3
num_cat=0
split_feature=9 0
split_gain=0.0441932 0.00578792
threshold=0.49813195408974298 -0.11020826051893741
decision_type=2 2
left_child=1 -1
right_child=-2 -3
leaf_value=-7.2683071775827559e-05 0.00037893942592199896 -0.00031038267715346248
leaf_weight=20 20 21
leaf_count=20 20 21
internal_value=0 -0.000194432
internal_weight=0 41
internal_count=61 41
is_linear=0
shrinkage=0.01


Tree=128
num_leaves=3
num_cat=0
split_feature=9 8
split_gain=0.0433138 0.00831277
threshold=0.49813195408974298 -0.7784025826900608
decision_type=2 2
left_child=1 -1
right_child=-2 -3
leaf_value=-0.00033839414635440337 0.00037515002326108515 -5.3528459920060071e-05
leaf_weight=20 20 21
leaf_count=20 20 21
internal_value=0 -0.000192487
internal_weight=0 41
internal_count=61 41
is_linear=0
shrinkage=0.01


Tree=129
num_leaves=3
num_cat=0
split_feature=9 8
split_gain=0.0424518 0.00814734
threshold=0.49813195408974298 -0.7784025826900608
decision_type=2 2
left_child=1 -1
right_child=-2 -3
leaf_value=-0.00033501020440598954 0.0003713985211215913 -5.2993176172354393e-05
leaf_weight=20 20 21
leaf_count=20 20 21
internal_value=0 -0.000190562
internal_weight=0 41
internal_count=61 41
is_linear=0
shrinkage=0.01


Tree=130
num_leaves=3
num_cat=0
split_feature=2 2
split_gain=0.0408992 0.00998229
threshold=0.38194046248892338 -0.48268499446898711
decision_type=2 2
left_child=1 -1
right_child=-2 -3
leaf_value=-2.2943656235425311e-05 0.0003794955325429328 -0.00033162721537519243
leaf_weight=22 20 20
leaf_count=22 20 20
internal_value=0 -0.000169936
internal_weight=0 42
internal_count=62 42
is_linear=0
shrinkage=0.01


Tree=131
num_leaves=3
num_cat=0
split_feature=2 2
split_gain=0.0400853 0.00978365
threshold=0.38194046248892338 -0.48268499446898711
decision_type=2 2
left_child=1 -1
right_child=-2 -3
leaf_value=-2.2714219627563247e-05 0.00037570058176811472 -0.00032831095170695338
leaf_weight=22 20 20
leaf_count=22 20 20
internal_value=0 -0.000168236
internal_weight=0 42
internal_count=62 42
is_linear=0
shrinkage=0.01


Tree=132
num_leaves=3
num_cat=0
split_feature=2 8
split_gain=0.0392876 0.00965903
threshold=0.38194046248892338 -0.7784025826900608
decision_type=2 2
left_child=1 -1
right_child=-2 -3
leaf_value=-0.00031820396537936871 0.00037194357461703479 -1.4904240878032788e-05
leaf_weight=21 20 21
leaf_count=21 20 21
internal_value=0 -0.000166554
internal_weight=0 42
internal_count=62 42
is_linear=0
shrinkage=0.01


Tree=133
num_leaves=3
num_cat=0
split_feature=2 2
split_gain=0.0385058 0.00957061
threshold=0.38194046248892338 -0.48268499446898711
decision_type=2 2
left_child=1 -1
right_child=-2 -3
leaf_value=-2.0959397714415736e-05 0.00036822414092603137 -0.00032321064232382921
leaf_weight=22 20 20
leaf_count=22 20 20
internal_value=0 -0.000164889
internal_weight=0 42
internal_count=62 42
is_linear=0
shrinkage=0.01


Tree=134
num_leaves=3
num_cat=0
split_feature=2 8
split_gain=0.0377395 0.00944867
threshold=0.38194046248892338 -0.7784025826900608
decision_type=2 2
left_child=1 -1
right_child=-2 -3
leaf_value=-0.00031322911847382785 0.00036454190238146113 -1.3250241255653755e-05
leaf_weight=21 20 21
leaf_count=21 20 21
internal_value=0 -0.00016324
internal_weight=0 42
internal_count=62 42
is_linear=0
shrinkage=0.01


Tree=135
num_leaves=2
num_cat=0
split_feature=9
split_gain=0.037588
threshold=-0.099139237932011917
decision_type=2
left_child=-1
right_child=-2
leaf_value=-0.00024402228261654574 0.00026542455764553912
leaf_weight=30 28
leaf_count=30 28
internal_value=0
internal_weight=0
internal_count=58
is_linear=0
shrinkage=0.01


Tree=136
num_leaves=2
num_cat=0
split_feature=0
split_gain=0.036091
threshold=-0.086012672418080041
decision_type=2
left_child=-1
right_child=-2
leaf_value=-0.00023909427877515555 0.00026010482384923047
leaf_weight=30 28
leaf_count=30 28
internal_value=0
internal_weight=0
internal_count=58
is_linear=0
shrinkage=0.01


Tree=137
num_leaves=2
num_cat=0
split_feature=9
split_gain=0.0361642
threshold=-0.099139237932011917
decision_type=2
left_child=-1
right_child=-2
leaf_value=-0.0002393575243962308 0.0002603475417708978
leaf_weight=30 28
leaf_count=30 28
internal_value=0
internal_weight=0
internal_count=58
is_linear=0
shrinkage=0.01


Tree=138
num_leaves=2
num_cat=0
split_feature=9
split_gain=0.0354445
threshold=-0.099139237932011917
decision_type=2
left_child=-1
right_child=-2
leaf_value=-0.00023696394916623831 0.00025774406859584685
leaf_weight=30 28
leaf_count=30 28
internal_value=0
internal_weight=0
internal_count=58
is_linear=0
shrinkage=0.01


Tree=139
num_leaves=2
num_cat=0
split_feature=9
split_gain=0.0347392
threshold=-0.099139237932011917
decision_type=2
left_child=-1
right_child=-2
leaf_value=-0.00023459430256237587 0.00025516662971183127
leaf_weight=30 28
leaf_count=30 28
internal_value=0
internal_weight=0
internal_count=58
is_linear=0
shrinkage=0.01


Tree=140
num_leaves=2
num_cat=0
split_feature=11
split_gain=0.0315242
threshold=-0.3632367398347805
decision_type=2
left_child=-1
right_child=-2
leaf_value=-0.00021043806344904525 0.0002465240400320349
leaf_weight=36 26
leaf_count=36 26
internal_value=0
internal_weight=0
internal_count=62
is_linear=0
shrinkage=0.01


Tree=141
num_leaves=2
num_cat=0
split_feature=2
split_gain=0.0291159
threshold=-0.42031186524184316
decision_type=2
left_child=-1
right_child=-2
leaf_value=-0.00019084064196488867 0.00025406086152846301
leaf_weight=38 24
leaf_count=38 24
internal_value=0
internal_weight=0
internal_count=62
is_linear=0
shrinkage=0.01


Tree=142
num_leaves=3
num_cat=0
split_feature=9 2
split_gain=0.0286467 0.00154152
threshold=0.49813195408974298 -0.44583451843121208
decision_type=2 2
left_child=1 -1
right_child=-2 -3
leaf_value=-0.00010943952522939071 0.00028191279114772832 -0.00023211032750883272
leaf_weight=20 21 21
leaf_count=20 21 21
internal_value=0 -0.000172271
internal_weight=0 41
internal_count=62 41
is_linear=0
shrinkage=0.01


Tree=143
num_leaves=2
num_cat=0
split_feature=11
split_gain=0.0301394
threshold=-0.3632367398347805
decision_type=2
left_child=-1
right_child=-2
leaf_value=-0.00020562317238525591 0.00024118942190118385
leaf_weight=36 26
leaf_count=36 26
internal_value=0
internal_weight=0
internal_count=62
is_linear=0
shrinkage=0.01


Tree=144
num_leaves=2
num_cat=0
split_feature=11
split_gain=0.0295397
threshold=-0.3632367398347805
decision_type=2
left_child=-1
right_child=-2
leaf_value=-0.00020356694556539879 0.00023877752772442855
leaf_weight=36 26
leaf_count=36 26
internal_value=0
internal_weight=0
internal_count=62
is_linear=0
shrinkage=0.01


Tree=145
num_leaves=3
num_cat=0
split_feature=2 8
split_gain=0.0414328 0.0105673
threshold=0.38194046248892338 -0.7784025826900608
decision_type=2 2
left_child=1 -1
right_child=-2 -3
leaf_value=-0.0003518780095037073 0.0003678042314713821 -3.0697617635485671e-05
leaf_weight=20 20 21
leaf_count=20 20 21
internal_value=0 -0.000187371
internal_weight=0 41
internal_count=61 41
is_linear=0
shrinkage=0.01


Tree=146
num_leaves=3
num_cat=0
split_feature=2 8
split_gain=0.0406083 0.010357
threshold=0.38194046248892338 -0.7784025826900608
decision_type=2 2
left_child=1 -1
right_child=-2 -3
leaf_value=-0.00034835923672653737 0.00036412619246402751 -3.0390641962488494e-05
leaf_weight=20 20 21
leaf_count=20 20 21
internal_value=0 -0.000185497
internal_weight=0 41
internal_count=61 41
is_linear=0
shrinkage=0.01


Tree=147
num_leaves=3
num_cat=0
split_feature=2 8
split_gain=0.0398002 0.0101509
threshold=0.38194046248892338 -0.7784025826900608
decision_type=2 2
left_child=1 -1
right_child=-2 -3
leaf_value=-0.0003448756446596235 0.00036048492771806199 -3.0086738323526723e-05
leaf_weight=20 20 21
leaf_count=20 20 21
internal_value=0 -0.000183642
internal_weight=0 41
internal_count=61 41
is_linear=0
shrinkage=0.01


Tree=148
num_leaves=3
num_cat=0
split_feature=2 8
split_gain=0.0390081 0.00994889
threshold=0.38194046248892338 -0.7784025826900608
decision_type=2 2
left_child=1 -1
right_child=-2 -3
leaf_value=-0.00034142688475549221 0.00035688008187571542 -2.9785864587341038e-05
leaf_weight=20 20 21
leaf_count=20 20 21
internal_value=0 -0.000181806
internal_weight=0 41
internal_count=61 41
is_linear=0
shrinkage=0.01


Tree=149
num_leaves=3
num_cat=0
split_feature=2 8
split_gain=0.0382319 0.00975091
threshold=0.38194046248892338 -0.7784025826900608
decision_type=2 2
left_child=1 -1
right_child=-2 -3
leaf_value=-0.00033801261696498843 0.00035331127466633919 -2.9488011884192625e-05
leaf_weight=20 20 21
leaf_count=20 20 21
internal_value=0 -0.000179988
internal_weight=0 41
internal_count=61 41
is_linear=0
shrinkage=0.01


Tree=150
num_leaves=2
num_cat=0
split_feature=4
split_gain=0.020831
threshold=0.22013327592691487
decision_type=2
left_child=-1
right_child=-2
leaf_value=0.00020396967104676625 -0.0001792663717139009
leaf_weight=23 37
leaf_count=23 37
internal_value=0
internal_weight=0
internal_count=60
is_linear=0
shrinkage=0.01


Tree=151
num_leaves=2
num_cat=0
split_feature=4
split_gain=0.0204165
threshold=0.22013327592691487
decision_type=2
left_child=-1
right_child=-2
leaf_value=0.00020192996942964588 -0.00017747371212101064
leaf_weight=23 37
leaf_count=23 37
internal_value=0
internal_weight=0
internal_count=60
is_linear=0
shrinkage=0.01


Tree=152
num_leaves=2
num_cat=0
split_feature=4
split_gain=0.0200102
threshold=0.22013327592691487
decision_type=2
left_child=-1
right_child=-2
leaf_value=0.00019991067521598027 -0.00017569897677497688
leaf_weight=23 37
leaf_count=23 37
internal_value=0
internal_weight=0
internal_count=60
is_linear=0
shrinkage=0.01


Tree=153
num_leaves=2
num_cat=0
split_feature=4
split_gain=0.019612
threshold=0.22013327592691487
decision_type=2
left_child=-1
right_child=-2
leaf_value=0.00019791156539450519 -0.00017394198356447994
leaf_weight=23 37
leaf_count=23 37
internal_value=0
internal_weight=0
internal_count=60
is_linear=0
shrinkage=0.01


Tree=154
num_leaves=2
num_cat=0
split_feature=4
split_gain=0.0192217
threshold=0.22013327592691487
decision_type=2
left_child=-1
right_child=-2
leaf_value=0.00019593245471301286 -0.00017220256699098123
leaf_weight=23 37
leaf_count=23 37
internal_value=0
internal_weight=0
internal_count=60
is_linear=0
shrinkage=0.01


Tree=155
num_leaves=2
num_cat=0
split_feature=9
split_gain=0.0233435
threshold=-0.099139237932011917
decision_type=2
left_child=-1
right_child=-2
leaf_value=-0.00019341322744046067 0.00018929919433624797
leaf_weight=34 30
leaf_count=34 30
internal_value=0
internal_weight=0
internal_count=64
is_linear=0
shrinkage=0.01


Tree=156
num_leaves=2
num_cat=0
split_feature=9
split_gain=0.0228789
threshold=-0.099139237932011917
decision_type=2
left_child=-1
right_child=-2
leaf_value=-0.00019147909616174942 0.00018740620301105083
leaf_weight=34 30
leaf_count=34 30
internal_value=0
internal_weight=0
internal_count=64
is_linear=0
shrinkage=0.01


Tree=157
num_leaves=3
num_cat=0
split_feature=11 8
split_gain=0.0224104 0.0072552
threshold=1.0000000180025095e-35 -0.7784025826900608
decision_type=2 2
left_child=1 -1
right_child=-2 -3
leaf_value=-0.00028380471980199218 0.00025403055877956963 -2.3381288325333076e-05
leaf_weight=20 21 23
leaf_count=20 21 23
internal_value=0 -0.000144508
internal_weight=0 43
internal_count=64 43
is_linear=0
shrinkage=0.01


Tree=158
num_leaves=2
num_cat=0
split_feature=9
split_gain=0.0221548
threshold=-0.099139237932011917
decision_type=2
left_child=-1
right_child=-2
leaf_value=-0.00018836973111747819 0.00018447136459872127
leaf_weight=34 30
leaf_count=34 30
internal_value=0
internal_weight=0
internal_count=64
is_linear=0
shrinkage=0.01


Tree=159
num_leaves=3
num_cat=0
split_feature=11 8
split_gain=0.0218423 0.00696847
threshold=1.0000000180025095e-35 -0.7784025826900608
decision_type=2 2
left_child=1 -1
right_child=-2 -3
leaf_value=-0.00027908296510577204 0.00025088833999775705 -2.3857456449743198e-05
leaf_weight=20 21 23
leaf_count=20 21 23
internal_value=0 -0.000142567
internal_weight=0 43
internal_count=64 43
is_linear=0
shrinkage=0.01


Tree=160
num_leaves=2
num_cat=0
split_feature=9
split_gain=0.0315489
threshold=1.0000000180025095e-35
decision_type=2
left_child=-1
right_child=-2
leaf_value=-0.00019718359210387323 0.00027932072397864733
leaf_weight=33 24
leaf_count=33 24
internal_value=0
internal_weight=0
internal_count=57
is_linear=0
shrinkage=0.01


Tree=161
num_leaves=2
num_cat=0
split_feature=9
split_gain=0.0309211
threshold=1.0000000180025095e-35
decision_type=2
left_child=-1
right_child=-2
leaf_value=-0.0001952117560149142 0.00027652752061840146
leaf_weight=33 24
leaf_count=33 24
internal_value=0
internal_weight=0
internal_count=57
is_linear=0
shrinkage=0.01


Tree=162
num_leaves=2
num_cat=0
split_feature=9
split_gain=0.0303057
threshold=1.0000000180025095e-35
decision_type=2
left_child=-1
right_child=-2
leaf_value=-0.00019325964392699076 0.0002737622397641341
leaf_weight=33 24
leaf_count=33 24
internal_value=0
internal_weight=0
internal_count=57
is_linear=0
shrinkage=0.01


Tree=163
num_leaves=2
num_cat=0
split_feature=9
split_gain=0.0297026
threshold=1.0000000180025095e-35
decision_type=2
left_child=-1
right_child=-2
leaf_value=-0.00019132704840916576 0.0002710246170560519
leaf_weight=33 24
leaf_count=33 24
internal_value=0
internal_weight=0
internal_count=57
is_linear=0
shrinkage=0.01


Tree=164
num_leaves=2
num_cat=0
split_feature=9
split_gain=0.0291116
threshold=1.0000000180025095e-35
decision_type=2
left_child=-1
right_child=-2
leaf_value=-0.00018941377600034076 0.00026831437212725481
leaf_weight=33 24
leaf_count=33 24
internal_value=0
internal_weight=0
internal_count=57
is_linear=0
shrinkage=0.01


Tree=165
num_leaves=3
num_cat=0
split_feature=9 11
split_gain=0.0274511 0.00668937
threshold=0.49813195408974298 -0.38843097692464351
decision_type=2 2
left_child=1 -1
right_child=-2 -3
leaf_value=-7.574224844574928e-06 0.00031685031042434273 -0.00026621246943250301
leaf_weight=20 20 20
leaf_count=20 20 20
internal_value=0 -0.000136893
internal_weight=0 40
internal_count=60 40
is_linear=0
shrinkage=0.01


Tree=166
num_leaves=3
num_cat=0
split_feature=9 11
split_gain=0.0269048 0.00655626
threshold=0.49813195408974298 -0.38843097692464351
decision_type=2 2
left_child=1 -1
right_child=-2 -3
leaf_value=-7.4984880629926925e-06 0.00031368180294521152 -0.00026355034485459327
leaf_weight=20 20 20
leaf_count=20 20 20
internal_value=0 -0.000135524
internal_weight=0 40
internal_count=60 40
is_linear=0
shrinkage=0.01


Tree=167
num_leaves=3
num_cat=0
split_feature=9 11
split_gain=0.0263694 0.00642579
threshold=0.49813195408974298 -0.38843097692464351
decision_type=2 2
left_child=1 -1
right_child=-2 -3
leaf_value=-7.4234982021152983e-06 0.00031054498790763319 -0.00026091482816264036
leaf_weight=20 20 20
leaf_count=20 20 20
internal_value=0 -0.000134169
internal_weight=0 40
internal_count=60 40
is_linear=0
shrinkage=0.01


Tree=168
num_leaves=3
num_cat=0
split_feature=9 11
split_gain=0.0258447 0.00629791
threshold=0.49813195408974298 -0.38843097692464351
decision_type=2 2
left_child=1 -1
right_child=-2 -3
leaf_value=-7.3492641095072027e-06 0.00030743954004719854 -0.00025830569211393595
leaf_weight=20 20 20
leaf_count=20 20 20
internal_value=0 -0.000132827
internal_weight=0 40
internal_count=60 40
is_linear=0
shrinkage=0.01


Tree=169
num_leaves=3
num_cat=0
split_feature=9 11
split_gain=0.0253304 0.00617258
threshold=0.49813195408974298 -0.38843097692464351
decision_type=2 2
left_child=1 -1
right_child=-2 -3
leaf_value=-7.2757750749588014e-06 0.00030436514155007902 -0.00025572262273635717
leaf_weight=20 20 20
leaf_count=20 20 20
internal_value=0 -0.000131499
internal_weight=0 40
internal_count=60 40
is_linear=0
shrinkage=0.01


Tree=170
num_leaves=2
num_cat=0
split_feature=11
split_gain=0.0180316
threshold=-0.3632367398347805
decision_type=2
left_child=-1
right_child=-2
leaf_value=-0.00015463828819739663 0.00020803240942768753
leaf_weight=29 26
leaf_count=29 26
internal_value=0
internal_weight=0
internal_count=55
is_linear=0
shrinkage=0.01


Tree=171
num_leaves=2
num_cat=0
split_feature=11
split_gain=0.0176727
threshold=-0.3632367398347805
decision_type=2
left_child=-1
right_child=-2
leaf_value=-0.00015309190811139758 0.00020595208079052661
leaf_weight=29 26
leaf_count=29 26
internal_value=0
internal_weight=0
internal_count=55
is_linear=0
shrinkage=0.01


Tree=172
num_leaves=2
num_cat=0
split_feature=11
split_gain=0.0173211
threshold=-0.3632367398347805
decision_type=2
left_child=-1
right_child=-2
leaf_value=-0.00015156099115145105 0.00020389256255629544
leaf_weight=29 26
leaf_count=29 26
internal_value=0
internal_weight=0
internal_count=55
is_linear=0
shrinkage=0.01


Tree=173
num_leaves=2
num_cat=0
split_feature=11
split_gain=0.0169764
threshold=-0.3632367398347805
decision_type=2
left_child=-1
right_child=-2
leaf_value=-0.00015004537598197829 0.00020185363684924179
leaf_weight=29 26
leaf_count=29 26
internal_value=0
internal_weight=0
internal_count=55
is_linear=0
shrinkage=0.01


Tree=174
num_leaves=2
num_cat=0
split_feature=11
split_gain=0.0166385
threshold=-0.3632367398347805
decision_type=2
left_child=-1
right_child=-2
leaf_value=-0.00014854492796263817 0.00019983509591279123
leaf_weight=29 26
leaf_count=29 26
internal_value=0
internal_weight=0
internal_count=55
is_linear=0
shrinkage=0.01


Tree=175
num_leaves=2
num_cat=0
split_feature=9
split_gain=0.0145666
threshold=-0.099139237932011917
decision_type=2
left_child=-1
right_child=-2
leaf_value=-0.00015733846106256048 0.00017319093729990226
leaf_weight=30 24
leaf_count=30 24
internal_value=0
internal_weight=0
internal_count=54
is_linear=0
shrinkage=0.01


Tree=176
num_leaves=2
num_cat=0
split_feature=9
split_gain=0.0142767
threshold=-0.099139237932011917
decision_type=2
left_child=-1
right_child=-2
leaf_value=-0.00015576507927229008 0.00017145902461682756
leaf_weight=30 24
leaf_count=30 24
internal_value=0
internal_weight=0
internal_count=54
is_linear=0
shrinkage=0.01


Tree=177
num_leaves=2
num_cat=0
split_feature=9
split_gain=0.0139926
threshold=-0.099139237932011917
decision_type=2
left_child=-1
right_child=-2
leaf_value=-0.00015420742558004956 0.00016974444025739406
leaf_weight=30 24
leaf_count=30 24
internal_value=0
internal_weight=0
internal_count=54
is_linear=0
shrinkage=0.01


Tree=178
num_leaves=2
num_cat=0
split_feature=9
split_gain=0.0137142
threshold=-0.099139237932011917
decision_type=2
left_child=-1
right_child=-2
leaf_value=-0.00015266534981007377 0.00016804698922593769
leaf_weight=30 24
leaf_count=30 24
internal_value=0
internal_weight=0
internal_count=54
is_linear=0
shrinkage=0.01


Tree=179
num_leaves=2
num_cat=0
split_feature=9
split_gain=0.0134413
threshold=-0.099139237932011917
decision_type=2
left_child=-1
right_child=-2
leaf_value=-0.00015113869410318635 0.00016636652115266769
leaf_weight=30 24
leaf_count=30 24
internal_value=0
internal_weight=0
internal_count=54
is_linear=0
shrinkage=0.01


Tree=180
num_leaves=2
num_cat=0
split_feature=11
split_gain=0.01572
threshold=-0.3632367398347805
decision_type=2
left_child=-1
right_child=-2
leaf_value=-0.00012740626439241873 0.00021764138551509898
leaf_weight=31 23
leaf_count=31 23
internal_value=0
internal_weight=0
internal_count=54
is_linear=0
shrinkage=0.01


Tree=181
num_leaves=2
num_cat=0
split_feature=11
split_gain=0.0154072
threshold=-0.3632367398347805
decision_type=2
left_child=-1
right_child=-2
leaf_value=-0.00012613220264263931 0.00021546497536094293
leaf_weight=31 23
leaf_count=31 23
internal_value=0
internal_weight=0
internal_count=54
is_linear=0
shrinkage=0.01


Tree=182
num_leaves=2
num_cat=0
split_feature=11
split_gain=0.0151006
threshold=-0.3632367398347805
decision_type=2
left_child=-1
right_child=-2
leaf_value=-0.00012487088412707371 0.00021331032059843772
leaf_weight=31 23
leaf_count=31 23
internal_value=0
internal_weight=0
internal_count=54
is_linear=0
shrinkage=0.01


Tree=183
num_leaves=2
num_cat=0
split_feature=11
split_gain=0.0148001
threshold=-0.3632367398347805
decision_type=2
left_child=-1
right_child=-2
leaf_value=-0.00012362217297777535 0.00021117721917107701
leaf_weight=31 23
leaf_count=31 23
internal_value=0
internal_weight=0
internal_count=54
is_linear=0
shrinkage=0.01


Tree=184
num_leaves=2
num_cat=0
split_feature=11
split_gain=0.0145056
threshold=-0.3632367398347805
decision_type=2
left_child=-1
right_child=-2
leaf_value=-0.00012238594951228268 0.00020906544462575213
leaf_weight=31 23
leaf_count=31 23
internal_value=0
internal_weight=0
internal_count=54
is_linear=0
shrinkage=0.01


Tree=185
num_leaves=2
num_cat=0
split_feature=9
split_gain=0.0150428
threshold=0.38525920834404509
decision_type=2
left_child=-1
right_child=-2
leaf_value=-0.00010201835196413514 0.00024003320117481054
leaf_weight=36 20
leaf_count=36 20
internal_value=0
internal_weight=0
internal_count=56
is_linear=0
shrinkage=0.01


Tree=186
num_leaves=2
num_cat=0
split_feature=9
split_gain=0.0147434
threshold=0.38525920834404509
decision_type=2
left_child=-1
right_child=-2
leaf_value=-0.00010099816362425272 0.00023763287533074616
leaf_weight=36 20
leaf_count=36 20
internal_value=0
internal_weight=0
internal_count=56
is_linear=0
shrinkage=0.01


Tree=187
num_leaves=2
num_cat=0
split_feature=9
split_gain=0.01445
threshold=0.38525920834404509
decision_type=2
left_child=-1
right_child=-2
leaf_value=-9.9988186977700215e-05 0.00023525653872638941
leaf_weight=36 20
leaf_count=36 20
internal_value=0
internal_weight=0
internal_count=56
is_linear=0
shrinkage=0.01


Tree=188
num_leaves=2
num_cat=0
split_feature=9
split_gain=0.0141625
threshold=0.38525920834404509
decision_type=2
left_child=-1
right_child=-2
leaf_value=-9.8988297589433695e-05 0.0002329039762262255
leaf_weight=36 20
leaf_count=36 20
internal_value=0
internal_weight=0
internal_count=56
is_linear=0
shrinkage=0.01


Tree=189
num_leaves=2
num_cat=0
split_feature=11
split_gain=0.0139541
threshold=-0.3632367398347805
decision_type=2
left_child=-1
right_child=-2
leaf_value=-0.00010292451037093997 0.00022313875146210194
leaf_weight=35 21
leaf_count=35 21
internal_value=0
internal_weight=0
internal_count=56
is_linear=0
shrinkage=0.01


Tree=190
num_leaves=2
num_cat=0
split_feature=11
split_gain=0.015946
threshold=1.0000000180025095e-35
decision_type=2
left_child=-1
right_child=-2
leaf_value=-0.00012668873982167697 0.00022548271669074895
leaf_weight=36 20
leaf_count=36 20
internal_value=0
internal_weight=0
internal_count=56
is_linear=0
shrinkage=0.01


Tree=191
num_leaves=2
num_cat=0
split_feature=11
split_gain=0.0156287
threshold=1.0000000180025095e-35
decision_type=2
left_child=-1
right_child=-2
leaf_value=-0.00012542185027592092 0.00022322788741439579
leaf_weight=36 20
leaf_count=36 20
internal_value=0
internal_weight=0
internal_count=56
is_linear=0
shrinkage=0.01


Tree=192
num_leaves=2
num_cat=0
split_feature=11
split_gain=0.0153177
threshold=1.0000000180025095e-35
decision_type=2
left_child=-1
right_child=-2
leaf_value=-0.00012416762723458104 0.00022099561570212246
leaf_weight=36 20
leaf_count=36 20
internal_value=0
internal_weight=0
internal_count=56
is_linear=0
shrinkage=0.01


Tree=193
num_leaves=2
num_cat=0
split_feature=11
split_gain=0.0150129
threshold=1.0000000180025095e-35
decision_type=2
left_child=-1
right_child=-2
leaf_value=-0.00012292595188935393 0.00021878565824590625
leaf_weight=36 20
leaf_count=36 20
internal_value=0
internal_weight=0
internal_count=56
is_linear=0
shrinkage=0.01


Tree=194
num_leaves=2
num_cat=0
split_feature=11
split_gain=0.0147141
threshold=1.0000000180025095e-35
decision_type=2
left_child=-1
right_child=-2
leaf_value=-0.00012169669912610616 0.00021659779688343406
leaf_weight=36 20
leaf_count=36 20
internal_value=0
internal_weight=0
internal_count=56
is_linear=0
shrinkage=0.01


Tree=195
num_leaves=2
num_cat=0
split_feature=9
split_gain=0.0117893
threshold=-0.099139237932011917
decision_type=2
left_child=-1
right_child=-2
leaf_value=-0.00016510308268480003 0.00013366411639643568
leaf_weight=25 28
leaf_count=25 28
internal_value=0
internal_weight=0
internal_count=53
is_linear=0
shrinkage=0.01


Tree=196
num_leaves=2
num_cat=0
split_feature=9
split_gain=0.0115547
threshold=-0.099139237932011917
decision_type=2
left_child=-1
right_child=-2
leaf_value=-0.00016345204366371036 0.0001323274735061984
leaf_weight=25 28
leaf_count=25 28
internal_value=0
internal_weight=0
internal_count=53
is_linear=0
shrinkage=0.01


Tree=197
num_leaves=2
num_cat=0
split_feature=9
split_gain=0.0113248
threshold=-0.099139237932011917
decision_type=2
left_child=-1
right_child=-2
leaf_value=-0.00016181752998381855 0.00013100419667482909
leaf_weight=25 28
leaf_count=25 28
internal_value=0
internal_weight=0
internal_count=53
is_linear=0
shrinkage=0.01


Tree=198
num_leaves=2
num_cat=0
split_feature=9
split_gain=0.0110994
threshold=-0.099139237932011917
decision_type=2
left_child=-1
right_child=-2
leaf_value=-0.00016019936064258218 0.00012969415772074301
leaf_weight=25 28
leaf_count=25 28
internal_value=0
internal_weight=0
internal_count=53
is_linear=0
shrinkage=0.01


Tree=199
num_leaves=2
num_cat=0
split_feature=9
split_gain=0.0108785
threshold=-0.099139237932011917
decision_type=2
left_child=-1
right_child=-2
leaf_value=-0.00015859735773410648 0.00012839721291259463
leaf_weight=25 28
leaf_count=25 28
internal_value=0
internal_weight=0
internal_count=53
is_linear=0
shrinkage=0.01


Tree=200
num_leaves=2
num_cat=0
split_feature=11
split_gain=0.0135815
threshold=1.0000000180025095e-35
decision_type=2
left_child=-1
right_child=-2
leaf_value=-0.00010391138898044387 0.00022449885543755952
leaf_weight=34 20
leaf_count=34 20
internal_value=0
internal_weight=0
internal_count=54
is_linear=0
shrinkage=0.01


Tree=201
num_leaves=2
num_cat=0
split_feature=11
split_gain=0.0133113
threshold=1.0000000180025095e-35
decision_type=2
left_child=-1
right_child=-2
leaf_value=-0.00010287227896590005 0.00022225386683385296
leaf_weight=34 20
leaf_count=34 20
internal_value=0
internal_weight=0
internal_count=54
is_linear=0
shrinkage=0.01


Tree=202
num_leaves=2
num_cat=0
split_feature=2
split_gain=0.0115823
threshold=-0.42031186524184316
decision_type=2
left_child=-1
right_child=-2
leaf_value=-0.0001186096481176029 0.00017510502150980758
leaf_weight=29 25
leaf_count=29 25
internal_value=0
internal_weight=0
internal_count=54
is_linear=0
shrinkage=0.01


Tree=203
num_leaves=2
num_cat=0
split_feature=11
split_gain=0.0128441
threshold=1.0000000180025095e-35
decision_type=2
left_child=-1
right_child=-2
leaf_value=-0.00010108938947429551 0.00021828027110313997
leaf_weight=34 20
leaf_count=34 20
internal_value=0
internal_weight=0
internal_count=54
is_linear=0
shrinkage=0.01


Tree=204
num_leaves=2
num_cat=0
split_feature=9
split_gain=0.0113628
threshold=-0.099139237932011917
decision_type=2
left_child=-1
right_child=-2
leaf_value=-0.000128035352875789 0.00016208278504631447
leaf_weight=27 27
leaf_count=27 27
internal_value=0
internal_weight=0
internal_count=54
is_linear=0
shrinkage=0.01


Tree=205
num_leaves=2
num_cat=0
split_feature=4
split_gain=0.010516
threshold=0.22013327592691487
decision_type=2
left_child=-1
right_child=-2
leaf_value=0.00016859371165212775 -0.00011024344957580692
leaf_weight=21 38
leaf_count=21 38
internal_value=0
internal_weight=0
internal_count=59
is_linear=0
shrinkage=0.01


Tree=206
num_leaves=2
num_cat=0
split_feature=4
split_gain=0.0103068
threshold=0.22013327592691487
decision_type=2
left_child=-1
right_child=-2
leaf_value=0.00016690777149051429 -0.00010914102147484971
leaf_weight=21 38
leaf_count=21 38
internal_value=0
internal_weight=0
internal_count=59
is_linear=0
shrinkage=0.01


Tree=207
num_leaves=2
num_cat=0
split_feature=4
split_gain=0.0101017
threshold=0.22013327592691487
decision_type=2
left_child=-1
right_child=-2
leaf_value=0.00016523869303498596 -0.00010804960379190513
leaf_weight=21 38
leaf_count=21 38
internal_value=0
internal_weight=0
internal_count=59
is_linear=0
shrinkage=0.01


Tree=208
num_leaves=2
num_cat=0
split_feature=2
split_gain=0.0101296
threshold=-0.42031186524184316
decision_type=2
left_child=-1
right_child=-2
leaf_value=-0.00011540231322821152 0.00015325954783728104
leaf_weight=36 23
leaf_count=36 23
internal_value=0
internal_weight=0
internal_count=59
is_linear=0
shrinkage=0.01


Tree=209
num_leaves=2
num_cat=0
split_feature=2
split_gain=0.00992798
threshold=-0.42031186524184316
decision_type=2
left_child=-1
right_child=-2
leaf_value=-0.00011424829068548407 0.00015172695401934503
leaf_weight=36 23
leaf_count=36 23
internal_value=0
internal_weight=0
internal_count=59
is_linear=0
shrinkage=0.01


Tree=210
num_leaves=2
num_cat=0
split_feature=9
split_gain=0.0127229
threshold=0.49813195408974298
decision_type=2
left_child=-1
right_child=-2
leaf_value=-0.00012265575736259611 0.00018756588784162885
leaf_weight=39 20
leaf_count=39 20
internal_value=0
internal_weight=0
internal_count=59
is_linear=0
shrinkage=0.01


Tree=211
num_leaves=2
num_cat=0
split_feature=9
split_gain=0.0124697
threshold=0.49813195408974298
decision_type=2
left_child=-1
right_child=-2
leaf_value=-0.00012142920129311582 0.00018569022812880577
leaf_weight=39 20
leaf_count=39 20
internal_value=0
internal_weight=0
internal_count=59
is_linear=0
shrinkage=0.01


Tree=212
num_leaves=2
